tree
version=v4
num_class=1
num_tree_per_iteration=1
label_index=0
max_feature_idx=23
objective=regression
feature_names=hour day_of_week minute fee_lag_1 fee_lag_2 fee_lag_3 fee_lag_6 fee_lag_12 fee_lag_24 fee_rolling_mean fee_rolling_std fee_rolling_p25 fee_rolling_p75 fee_rolling_p90 fee_diff_1 fee_diff_2 fee_above_floor is_at_floor fee_zscore ratio_lag_1 ratio_rolling_mean ratio_rolling_std ratio_diff_1 hour_spike_rate
feature_infos=[0:23] [0:6] [0:55] [0.002:0.10757177] [0.002:0.10757177] [0.002:0.10757177] [0.002:0.10757177] [0.002:0.10757177] [0.002:0.10757177] [0.0020689713888888892:0.024862886388888887] [0:0.021532387530403131] [0.002:0.020816599999999998] [0.0020940925000000003:0.028429252500000002] [0.002219033:0.033301736999999998] [-0.041096589999999995:0.055417869999999994] [-0.041096589999999995:0.055417869999999994] [0:0.10555769699999999] [0:1] [-2.5917331067890088:8.3674293521292888] [0.0001:1] [0.057709722222222225:0.1894888888888889] [0.010796634481108467:0.12506600995728309] [-0.88289999999999991:0.88459999999999994] [0:0.099074074074074078]
tree_sizes=5609 5971 5989 6056 5990 6001 6000 5987 5967 6017 6028 6046 5981 6027 6071 6023 6035 6045 6065 6047 6043 6041 6042 6101 6073 6068 6086 6059 6058 6067 6028 6061 6092 6038 6034 6093 6117 6063 6042 6013 6071 6090 6066 6102 6079 6029 6053 6032 6038 6035 6123 6069 6042 6032 6113 6035 6071 4187 5993 4567 6051 6074 6059 6031 5686 6054 5220 6070 6018 6061 4651 5700 4835 3094 3717 4878 6025 6051 6050 6065 6046 6037 6083 6117 5322 5178 2868 2694 2475 2598 5202 4699 5104 5383 5224 4386 4426 5026 4357 4641 3346 2788 2318 3060 2982 6071 5126 3812 4858 4473 4833 5310 3722 3377 5396 1916 3987 1822 6012 1819 2599 2573 4184 4655 2688 2225 4925 3982 4832 5619 4371 4598 4239 3886 2691 3262 5837 4565 5985 2338 4650

Tree=0
num_leaves=63
num_cat=0
split_feature=20 20 20 20 20 20 20 5 3 18 21 19 23 2 14 14 21 19 6 0 3 0 18 2 2 0 9 20 14 0 6 0 0 19 6 19 1 19 6 20 2 9 0 0 5 13 11 18 23 20 21 18 0 20 5 21 0 2 1 5 11 0
split_gain=13.2786 2.36259 1.42982 0.359882 0.261005 0.13007 0.0994941 0.0915526 0.0731143 0.0717249 0.0656118 0.0609404 0.0509047 0.0480735 0.0432382 0.0452206 0.0431158 0.0420792 0.0388206 0.0387019 0.0345393 0.0338051 0.0330106 0.031269 0.0308208 0.0293054 0.0290939 0.0275221 0.027142 0.0410409 0.0388034 0.023034 0.0220925 0.0218342 0.0222668 0.0222191 0.0233411 0.0215252 0.0214122 0.0212881 0.0193878 0.0192689 0.0192199 0.0251395 0.0191166 0.0205942 0.0190098 0.0187483 0.0302481 0.0183039 0.0182433 0.0178685 0.017717 0.0172951 0.0168185 0.0167744 0.0165092 0.0164046 0.0209655 0.0160319 0.0271196 0.0158334
threshold=0.1185388888888889 0.14791875000000002 0.094434722222222239 0.13414236111111114 0.1578590277777778 0.081321527777777791 0.10925208333333335 0.0052359200000000007 0.0050112050000000003 8.3458287321926772 0.041806230440040913 0.11925000000000001 0.057407407407407414 1.0000000180025095e-35 9.5004999999999583e-05 -7.9925000000000642e-05 0.035708098215004334 0.11315000000000001 0.0050270000000000011 6.5000000000000009 0.005005980000000001 19.500000000000004 -0.11785019702114412 12.500000000000002 22.500000000000004 19.500000000000004 0.0052343279861111125 0.098777777777777784 0.00029366000000000033 13.500000000000002 0.0050001550000000009 17.500000000000004 17.500000000000004 0.10495 0.010635985000000002 0.19505000000000003 1.0000000180025095e-35 0.083350000000000021 0.0051361950000000005 0.12904375000000004 1.0000000180025095e-35 0.0028370264583333338 15.500000000000002 9.5000000000000018 0.016435360000000003 0.012240492500000002 0.0041839075000000012 -0.15847906586290603 0.022201684124050117 0.074775000000000022 0.037157414831250915 -0.2015996406491147 19.500000000000004 0.15445000000000003 0.0048760800000000005 0.046546753111896232 16.500000000000004 1.0000000180025095e-35 1.5000000000000002 0.0073790500000000007 0.0051467725000000015 17.500000000000004
decision_type=2 2 2 2 2 2 2 2 2 2 2 2 2 2 2 2 2 2 2 2 2 2 2 2 2 2 2 2 2 2 2 2 2 2 2 2 2 2 2 2 2 2 2 2 2 2 2 2 2 2 2 2 2 2 2 2 2 2 2 2 2 2
left_child=2 3 5 9 7 37 18 21 16 11 57 24 17 41 15 44 31 -7 23 50 54 -3 -19 47 55 51 46 -25 -21 30 -30 -5 -29 -9 35 36 -35 49 42 -40 -23 -6 43 -13 45 -15 -16 48 -4 -1 -10 -18 -43 -37 -17 -2 -26 58 -8 60 -28 -59
right_child=1 4 6 8 13 12 10 33 19 -11 -12 38 -14 14 26 20 25 22 -20 28 -22 40 -24 27 56 -27 59 32 29 -31 -32 -33 -34 34 -36 53 -38 -39 39 -41 -42 52 -44 -45 -46 -47 -48 -49 -50 -51 -52 -53 -54 -55 -56 -57 -58 61 -60 -61 -62 -63
leaf_value=0.12415345209052306 0.12711935904503113 0.12811226422629737 0.12603884284803368 0.12780296414402592 0.13082404597536043 0.12476681178430296 0.12838694461787303 0.13037212945627363 0.1279803267265725 0.12971612933901647 0.12532428587864025 0.12705240027680539 0.12554600891604115 0.12883309933186526 0.1294275885098152 0.12858732026083769 0.12751494082526971 0.12738577939629869 0.12800162939897819 0.12826406927178635 0.12891283739253703 0.1287480460779602 0.12531890882333563 0.12530526298771372 0.12672091644864261 0.12649612934760429 0.12877491240684216 0.12594175274909308 0.13133237925852653 0.12798330041478065 0.12866517942365574 0.12743840130037579 0.12542139017377851 0.12978015720381611 0.12798877724040553 0.13069404604485574 0.12856421739037113 0.12465790166303065 0.12736225120570036 0.12928020547260724 0.12741472048695218 0.12917792837972 0.12683631040200566 0.12746404602898814 0.12823964253857628 0.12924816478190618 0.13102662933398351 0.12601069584563027 0.12817077232173893 0.12448095658610012 0.12684255794963528 0.12676543198209619 0.1301673793608642 0.12875412935439345 0.1281610779905368 0.12643074475967439 0.12629502285655833 0.12651596488380501 0.1266991728420753 0.12868530988248861 0.12957345441377835 0.12609878201538641
leaf_weight=839 591 1129 41 1616 24 1198 23 20 95 24 139 956 332 882 263 423 488 25 20 287 393 30 85 378 728 108 227 766 30 38 25 592 278 45 93 27 321 651 39 23 299 255 435 606 95 452 20 395 28 868 56 95 55 20 511 104 331 912 92 331 200 303
leaf_count=839 591 1129 41 1616 24 1198 23 20 95 24 139 956 332 882 263 423 488 25 20 287 393 30 85 378 728 108 227 766 30 38 25 592 278 45 93 27 321 651 39 23 299 255 435 606 95 452 20 395 28 868 56 95 55 20 511 104 331 912 92 331 200 303
internal_value=0.126995 0.127933 0.125291 0.127324 0.128658 0.124651 0.126049 0.128186 0.127696 0.126991 0.126358 0.126974 0.124993 0.128884 0.128833 0.12873 0.127597 0.124853 0.12581 0.128236 0.12852 0.127982 0.125789 0.125787 0.126758 0.127253 0.129108 0.125671 0.128505 0.129247 0.13012 0.127705 0.125803 0.128752 0.128688 0.128845 0.128714 0.124413 0.127159 0.128074 0.127536 0.129459 0.12713 0.127212 0.128925 0.128974 0.129541 0.126144 0.126904 0.12432 0.127558 0.127393 0.129353 0.129869 0.128354 0.127016 0.126588 0.126466 0.127037 0.128946 0.129149 0.126412
internal_weight=20755 13382 7373 7267 6115 3998 3375 1984 3430 3837 1469 3813 1640 4131 3797 2756 2899 1308 1906 531 1327 1458 110 1886 1754 691 1041 1422 380 93 55 2208 1044 526 506 413 366 2358 2059 62 329 334 1997 1562 1429 1334 283 464 69 1707 151 583 310 47 934 695 1059 1330 115 758 427 1215
internal_count=20755 13382 7373 7267 6115 3998 3375 1984 3430 3837 1469 3813 1640 4131 3797 2756 2899 1308 1906 531 1327 1458 110 1886 1754 691 1041 1422 380 93 55 2208 1044 526 506 413 366 2358 2059 62 329 334 1997 1562 1429 1334 283 464 69 1707 151 583 310 47 934 695 1059 1330 115 758 427 1215
is_linear=0
shrinkage=1


Tree=1
num_leaves=63
num_cat=0
split_feature=20 20 20 20 20 20 20 5 16 19 21 3 19 2 14 8 21 6 0 0 2 2 0 0 9 0 20 14 12 21 22 8 10 22 9 0 10 19 0 19 8 11 22 5 21 21 10 2 12 11 21 14 0 20 2 4 2 0 5 3 0 2
split_gain=11.984 2.13224 1.29041 0.324793 0.235557 0.117388 0.0897934 0.0826263 0.0668804 0.0616793 0.0592147 0.0495351 0.0454682 0.0433863 0.0390225 0.0425836 0.0386784 0.0350356 0.0338722 0.0305091 0.030247 0.0282203 0.0278136 0.0264481 0.0262573 0.0257266 0.0248387 0.0246396 0.0562571 0.0235088 0.0213673 0.0207707 0.0723491 0.0207061 0.0360007 0.020651 0.0205454 0.0290441 0.0199385 0.0194265 0.0191409 0.0224709 0.0183863 0.0572054 0.0178904 0.0254862 0.057589 0.0174975 0.0173129 0.0171564 0.0171087 0.0169683 0.0167291 0.0165192 0.016143 0.0170911 0.0159445 0.0157689 0.0151915 0.0151664 0.0150866 0.0148051
threshold=0.1185388888888889 0.14791875000000002 0.094434722222222239 0.13414236111111114 0.1578590277777778 0.081321527777777791 0.10925208333333335 0.0052359200000000007 0.0029966470000000003 0.11925000000000001 0.041806230440040913 0.0054564950000000013 0.11275 1.0000000180025095e-35 9.5004999999999583e-05 0.0076274700000000016 0.035708098215004334 0.0050270000000000011 6.5000000000000009 19.500000000000004 22.500000000000004 12.500000000000002 10.500000000000002 19.500000000000004 0.0052343279861111125 17.500000000000004 0.098777777777777784 0.00029366000000000033 0.0050000212500000011 0.081576955531334636 -0.00025000000000000017 0.0050037250000000005 4.486244891593032e-05 0.046050000000000008 0.0050014394444444455 19.500000000000004 0.009971310541443389 0.10925000000000001 17.500000000000004 0.083350000000000021 0.0032990150000000002 0.005128483750000001 0.055650000000000019 0.0071641000000000005 0.032191719533655669 0.049317352877927691 8.7933677638007193e-06 1.0000000180025095e-35 0.0050022775 0.0041839075000000012 0.037157414831250915 -0.00011477500000000011 12.500000000000002 0.074775000000000022 1.0000000180025095e-35 0.0050000050000000009 1.0000000180025095e-35 15.500000000000002 0.0024866850000000002 0.0050048700000000007 16.500000000000004 1.0000000180025095e-35
decision_type=2 2 2 2 2 2 2 2 2 2 2 2 2 2 2 2 2 2 2 2 2 2 2 2 2 2 2 2 2 2 2 2 2 2 2 2 2 2 2 2 2 2 2 2 2 2 2 2 2 2 2 2 2 2 2 2 2 2 2 2 2 2
left_child=2 3 5 9 7 39 17 19 16 20 61 31 25 40 15 29 35 21 50 58 30 44 -13 -18 49 52 -23 -20 -29 51 -2 -11 -33 34 -14 54 37 -9 -28 53 -6 -42 56 -44 -4 46 -46 -21 -37 -16 -10 -15 -7 -1 -5 -56 -39 -54 -3 -60 -22 -8
right_child=1 4 6 8 13 12 10 36 18 11 -12 22 33 14 24 -17 23 -19 27 47 60 26 -24 -25 -26 -27 38 28 -30 -31 -32 32 -34 -35 -36 48 -38 42 -40 -41 41 -43 43 -45 45 -47 -48 -49 -50 -51 -52 -53 57 -55 55 -57 -58 -59 59 -61 -62 -63
leaf_value=-0.002701599937823409 0.00019737008194779175 0.0023602959101977337 -0.0010140659324197959 0.0012338113995310192 0.0031238498997741512 -0.002002241304218571 3.751149797133859e-05 0.0035646206587054102 0.00095065105191135505 9.6568611495100474e-05 -0.0015893078325383313 0.0004048454420020183 -0.0011678676864982623 0.0017368947860975732 0.0023088296891635163 0.001941459493532232 0.0003757883932792766 0.0009541684878058732 0.0012015408548187291 0.0016632643946104511 -0.00026403588615270046 -0.001607379519626472 0.0026884955685818569 -0.00047605646672039897 0.0018517787876136318 -0.0023278370115468257 -0.0010027142867144307 0.0037954187676818535 0.001225214410175492 0.00064143835513056507 -0.00043035733873219456 0.0026214648560444649 1.905335066112457e-05 -0.0016947993712330409 0.0011964858221333652 0.0001544540970699861 0.00041812700144345724 0.0026635104910625769 -0.0014970587165322718 -0.0022223728290583244 0.0017712689749657066 0.0026946833730156047 0.004572921441424461 0.001234671211215865 -0.00057130561758135122 -0.001331117691403382 0.002302593983072059 0.0003966051123262579 0.00085614446031667614 0.003827918553724885 -0.00014694931786445004 0.0014265763196629885 -0.001283371846556274 -0.0023904706079197389 0.00062709327280158612 0.0010621457261270556 0.0014673029396232243 -0.0019725021712575755 0.00091773478768241768 0.0013294993428697016 -0.00067023796246763604 -0.00055604900312113234
leaf_weight=839 515 22 325 155 63 705 115 21 97 1889 139 24 69 733 263 845 583 20 289 30 729 378 30 108 758 417 766 33 60 74 184 37 96 88 21 302 31 30 278 651 158 113 21 33 72 44 23 299 124 20 56 1104 196 868 1352 271 390 144 796 311 333 1215
leaf_count=839 515 22 325 155 63 705 115 21 97 1889 139 24 69 733 263 845 583 20 289 30 729 378 30 108 758 417 766 33 60 74 184 37 96 88 21 302 31 30 278 651 158 113 21 33 72 44 23 299 124 20 56 1104 196 868 1352 271 390 144 796 311 333 1215
internal_value=-2.43221e-06 0.000889374 -0.00162106 0.000310414 0.0015774 -0.00222882 -0.000901121 0.00112961 0.000663959 -5.62913e-06 -0.000607352 0.000179004 -0.00190394 0.00179247 0.00174441 0.00164589 0.000569047 -0.00112754 0.00117755 0.000935803 -0.000223289 -0.00114961 0.00167354 0.000242649 0.00200522 -0.00199581 -0.00126009 0.00142934 0.00213722 0.0015152 3.21314e-05 0.000139091 0.000743032 -0.00114943 -0.000616185 0.000671379 0.00166682 0.00174502 -0.00113435 -0.00245476 0.00233881 0.00215631 0.00166441 0.00253288 -0.000811024 -0.000336284 0.000124481 0.000512106 0.000358702 0.00241619 0.000548915 0.0015504 -0.00186331 -0.00254339 0.000746295 0.000699736 0.00155275 -0.00157524 0.00105927 0.00103342 -0.000391404 -0.000504726
internal_weight=20755 13382 7373 7267 6115 3998 3375 1984 3430 3837 1469 2076 1640 4131 3797 2756 2895 1906 535 1458 1761 1886 54 691 1041 1462 1422 382 93 1911 699 2022 133 178 90 2204 526 495 1044 2358 334 271 474 54 464 139 95 329 426 283 153 1837 1045 1707 1778 1623 420 340 1129 1107 1062 1330
internal_count=20755 13382 7373 7267 6115 3998 3375 1984 3430 3837 1469 2076 1640 4131 3797 2756 2895 1906 535 1458 1761 1886 54 691 1041 1462 1422 382 93 1911 699 2022 133 178 90 2204 526 495 1044 2358 334 271 474 54 464 139 95 329 426 283 153 1837 1045 1707 1778 1623 420 340 1129 1107 1062 1330
is_linear=0
shrinkage=0.05


Tree=2
num_leaves=63
num_cat=0
split_feature=20 20 20 20 20 20 20 5 18 3 19 23 14 14 19 20 19 2 23 2 9 2 14 4 4 12 20 2 8 23 19 3 10 19 19 18 4 2 23 10 7 3 19 4 19 23 8 23 20 20 18 3 23 2 10 15 18 19 12 15 13 14
split_gain=10.8155 1.92435 1.1646 0.293126 0.212591 0.105943 0.0810386 0.0745702 0.0624591 0.0595283 0.0494696 0.0415096 0.0404718 0.06209 0.0347189 0.0361969 0.032877 0.0325217 0.0724538 0.02709 0.0263164 0.0250058 0.0244933 0.0229896 0.0220921 0.0260013 0.0215132 0.0207816 0.0197631 0.0195624 0.0186718 0.0207529 0.0185422 0.0262123 0.0175324 0.017469 0.0169529 0.0173729 0.0165126 0.0229192 0.0163831 0.0157639 0.0154361 0.0344216 0.0153472 0.0151955 0.015077 0.0149396 0.0149086 0.0146206 0.0145541 0.0143093 0.0140697 0.0138141 0.0136679 0.0135852 0.0171484 0.0131933 0.0131359 0.0129418 0.0129254 0.0128687
threshold=0.1185388888888889 0.14791875000000002 0.094434722222222239 0.13414236111111114 0.1578590277777778 0.081321527777777791 0.10925208333333335 0.0052359200000000007 8.3458287321926772 0.0050112050000000003 0.11925000000000001 0.057407407407407414 9.0050000000002992e-06 -8.9949999999999215e-06 0.11535000000000002 0.084293750000000014 0.12125000000000001 22.500000000000004 0.097685185185185194 52.500000000000007 0.0050114812500000007 22.500000000000004 -0.0036478199999999991 0.0050022150000000008 0.013600965000000001 0.0081717987500000023 0.099611805555555571 1.0000000180025095e-35 0.0022462550000000004 0.057407407407407414 0.15035000000000001 0.0052359200000000007 0.009971310541443389 0.10925000000000001 0.083350000000000021 -0.28276486505333759 0.0050102900000000014 22.500000000000004 0.0055555555555555558 0.009971310541443389 0.0092287600000000008 0.0050005950000000009 0.16885000000000003 0.0054564950000000013 0.12925000000000003 0.057407407407407414 0.0051218800000000005 0.064351851851851868 0.074775000000000022 0.16724861111111114 -0.14386497572959714 0.0077680900000000009 0.064351851851851868 1.0000000180025095e-35 0.0071544446758381253 -3.2000000000000774e-06 -0.56381270053369037 0.15435000000000001 0.0052947650000000008 0.0014923250000000003 0.0050029685000000006 0.00030959000000000027
decision_type=2 2 2 2 2 2 2 2 2 2 2 2 2 2 2 2 2 2 2 2 2 2 2 2 2 2 2 2 2 2 2 2 2 2 2 2 2 2 2 2 2 2 2 2 2 2 2 2 2 2 2 2 2 2 2 2 2 2 2 2 2 2
left_child=2 3 5 8 7 34 17 30 10 16 21 14 13 19 -7 -16 60 18 -4 24 29 -2 -11 35 25 -6 -19 51 -15 -8 31 -3 33 -9 48 57 37 -25 -24 -40 49 -38 58 -44 -30 -23 -37 55 -1 -29 -13 -14 -31 -18 61 56 -32 -12 -35 -51 -5 -42
right_child=1 4 6 9 12 11 20 32 -10 22 23 50 27 28 15 -17 53 26 -20 -21 -22 45 38 36 -26 -27 -28 40 44 52 47 -33 -34 42 -36 46 41 -39 39 -41 54 -43 43 -45 -46 -47 -48 -49 -50 59 -52 -53 -54 -55 -56 -57 -58 -59 -60 -61 -62 -63
leaf_value=-0.0025665198851135898 1.6560504463080003e-05 0.00067935130801595228 -0.0009208150088872906 -3.8753043719146142e-05 0.0016676052785109608 -0.0020091938502031031 -0.00054007922093692376 0.0033863896875464847 0.0025373802998122606 -0.00059903045355895305 0.00042454666646970612 -0.00017374249157280878 0.0029952923472131225 0.0020194787637592528 0.00080730968066269448 -0.0015313466504896778 0.0010824690221041633 -0.001567678665923662 0.0015844098270948355 0.0011432106443116732 -0.00098368854085917031 -0.00044273416146873771 -0.00022364940232364461 0.0024378509697271511 0.0012079923846918584 0.0020726424947580236 -0.0010956103693958062 0.0017995737773391484 0.00065936909631282591 0.00081388290086381501 0.0027837091316045685 0.0017288945242180489 0.00039722065660997385 0.00096300022897228979 -0.0021112541784342369 3.7696655658588362e-05 -5.1887102969807146e-05 0.00044253197898797231 0.0011680210198180786 0.0028192722814723808 0.0018285235446064347 0.0010026698141830691 0.0039305461521144027 0.0017035311159503627 0.0012351555535493278 0.00011987337309857021 0.00096458770502876089 0.0018666187483427953 -0.0022709470837540837 0.0022419558216606214 -0.0014059500237112695 0.0018128462991444394 -0.00027395659870394629 0.00060726535368749862 0.0024901988121263426 0.00090342830422225075 0.0011985340704421489 0.0019054078721507852 0.0016263980162019157 0.0011104874157657227 0.00040049669663243752 0.0010120152498148533
leaf_weight=839 695 812 760 241 908 1209 1026 21 24 20 53 26 71 64 21 78 166 353 30 178 313 921 20 24 149 703 763 727 152 46 22 50 31 117 651 1752 81 20 469 22 79 63 20 131 485 138 45 58 868 395 306 40 84 1943 29 440 76 21 206 27 549 124
leaf_count=839 695 812 760 241 908 1209 1026 21 24 20 53 26 71 64 21 78 166 353 30 178 313 921 20 24 149 703 763 727 152 46 22 50 31 117 651 1752 81 20 469 22 79 63 20 131 485 138 45 58 868 395 306 40 84 1943 29 440 76 21 206 27 549 124
internal_value=-2.31059e-06 0.000844905 -0.00154001 0.000294894 0.00149853 -0.00211737 -0.000856065 0.00107313 -5.34767e-06 0.000630761 -2.13523e-05 -0.00180875 0.00170284 0.00158517 -0.00193548 -0.00103527 0.000541614 -0.00107116 -0.00082568 0.00173103 -0.000576984 -0.00021648 0.00111746 0.000144871 0.00179048 0.00184435 -0.00124493 0.00191098 0.00118191 -0.000466864 0.000889013 0.00074023 0.00158348 0.00165777 -0.00233203 9.1911e-05 0.000671938 0.00153089 0.00118464 0.00124201 0.00185808 0.000409482 0.00158119 0.0019985 0.00109776 -0.00036942 6.09076e-05 0.0011042 -0.00241622 0.00193546 -0.00130945 0.00256919 0.000110971 0.000644669 0.00147482 0.001022 0.00155439 0.000844791 0.0013861 0.00216956 0.000266498 0.00132977
internal_weight=20755 13382 7373 7267 6115 3998 3375 1984 3837 3430 3813 1640 4131 2639 1308 99 2899 1906 790 1938 1469 1754 531 2059 1760 1611 1116 1492 701 1156 1458 862 526 495 2358 1871 188 44 511 491 1381 144 474 151 637 1059 1797 596 1707 1149 332 111 130 2109 232 538 98 74 323 422 790 203
internal_count=20755 13382 7373 7267 6115 3998 3375 1984 3837 3430 3813 1640 4131 2639 1308 99 2899 1906 790 1938 1469 1754 531 2059 1760 1611 1116 1492 701 1156 1458 862 526 495 2358 1871 188 44 511 491 1381 144 474 151 637 1059 1797 596 1707 1149 332 111 130 2109 232 538 98 74 323 422 790 203
is_linear=0
shrinkage=0.05


Tree=3
num_leaves=63
num_cat=0
split_feature=13 9 10 12 18 18 3 21 21 11 18 18 9 18 7 11 21 9 10 18 9 10 23 23 2 9 18 10 9 21 4 5 5 5 18 9 5 23 2 2 6 23 23 9 3 7 15 15 23 21 18 23 4 21 21 21 21 14 22 12 11 6
split_gain=6.89717 1.7617 0.743796 0.660274 0.156772 0.201988 0.149903 0.106723 0.0820784 0.0767113 0.0714624 0.0556517 0.0542809 0.0533436 0.0508217 0.0500063 0.048995 0.0519564 0.0470251 0.0461863 0.0445543 0.0422482 0.0433519 0.0417023 0.0825661 0.0399574 0.0366143 0.0358327 0.0726335 0.0351201 0.0332725 0.0370982 0.0317342 0.0438763 0.0311686 0.0279221 0.0263273 0.0253439 0.0239635 0.0237526 0.0229914 0.0229033 0.0223826 0.0364074 0.0289143 0.0227152 0.0221427 0.0203787 0.0190743 0.0188944 0.0188193 0.0184107 0.0178771 0.0175694 0.0163826 0.0340559 0.0157035 0.0153102 0.0137006 0.0127788 0.0126299 0.0172313
threshold=0.0050000090000000006 0.0049989599305555561 1.1839859979686798e-11 0.0051709550000000005 -0.12275250993770487 -0.11784458332278068 0.0050000050000000009 0.039305235402206436 0.015129353533713424 0.005128483750000001 -0.11785106330234726 -0.12005428079750043 0.005000619305555557 -0.15426757147959116 0.0049732150000000004 0.0035409825000000004 0.053837971212090406 0.0050005874305555564 1.5585720733435032e-06 -0.12046511043239762 0.0050179838194444456 4.5223664741304605e-12 0.057407407407407414 0.097685185185185194 22.500000000000004 0.0050732218750000014 7.7151699944250955 2.7400387770827548e-07 0.0050000306944444463 0.01929945802272658 0.0051915800000000003 0.014568635000000002 0.032501405000000004 0.0050436400000000011 -0.14142903119551739 0.0050421284722222239 0.0050000050000000009 0.027314814814814816 1.0000000180025095e-35 1.0000000180025095e-35 0.0051361950000000005 0.022201684124050117 0.080555555555555561 0.0083674243750000016 0.0087514200000000011 0.022279105000000004 0.0010143449999999996 -1.2349999999998211e-06 0.02314814814814815 0.065565240008928119 -0.32703273326476279 0.035185185185185187 0.0050001550000000009 0.025822023930949008 0.026591264695622386 0.020468848688367635 0.039810866563239768 4.1850000000003004e-06 0.076450000000000032 0.0066380650000000012 0.0027160712500000003 0.0087514200000000011
decision_type=2 2 2 2 2 2 2 2 2 2 2 2 2 2 2 2 2 2 2 2 2 2 2 2 2 2 2 2 2 2 2 2 2 2 2 2 2 2 2 2 2 2 2 2 2 2 2 2 2 2 2 2 2 2 2 2 2 2 2 2 2 2
left_child=1 51 8 6 7 10 12 13 -3 15 11 19 -2 35 -8 60 17 -12 -15 -6 -20 22 54 25 -25 34 32 28 -7 -24 47 -32 33 49 -9 37 38 -4 -14 -11 56 -18 44 -44 46 -46 58 -17 -37 -16 -35 -1 -42 -31 55 -10 -40 -49 -41 -59 -5 -62
right_child=3 2 4 9 5 27 14 23 21 39 16 -13 36 18 26 30 41 -19 20 -21 -22 -23 29 24 -26 -27 -28 -29 -30 53 31 -33 -34 50 -36 48 -38 -39 40 42 52 -43 43 -45 45 -47 -48 57 -50 -51 -52 -53 -54 -55 -56 -57 -58 59 -60 -61 61 -63
leaf_value=0.0016399848055737279 0.0015524920282395207 -0.0023093577579832167 -0.00021782562999662783 0.0015780028652178165 -0.00093519648679612458 -0.00035042591008497984 0.0028646726808418815 -0.0011350984017083989 -0.0016088395550909471 0.0024582756842162624 -0.0017635854490848431 -0.00035891163748807611 0.00086119050432898804 0.0010019678889554651 0.00076649390479302981 0.0013470355827770186 -0.0027329726602822063 -0.0010728019733006208 -0.00070964808392387545 -0.0023855100263690601 1.2961419682886283e-05 -0.0022819842423617248 -0.0016795699089755091 0.0029786325126354186 -0.0010318915275010195 0.00016039345825107835 0.0028013324801577258 -0.00017425667226605898 -0.002414065080389766 -0.00045710743618191621 0.0015616416188286807 0.0006040657365143457 -0.0010022104880772532 0.0027469910103827717 -0.00049277295603903802 0.001381770527600397 0.00069227994257393477 0.00037027200388709187 0.0003339102675178554 0.0017326593455092615 0.00069329577840800908 -0.0014735455090037974 0.0041535153926815843 0.0014529315047883966 0.0011844819487459633 0.0025383477778899866 0.0033183579597789504 0.000816275028251875 0.00014934191604455314 0.0021092212103583194 0.0013343418535116608 0.0026991199940146707 0.0022944016106934708 -0.0011862621786349337 -0.001717143060191312 -0.0012435563505363472 2.8951790237797032e-06 0.00099852618658403123 0.002553206963757812 0.0017921248931975797 0.001862915302954758 0.0029608681393200435
leaf_weight=608 109 292 986 192 242 161 38 782 1236 115 400 371 210 51 884 451 93 852 951 71 275 143 128 21 33 83 28 791 58 233 897 114 20 25 249 54 700 225 1949 878 84 59 24 26 349 34 24 670 75 27 414 44 22 128 568 1319 439 133 54 82 132 49
leaf_count=608 109 292 986 192 242 161 38 782 1236 115 400 371 210 51 884 451 93 852 951 71 275 143 128 21 33 83 28 791 58 233 897 114 20 25 249 54 700 225 1949 878 84 59 24 26 349 34 24 670 75 27 414 44 22 128 568 1319 439 133 54 82 132 49
internal_value=-2.19507e-06 -0.000813358 -0.000963969 0.00102199 -0.000647694 -0.000911454 0.00063009 -0.000431808 -0.00150188 0.00148116 -0.00119225 -0.000773165 0.000454154 -0.000254436 0.0010605 0.00132272 -0.00139642 -0.0012935 -0.000485678 -0.00126418 -0.000547562 -0.00143909 -0.00140572 -0.000829226 0.000527757 -0.000895004 0.00101146 -0.000330962 -0.00089696 -0.00096796 0.00123725 0.00145367 0.000974874 0.00100416 -0.000979968 -3.40661e-05 0.000418984 -0.000108559 0.000348234 0.00176771 0.000305042 -0.00224412 0.00171054 0.00274921 0.00167175 0.00130467 0.00181882 0.00107348 0.000665242 0.000806289 0.00141479 0.00171146 0.0010256 -0.000715644 -0.00147426 -0.00142026 0.000273058 0.000934082 0.0017802 0.0013012 0.00186049 0.00216015
internal_weight=20755 11582 10930 9173 6883 3098 4949 3785 4047 4224 2088 684 3513 2617 1436 2720 1404 1252 1277 313 1226 3755 3612 1168 54 1114 1398 1010 219 489 2347 1011 1370 1350 1031 1340 3404 1211 2704 1504 2494 152 1389 50 1339 383 956 1336 129 911 439 652 106 361 3123 2555 2388 885 932 215 373 181
internal_count=20755 11582 10930 9173 6883 3098 4949 3785 4047 4224 2088 684 3513 2617 1436 2720 1404 1252 1277 313 1226 3755 3612 1168 54 1114 1398 1010 219 489 2347 1011 1370 1350 1031 1340 3404 1211 2704 1504 2494 152 1389 50 1339 383 956 1336 129 911 439 652 106 361 3123 2555 2388 885 932 215 373 181
is_linear=0
shrinkage=0.05


Tree=4
num_leaves=63
num_cat=0
split_feature=20 20 20 20 20 20 20 5 18 16 19 19 2 21 23 21 2 23 19 20 3 15 18 2 21 23 20 2 15 21 2 21 21 19 11 21 3 18 6 18 8 12 2 23 19 16 13 15 21 23 18 21 19 9 2 21 20 9 15 6 9 10
split_gain=8.9703 1.54726 0.999798 0.237627 0.171918 0.0882785 0.0707196 0.0612115 0.056023 0.0474015 0.0428415 0.0367251 0.0355519 0.0339405 0.0315978 0.0307913 0.0274753 0.0611766 0.0272154 0.0256512 0.0269983 0.0296177 0.0242204 0.0441837 0.0227422 0.0225081 0.0223898 0.022201 0.0212277 0.0358246 0.0211267 0.0201243 0.0180284 0.0179774 0.0177207 0.0176752 0.0243435 0.0174213 0.0170675 0.017685 0.0170573 0.0184073 0.0167156 0.0163062 0.0154877 0.0149144 0.0187973 0.0149742 0.0141465 0.0132554 0.0132291 0.0140886 0.0129063 0.0134542 0.0128854 0.0126237 0.0122407 0.0170671 0.0122216 0.0180638 0.0121328 0.0155016
threshold=0.1185388888888889 0.14791875000000002 0.094434722222222239 0.13414236111111114 0.1578590277777778 0.081321527777777791 0.11162430555555557 0.0053168750000000013 8.3458287321926772 0.0029966470000000003 0.11925000000000001 0.11275 1.0000000180025095e-35 0.035708098215004334 0.057407407407407414 0.042069866317812961 22.500000000000004 0.097685185185185194 0.13655000000000003 0.17141666666666669 0.011128515 0.00046677000000000009 -0.11785019702114412 22.500000000000004 0.072579683487979912 0.097685185185185194 0.099611805555555571 22.500000000000004 -0.00152355 0.068479077059549254 1.0000000180025095e-35 0.033804537144299554 0.059509295202081106 0.098550000000000013 0.0020320212500000005 0.028075951092164094 0.0050112050000000003 -0.20742495898834079 0.0051176400000000006 -0.20352765941460796 0.0032990150000000002 0.0093778575000000013 1.0000000180025095e-35 0.046296296296296301 0.070050000000000015 0.0030087170000000006 0.0062805400000000003 0.00013321500000000036 0.046546753111896232 0.057407407407407414 6.3541710791422945 0.028533769867021216 0.11275 0.0050049319444444461 1.0000000180025095e-35 0.034896869699482032 0.1031777777777778 0.0050025990972222233 1.0000000180025095e-35 0.0050102900000000014 0.0050230477083333348 4.4298741343546062e-05
decision_type=2 2 2 2 2 2 2 2 2 2 2 2 2 2 2 2 2 2 2 2 2 2 2 2 2 2 2 2 2 2 2 2 2 2 2 2 2 2 2 2 2 2 2 2 2 2 2 2 2 2 2 2 2 2 2 2 2 2 2 2 2 2
left_child=2 3 5 8 7 44 16 31 10 13 27 14 40 42 -7 30 17 52 24 45 21 -21 23 -13 25 34 55 48 -11 -30 -8 60 35 -32 -14 -9 -37 -15 50 -40 -6 -42 -5 -33 -1 47 -47 -20 -2 -29 51 -12 53 -4 -38 -18 -54 -58 -44 -60 61 -3
right_child=1 4 6 9 12 11 15 32 -10 28 38 22 18 37 -16 -17 26 -19 19 20 -22 -23 -24 -25 -26 -27 -28 49 29 -31 33 43 -34 -35 -36 36 54 -39 39 -41 41 -43 58 -45 -46 46 -48 -49 -50 -51 -52 -53 56 -55 -56 -57 57 -59 59 -61 -62 -63
leaf_value=-0.0022657204382223084 0.00012343452272311486 0.00095092987436219125 -0.00082460571709333519 0.0010416795020883681 0.0027749520596227657 -0.0018473905551218196 0.00033081260998999346 0.00079718984586569217 0.0024141259957104924 -0.00019791277032602333 0.00021416458338177873 0.0017773393914103507 0.0020461397422423034 0.00032185516185124808 -0.0012431054916029981 -0.0013238684281532188 -0.0012518124682905727 0.0014903973473701627 0.001288942128935463 0.0019652188463274239 0.0012793078316917672 0.0034266878704492677 -0.0013269655026903356 -0.0013233126736142569 0.00022769703499971703 0.0026063606223033276 -0.00095991931706798498 -0.00040335801941676337 0.0010046923400015356 0.0031145315373405109 -0.00083922999547212393 0.00048507273100450169 0.00026527588488534093 -0.00034219626596474037 0.0011750287564159646 0.0029180854252938717 0.0025480167374239658 -0.00029626728730060373 0.0018916668739361092 0.00021621216559045329 0.0015637291919242517 0.0024316868605745441 0.00050479417976737561 0.0011395526789971789 -0.0020093033500022074 0.0021765392674104184 0.0015500224454110152 0.0018332155096649244 -0.00050894330934869898 0.00012210785473302087 0.0011617545428453013 -5.8612609714460548e-05 -0.00094886169879741615 -0.0014397210823484151 0.001449133726952083 -0.0019329525043165477 -0.00046483879603230124 0.000973241416795645 0.00067891997425045434 0.0017710512068689517 0.00086446749618304089 0.0018292163301555861
leaf_weight=1141 591 125 482 191 63 1198 93 70 24 34 1170 20 64 547 264 96 261 30 940 312 128 39 131 27 52 32 906 921 480 21 236 530 30 794 665 35 29 144 28 36 178 93 1753 116 1217 132 1287 146 104 138 30 795 105 109 333 92 147 24 214 46 632 84
leaf_count=1141 591 125 482 191 63 1198 93 70 24 34 1170 20 64 547 264 96 261 30 940 312 128 39 131 27 52 32 906 921 480 21 236 530 30 794 665 35 29 144 28 36 178 93 1753 116 1217 132 1287 146 104 138 30 795 105 109 333 92 147 24 214 46 632 84
internal_value=-2.08531e-06 0.000769482 -0.00140248 0.000276295 0.00135558 -0.00193744 -0.000768774 0.000973029 5.96699e-06 0.000578701 -9.19058e-06 -0.00165571 0.00153931 0.000498796 -0.00173827 -0.000464387 -0.000940873 -0.000729411 0.0014958 0.00156568 0.00190092 0.0021276 -0.000977613 -3.88626e-06 0.00123935 0.00130848 -0.00109153 -0.000190777 0.00101108 0.00109313 -0.000390914 0.000812468 0.00145342 -0.00045608 0.0012515 0.00152974 0.00165891 0.000193042 0.000145497 0.000949224 0.00203387 0.00186159 0.000594656 0.000602595 -0.00213338 0.00150157 0.0016083 0.00136211 2.88053e-05 -0.000334884 0.000119713 0.000103804 -0.000806221 -0.000938053 0.00153717 -0.00142933 -0.000523927 -0.000263003 0.000552241 0.000872143 0.000973679 0.00130393
internal_weight=20755 13382 7373 7267 6115 3998 3375 1984 3837 3430 3813 1640 4131 2895 1462 1219 2156 897 3797 2984 479 351 178 47 813 761 1259 1754 535 501 1123 1487 497 1030 729 467 397 691 2059 64 334 271 2204 646 2358 2505 1419 1086 695 1059 1995 1965 867 591 362 353 276 171 2013 260 841 209
internal_count=20755 13382 7373 7267 6115 3998 3375 1984 3837 3430 3813 1640 4131 2895 1462 1219 2156 897 3797 2984 479 351 178 47 813 761 1259 1754 535 501 1123 1487 497 1030 729 467 397 691 2059 64 334 271 2204 646 2358 2505 1419 1086 695 1059 1995 1965 867 591 362 353 276 171 2013 260 841 209
is_linear=0
shrinkage=0.05


Tree=5
num_leaves=63
num_cat=0
split_feature=20 20 20 20 20 20 18 5 20 0 19 0 21 2 22 18 19 0 6 21 0 3 0 4 21 0 12 15 20 20 3 21 3 12 0 22 22 22 22 2 10 19 20 21 21 19 21 21 20 21 18 5 20 0 22 15 1 5 10 22 18 19
split_gain=8.19696 1.53121 0.726488 0.244141 0.114537 0.0806814 0.0662219 0.0594335 0.0468785 0.0432638 0.0404961 0.0394134 0.0377837 0.0396876 0.037576 0.0344926 0.0497939 0.0316902 0.0317569 0.0300829 0.0296889 0.0263404 0.0261128 0.0253423 0.0228307 0.0227429 0.0225858 0.021733 0.0198929 0.0198574 0.0186556 0.0185692 0.0179754 0.0178475 0.017693 0.0176169 0.0184881 0.0175684 0.0461576 0.0175504 0.0170726 0.016387 0.0157133 0.0239607 0.015555 0.0153601 0.0152743 0.0146195 0.0142883 0.0142028 0.0275669 0.0141098 0.0141083 0.0144377 0.0140845 0.0135027 0.0258853 0.014955 0.0134958 0.0134943 0.0134479 0.0133744
threshold=0.11622499999999999 0.14243055555555559 0.094434722222222239 0.1562854166666667 0.12956111111111115 0.080773611111111129 5.3779897192121444 0.0052359200000000007 0.10197291666666668 16.500000000000004 0.12125000000000001 17.500000000000004 0.064237976944552841 1.0000000180025095e-35 0.033399999999999999 1.5553276608715507 0.23385000000000003 15.500000000000002 0.0050005950000000009 0.028075951092164094 17.500000000000004 0.0051915800000000003 17.500000000000004 0.0054799450000000008 0.046213641534576889 11.500000000000002 0.0051965912500000011 0.0011599949999999998 0.11653333333333335 0.12581111111111112 0.0048790750000000009 0.031951928860709182 0.0084131000000000015 0.0056677687500000006 7.5000000000000009 0.0041000000000000142 0.058550000000000012 0.0091999999999999946 0.0079000000000000129 17.500000000000004 0.00015646900495316907 0.11355000000000003 0.10925208333333335 0.034236030095340785 0.051147595263460958 0.15895000000000004 0.028338107804562935 0.035586193274913171 0.15236666666666668 0.027807407658072342 -0.1265984035210643 0.0050033750000000009 0.070453472222222244 17.500000000000004 -0.011999999999999992 -0.00028302499999999985 3.5000000000000004 0.0050295700000000006 9.0983420598661107e-06 -0.0087999999999999971 -0.22632399563544783 0.11535000000000002
decision_type=2 2 2 2 2 2 2 2 2 2 2 2 2 2 2 2 2 2 2 2 2 2 2 2 2 2 2 2 2 2 2 2 2 2 2 2 2 2 2 2 2 2 2 2 2 2 2 2 2 2 2 2 2 2 2 2 2 2 2 2 2 2
left_child=2 4 5 7 6 47 9 11 44 25 31 34 13 -5 -8 23 27 18 42 -9 32 37 61 30 39 29 -14 -17 -11 -2 -15 60 -21 -28 -3 -35 -37 38 -12 40 59 -34 54 -44 -4 -39 -25 52 -36 50 -27 -47 -1 -54 -10 -23 57 -57 -51 -19 -6 -7
right_child=1 3 8 12 10 22 14 19 17 28 21 -13 26 15 -16 16 -18 24 -20 20 -22 55 -24 46 -26 49 33 -29 -30 -31 -32 -33 41 35 48 36 -38 45 -40 -41 -42 -43 43 -45 -46 51 -48 -49 -50 58 -52 -53 53 -55 -56 56 -58 -59 -60 -61 -62 -63
leaf_value=-0.0022549680277555613 -0.00020357968018972977 0.0006939389185948179 -0.0010597917276123539 0.0019918227535290441 0.0006846903164841934 -0.0015358089357858438 0.00065410146586752189 0.00058233896011150121 -0.00041140895250846884 0.0010217195540793578 0.00051902230758939217 0.00043112140548854337 0.00011559724251102139 0.0013978184663109359 0.0033571464434498919 0.0018400267729406315 0.0036113538153170208 -8.3650710138802743e-05 0.0010048873781642847 0.001593627932409712 0.0029181017801447801 1.565468264743686e-06 -0.0019267767675431936 0.0023797857168246991 -0.0015707090903492255 0.0013165087659561666 0.0021801169215801305 0.0010440375059129888 -0.0005055099261018789 0.00015213010170283519 0.0010816663214099967 -0.00014019897868119651 -0.00037506589100563099 0.00061413117433576627 0.00092984050068414511 0.0018979896310683171 0.00058061287251426048 0.00014045948976409677 0.0024834834795910868 -0.0010027375010181192 0.00080855082245155554 0.0011302453864622155 -0.0002681698672260205 -0.0012590320978273194 -0.0018290431613826917 0.00041339341397177783 0.0014881791396277276 -0.0027473184053734361 0.0014875725526232574 0.0012255752837518231 0.00022589874418479117 0.0012817560305649585 -0.0018735704879252878 -0.0022092192617183515 -0.0009105891423394916 0.0013957924539191972 0.00032845951383933428 0.0029439004124539609 -0.00012462029388834414 -0.00094425139415824522 0.00012651643324246718 -0.001025417075484413
leaf_weight=509 1375 858 753 323 152 1118 36 119 214 22 844 745 69 900 20 377 35 75 33 290 33 20 434 50 119 74 35 111 692 549 969 488 21 147 883 76 41 664 31 425 24 130 527 69 72 313 1222 72 132 20 267 55 1311 424 416 39 35 26 248 116 372 145
leaf_count=509 1375 858 753 323 152 1118 36 119 214 22 844 745 69 900 20 377 35 75 33 290 33 20 434 50 119 74 35 111 692 549 969 488 21 147 883 76 41 664 31 425 24 130 527 69 72 313 1222 72 132 20 267 55 1311 424 416 39 35 26 248 116 372 145
internal_value=-5.94255e-06 0.000691557 -0.00142088 0.00117188 0.00011853 -0.0018541 -8.52876e-05 0.000841108 -0.000809384 -0.000114689 0.000340053 0.000738729 0.00141577 0.00146051 0.00161947 0.00141367 0.00178963 -0.000679566 -0.000525722 0.00129309 0.00147153 0.000469019 -0.00159219 0.00135107 -0.000934756 -1.77893e-05 0.000931005 0.00165897 -0.000458452 -0.00010208 0.00123391 8.17391e-05 0.00136328 0.00111918 0.000861083 0.000978521 0.00143634 0.000423805 0.00058862 -0.000816508 -0.00044838 0.000920897 -0.000566921 -0.000382884 -0.00112693 0.000284064 0.00152323 -0.002046 0.00100237 0.00024851 0.000462571 0.000543176 -0.0020235 -0.0019556 -0.000741026 0.00118754 0.00142473 0.00201504 -2.38594e-05 -0.000606319 0.000288429 -0.00147721
internal_weight=20764 13908 6856 7566 6342 4013 3303 3211 2843 3247 3039 2618 4355 3987 56 3664 523 2018 1259 593 474 2027 1697 3141 759 2533 368 488 714 1924 1869 1012 441 299 1873 264 117 1907 875 640 215 151 1226 596 825 1032 1272 2316 1015 609 341 368 2244 1735 630 120 100 65 268 191 524 1263
internal_count=20764 13908 6856 7566 6342 4013 3303 3211 2843 3247 3039 2618 4355 3987 56 3664 523 2018 1259 593 474 2027 1697 3141 759 2533 368 488 714 1924 1869 1012 441 299 1873 264 117 1907 875 640 215 151 1226 596 825 1032 1272 2316 1015 609 341 368 2244 1735 630 120 100 65 268 191 524 1263
is_linear=0
shrinkage=0.05


Tree=6
num_leaves=63
num_cat=0
split_feature=20 20 20 20 20 20 18 5 20 0 19 0 14 14 14 22 0 7 23 23 20 14 14 7 22 18 15 19 2 2 20 15 18 15 15 2 7 22 22 12 0 12 19 14 14 20 22 1 19 23 1 2 19 13 22 0 14 2 19 18 2 2
split_gain=7.39775 1.38192 0.655655 0.220337 0.10337 0.0728149 0.0605115 0.0536387 0.0423079 0.041334 0.0365477 0.0355706 0.0350608 0.0427701 0.0333871 0.0314209 0.0276604 0.0253426 0.0243976 0.0243607 0.0232159 0.0212719 0.0209618 0.0224518 0.0261525 0.0203172 0.0593209 0.102319 0.0181877 0.0180316 0.0179254 0.017912 0.0334535 0.0175257 0.0339456 0.0172214 0.0199633 0.0168752 0.0398481 0.016767 0.016464 0.0164384 0.0164296 0.0162306 0.0153459 0.0152801 0.0151838 0.0144768 0.0144256 0.0142421 0.0142258 0.0153378 0.0189099 0.0140625 0.013415 0.0133612 0.0127756 0.012747 0.019613 0.0372198 0.0123438 0.0121562
threshold=0.11622499999999999 0.14243055555555559 0.094434722222222239 0.1562854166666667 0.12956111111111115 0.080773611111111129 8.3458287321926772 0.0052359200000000007 0.10197291666666668 16.500000000000004 0.12125000000000001 17.500000000000004 9.0050000000002992e-06 -7.2024999999999853e-05 -0.001322 -0.11459999999999999 14.500000000000002 0.0020078450000000003 0.0069444444444444449 0.057407407407407414 0.12581111111111112 0.00018220000000000001 -0.00091249500000000004 0.017151930000000003 0.055650000000000019 2.6488623179797393 0.00019116000000000014 0.17105000000000004 1.0000000180025095e-35 1.0000000180025095e-35 0.11653333333333335 0.00087263000000000022 0.2256444600305284 5.9149999999995673e-06 8.9360000000000147e-05 17.500000000000004 0.0091442450000000022 0.0091999999999999946 0.0079000000000000129 0.0059001487500000005 11.500000000000002 0.0051754550000000007 0.12925000000000003 -6.4600000000000152e-06 -5.8949999999996844e-06 0.10925208333333335 -0.0048499999999999993 2.5000000000000004 0.14935000000000001 0.097685185185185194 1.0000000180025095e-35 1.0000000180025095e-35 0.090050000000000005 0.0050344345000000006 -0.011999999999999992 16.500000000000004 0.00033489500000000004 17.500000000000004 0.11535000000000002 -1.0000000180025095e-35 12.500000000000002 22.500000000000004
decision_type=2 2 2 2 2 2 2 2 2 2 2 2 2 2 2 2 2 2 2 2 2 2 2 2 2 2 2 2 2 2 2 2 2 2 2 2 2 2 2 2 2 2 2 2 2 2 2 2 2 2 2 2 2 2 2 2 2 2 2 2 2 2
left_child=2 4 5 7 6 49 9 11 61 20 29 18 13 14 -5 -10 45 -15 -3 57 40 37 -9 24 43 28 27 -27 56 -6 -11 -30 -33 -22 -35 36 -16 38 -12 -28 60 -26 44 -24 -19 54 -42 -21 -39 -1 -18 52 -52 -23 -17 -31 -14 58 -7 -60 -2 -4
right_child=1 3 8 12 10 19 -8 22 15 30 21 -13 25 17 35 16 50 42 -20 47 33 53 23 -25 41 26 39 -29 31 55 -32 32 -34 34 -36 -37 -38 48 -40 -41 46 -43 -44 -45 -46 -47 -48 -49 -50 -51 51 -53 -54 -55 -56 -57 -58 -59 59 -61 -62 -63
leaf_value=-0.0019657539090982426 7.9019222762122926e-05 0.00036855415956149677 -0.00084362767923076452 0.00074164773133646004 0.0007115149800132587 -0.0014993969585214851 0.0024746646844584536 0.00063513958798046418 0.0011527693914710349 0.00097063351740044621 0.00050893556518507156 0.00040956533428342535 0.0025502432187620022 0.0018651280570338713 0.001555343440174199 -0.0003569999076266823 -0.0018115267434041017 0.001312825571922413 0.0008904797520206697 -0.00084397241340151855 0.0001526012815059028 0.0019871159036281625 0.0014900222779298258 0.0030169180591474287 0.0033403008132154356 0.0013885133419535125 0.0019374901340811716 0.0055272616031678424 0.0013702281900549547 0.0001482785143408655 -0.00047900842871954967 0.003659722730750218 0.0014538307632954621 0.0024346423831302674 -7.9498338364546414e-05 0.0013654242513686135 0.0023435495955849406 9.3596944894312468e-05 0.0023053889566199358 0.00077480934696882693 0.00056973729446704597 0.0014481225627770817 0.0010459181441469345 0.0008592706303184825 0.00035239820701754473 -0.00032981817987908066 -9.5212791637601835e-05 -0.0014902628231334347 0.00046443954244398158 -0.0012464889890881597 -0.00094964136275643067 -0.0009098168971236895 0.00081127175789636862 0.00059904656208763717 -0.00085666226288068587 -0.00025284896870175544 0.001335821769581261 -0.0017183568665797651 0.00099479366630396762 -0.0019544602837413549 -0.00026928158550844106 -0.0012328911373661036
leaf_weight=2245 335 260 344 171 101 410 23 119 24 22 873 745 63 80 353 202 40 54 1613 189 769 36 206 20 24 32 68 28 1188 591 695 25 55 25 29 1021 104 528 32 57 154 22 842 202 181 580 194 160 521 71 31 710 30 37 401 320 33 895 23 20 1057 481
leaf_count=2245 335 260 344 171 101 410 23 119 24 22 873 745 63 80 353 202 40 54 1613 189 769 36 206 20 24 32 68 28 1188 591 695 25 55 25 29 1021 104 528 32 57 154 22 842 202 181 580 194 160 521 71 31 710 30 37 401 320 33 895 23 20 1057 481
internal_value=-5.64542e-06 0.000656979 -0.00134984 0.00111329 0.000112603 -0.00176139 -8.10232e-05 0.000799052 -0.000768915 -9.89442e-05 0.00032305 0.000701793 0.00134498 0.00123957 0.00140308 -0.000645587 -0.000667233 0.00100653 0.000818029 -0.00151258 -5.06435e-06 0.000445568 0.00122844 0.00137739 0.00130516 0.00153592 0.00202762 0.00331993 0.00146923 7.76521e-05 -0.000434528 0.00141899 0.00214317 0.000213744 0.00108446 0.00147961 0.00173472 0.000414261 0.000572457 0.00140731 -0.000108558 0.00243535 0.000942748 0.00117774 0.000573092 -0.000513043 0.000199047 -0.00114027 0.000277781 -0.0019437 -0.000892148 -0.00084445 -8.36185e-05 0.00128357 -0.00068928 7.37753e-06 0.00213279 -0.00160897 -0.00139285 -0.000376952 -0.000185459 -0.00107058
internal_weight=20764 13908 6856 7566 6342 4013 3303 3211 2843 3280 3039 2618 4355 2806 1649 2018 1994 1157 1873 1697 2563 2027 593 474 454 1549 185 60 1364 1012 717 1268 80 823 54 1478 457 1954 905 125 1740 46 1077 408 235 1183 348 349 1049 2316 811 771 61 73 603 911 96 1348 453 43 1392 825
internal_count=20764 13908 6856 7566 6342 4013 3303 3211 2843 3280 3039 2618 4355 2806 1649 2018 1994 1157 1873 1697 2563 2027 593 474 454 1549 185 60 1364 1012 717 1268 80 823 54 1478 457 1954 905 125 1740 46 1077 408 235 1183 348 349 1049 2316 811 771 61 73 603 911 96 1348 453 43 1392 825
is_linear=0
shrinkage=0.05


Tree=7
num_leaves=63
num_cat=0
split_feature=20 20 20 20 20 18 20 3 20 0 21 2 19 0 20 18 6 21 13 0 3 3 3 13 21 0 0 18 20 2 13 13 0 21 12 6 14 5 12 2 20 21 0 19 18 1 20 9 21 20 0 12 2 11 18 19 18 0 20 0 19 21
split_gain=6.67647 1.24718 0.59259 0.198854 0.0932913 0.0553517 0.0549259 0.0513484 0.0499687 0.0351737 0.0329939 0.0335923 0.0329843 0.0322007 0.0314535 0.0563931 0.0272705 0.0372493 0.0250648 0.0242749 0.0228819 0.0276102 0.0219617 0.0216633 0.0216223 0.0206174 0.020345 0.032884 0.0191464 0.0181154 0.0173289 0.0337297 0.0172041 0.017059 0.0170551 0.0163456 0.0231098 0.0202552 0.0292673 0.0171803 0.0162044 0.0160083 0.0154462 0.0147064 0.0498228 0.0145134 0.0141037 0.0135465 0.0131505 0.0131078 0.014323 0.0123337 0.0114794 0.0113586 0.0111406 0.0111166 0.0568524 0.0109586 0.0107576 0.0106748 0.0152279 0.0100835
threshold=0.11622499999999999 0.14243055555555559 0.092555555555555571 0.1562854166666667 0.12956111111111115 5.3779897192121444 0.080773611111111129 0.0050000050000000009 0.10197291666666668 16.500000000000004 0.064237976944552841 1.0000000180025095e-35 0.12125000000000001 8.5000000000000018 0.17218611111111115 2.6488623179797393 0.0050270000000000011 0.046213641534576889 0.014330862999999998 17.500000000000004 0.0050218350000000014 0.0048790750000000009 0.0051915800000000003 0.0062805400000000003 0.027434570436515787 15.500000000000002 12.500000000000002 -0.12590596670759194 0.11162430555555557 1.0000000180025095e-35 0.005033568500000001 0.0050092525000000011 17.500000000000004 0.035586193274913171 0.0057381100000000003 0.0050015550000000004 -0.0011203749999999992 0.010356885000000001 0.0067745425000000003 7.5000000000000009 0.11653333333333335 0.065565240008928119 12.500000000000002 0.12255000000000001 -0.1678452821164767 2.5000000000000004 0.12086458333333334 0.0050049319444444461 0.035586193274913171 0.064230555555555569 17.500000000000004 0.011335233750000001 1.0000000180025095e-35 0.0072204850000000013 -0.57990964008385038 0.11535000000000002 -0.11785019702114412 13.500000000000002 0.13692916666666669 14.500000000000002 0.14685000000000004 0.038838498115093566
decision_type=2 2 2 2 2 2 2 2 2 2 2 2 2 2 2 2 2 2 2 2 2 2 2 2 2 2 2 2 2 2 2 2 2 2 2 2 2 2 2 2 2 2 2 2 2 2 2 2 2 2 2 2 2 2 2 2 2 2 2 2 2 2
left_child=2 4 6 7 5 9 48 19 25 24 11 -5 33 -7 20 53 17 28 -12 -3 21 -13 43 -22 26 47 46 -28 57 45 31 -24 55 52 -20 41 42 39 -39 -38 -11 -9 -37 44 -14 -30 -2 -4 49 -1 -51 -36 -6 -16 -21 -8 -57 -10 -54 60 -45 -56
right_child=1 3 8 10 12 13 32 35 16 40 18 14 22 -15 15 -17 -18 -19 34 54 23 -23 30 -25 -26 -27 27 -29 29 -31 -32 -33 -34 -35 51 36 37 38 -40 -41 -42 -43 -44 59 -46 -47 -48 -49 -50 50 -52 -53 58 -55 61 56 -58 -59 -60 -61 -62 -63
leaf_value=-0.0022381369991518697 -0.00021192257872006072 0.00071939874591609864 -0.00078382994042218424 0.0018083533574099421 0.000859768267797666 -8.9104311138560834e-06 -0.0014203843166457281 0.00073785098768815616 -0.00056518774560573967 0.00092210189905017614 0.00022410460771456108 0.0012639966822184578 1.050850176917655e-06 0.0024460565493962562 0.0016803602555957239 0.0037153783259782358 0.00083469970204532731 -0.0013332333169107317 0.0022265822033902321 0.001081457085092552 0.0018717852215692705 0.00082701788166881737 0.00063240439590901655 0.0012891959505732641 -0.00016947612408828731 -0.0014209427358977521 0.0018226499437809082 0.00026385087653841183 0.0015799157295987244 -0.00043568748483448878 0.0005539486237787916 0.0031963856738951545 -0.0017533989151806749 -0.00018548050979286647 0.00026541983510833234 -0.00074232037136839207 0.0019187047589595799 0.0011158168665133417 0.0036717664859593027 0.0010944696306762773 -0.00045628401140830214 0.001801784998985424 0.00081001577081979588 0.00029763169486388542 0.0030375694090749184 -8.411661991359373e-05 0.00016450059063850868 -0.0012899132579831142 -0.0025116647813572656 -0.0017197901606869491 -0.002037204525179716 0.0011587627308172694 -9.0258354333134854e-06 0.0010075659997599404 0.0003963603744481705 0.0011125975469541219 -0.0014650031121490631 -0.00087930391587471505 0.00044462083861314264 0.00018722440055565337 0.0006552136906353553 -0.00010243132888497326
leaf_weight=177 377 1379 541 323 66 22 1028 508 687 22 118 865 35 34 267 32 32 175 30 47 177 621 29 1620 1208 269 42 174 20 600 68 23 379 390 50 22 73 24 21 472 692 38 59 736 22 38 732 175 72 1611 456 170 346 82 436 27 103 466 210 614 500 132
leaf_count=177 377 1379 541 323 66 22 1028 508 687 22 118 865 35 34 267 32 32 175 30 47 177 621 29 1620 1208 269 42 174 20 600 68 23 379 390 50 22 73 24 21 472 692 38 59 736 22 38 732 175 72 1611 456 170 346 82 436 27 103 466 210 614 500 132
internal_value=-5.36315e-06 0.00062413 -0.00128235 0.00105762 0.000106973 -7.6972e-05 -0.00169273 0.0007591 -0.000755803 -0.000103852 0.00127773 0.00131954 0.000306898 0.00148161 0.00127645 0.00170648 -0.000613308 -0.000636639 0.000824735 0.000602894 0.00122654 0.00108138 0.00042329 0.00134658 -1.64809e-05 -0.00104774 0.000123005 0.000566951 -0.000569326 -0.000354119 0.00107938 0.00176647 -0.00146099 7.37695e-05 0.00110823 0.00101504 0.00118033 0.00128905 0.00230859 0.00120487 -0.000413813 0.000811898 0.000388394 0.000382005 0.00117304 0.000489688 3.65371e-05 -0.000907523 -0.00184652 -0.00182518 -0.00178981 0.00095573 0.000236322 0.00152228 0.00034166 -0.00136529 -0.000929655 -0.000692142 0.000162316 0.000357632 0.000442285 0.000280444
internal_weight=20764 13908 6856 7566 6342 3303 3853 3211 3003 3247 4355 3987 3039 56 3664 381 2018 1986 368 1994 3283 1486 2027 1797 2533 985 1325 216 1811 658 120 52 1537 1012 250 1217 671 590 45 545 714 546 81 1907 57 58 1109 716 2316 2244 2067 220 622 349 615 1158 130 1153 556 1850 1236 568
internal_count=20764 13908 6856 7566 6342 3303 3853 3211 3003 3247 4355 3987 3039 56 3664 381 2018 1986 368 1994 3283 1486 2027 1797 2533 985 1325 216 1811 658 120 52 1537 1012 250 1217 671 590 45 545 714 546 81 1907 57 58 1109 716 2316 2244 2067 220 622 349 615 1158 130 1153 556 1850 1236 568
is_linear=0
shrinkage=0.05


Tree=8
num_leaves=63
num_cat=0
split_feature=20 20 20 20 20 20 18 3 20 0 21 20 18 0 6 21 13 0 0 18 20 5 10 21 8 8 23 20 0 0 14 13 8 3 9 9 6 14 5 8 3 20 21 0 0 23 10 18 20 23 20 14 20 23 13 9 6 11 11 18 0 23
split_gain=6.02552 1.12558 0.535387 0.179466 0.0841954 0.0504872 0.0502286 0.0463419 0.0448452 0.0337545 0.029777 0.0256383 0.0437424 0.0252428 0.0246117 0.0336175 0.022621 0.0223119 0.0219081 0.021428 0.0205691 0.0194463 0.0193391 0.0185809 0.0197518 0.048087 0.0195467 0.0172797 0.017224 0.0168041 0.0164303 0.0285422 0.017179 0.0156763 0.036325 0.0148509 0.0147519 0.0208566 0.0182803 0.0290445 0.0151506 0.014613 0.0144475 0.0139402 0.0138054 0.0136402 0.0124382 0.012915 0.0112406 0.0122297 0.0108481 0.0148398 0.0107321 0.0105265 0.0105255 0.0140085 0.0103496 0.0100597 0.0185277 0.0100544 0.00989011 0.0100186
threshold=0.11622499999999999 0.14243055555555559 0.091615972222222231 0.1562854166666667 0.12956111111111115 0.10197291666666668 8.3458287321926772 0.0050000050000000009 0.080279861111111114 16.500000000000004 0.064237976944552841 0.17218611111111115 2.6488623179797393 16.500000000000004 0.0050270000000000011 0.046213641534576889 0.014330862999999998 15.500000000000002 17.500000000000004 4.574913590631783 0.12581111111111112 0.0050005950000000009 0.00011676625067805932 0.035452495637641641 0.0050489700000000007 0.0051301150000000011 1.0000000180025095e-35 0.11162430555555557 10.500000000000002 17.500000000000004 0.0002713200000000003 0.0064381370000000009 0.010178525000000003 0.0050003750000000005 0.0050108180555555569 0.0050049319444444461 0.0050015550000000004 -0.0011203749999999992 0.010356885000000001 0.005945960000000001 0.0085981500000000006 0.11653333333333335 0.065565240008928119 12.500000000000002 11.500000000000002 0.012903499830105336 0.00016465048493564228 -0.45122751907442538 0.15360694444444448 0.022201684124050117 0.16463541666666667 2.254500000000012e-05 0.07151250000000002 0.097685185185185194 0.031360520500000003 0.009638996250000002 0.0051111750000000008 0.0072204850000000013 0.006529838750000001 -0.57990964008385038 13.500000000000002 0.0078703703703703731
decision_type=2 2 2 2 2 2 2 2 2 2 2 2 2 2 2 2 2 2 2 2 2 2 2 2 2 2 2 2 2 2 2 2 2 2 2 2 2 2 2 2 2 2 2 2 2 2 2 2 2 2 2 2 2 2 2 2 2 2 2 2 2 2
left_child=2 4 8 7 6 17 9 18 52 20 11 22 57 19 15 27 -12 35 45 23 44 -21 -5 24 28 -26 -25 60 -6 -10 32 -32 -24 -22 -35 -4 42 43 40 -40 -39 -11 -9 -38 -2 46 -3 -48 -47 -50 51 56 -1 -54 55 -52 -18 58 -13 -20 61 -7
right_child=1 3 5 10 13 14 -8 36 29 41 16 12 -14 -15 -16 -17 50 -19 59 21 33 -23 30 26 25 -27 -28 -29 -30 -31 31 -33 -34 34 -36 -37 37 38 39 -41 -42 -43 -44 -45 -46 48 47 -49 49 -51 54 -53 53 -55 -56 -57 -58 -59 -60 -61 -62 -63
leaf_value=-0.0019409595909151683 -0.00017244872863915949 0.000775243143206784 -0.00073660720223428879 0.0026556431761254437 0.00027783358982072141 -0.00089214877166046182 0.0022553130500929676 0.0007009584399151295 -0.001316738609630029 0.00087599673266099262 0.00021289937745462076 0.001501562925561791 0.0032917479115995882 6.1615348730383409e-05 0.0007929647043965816 -0.0012665716540899926 0.0016732416107835301 -0.0013660000017280901 0.0010273842280359069 0.00055494694478021799 0.00013533058174134785 0.0023005551891401412 0.0011136728615049442 0.0012984608806779279 0.0033399071749590802 0.00050891846994394056 6.6911290127384611e-05 -0.00033641349102653484 0.00064594868564692284 -0.0017070852831621826 0.002090091349611722 0.0012549880140903663 0.0015194592434489155 0.0023535447819287786 2.8783861212321516e-06 -0.0012528049122762319 -0.00070520434793169525 0.0012329503379766851 0.001004935875729037 0.0035511383492987424 0.00035775803180347962 -0.00043287020160108069 0.0017116957514142423 0.00076951499260326662 0.0001796459212468024 0.00075105884980373148 0.00089241275070025205 6.853034622980448e-05 0.00059718062775968776 0.0020991173255341974 -0.00021388169594242106 0.0027085494604398262 -0.0017147736458737438 -0.00092201700095164449 -0.00017098914426953897 0.0011825828886480117 0.00035633097030222417 0.0010029245194458415 0.0030791564751416443 0.00026642179262087435 -0.00083533873624574485 -0.00043429432284861443
leaf_weight=601 1392 190 574 23 894 154 23 508 1167 22 118 268 36 857 32 175 37 309 47 39 754 27 2675 34 20 60 615 658 493 361 132 455 289 27 42 184 22 490 24 21 55 695 38 59 348 856 61 216 23 33 21 20 1599 43 23 124 25 89 20 568 466 533
leaf_count=601 1392 190 574 23 894 154 23 508 1167 22 118 268 36 857 32 175 37 309 47 39 754 27 2675 34 20 60 615 658 493 361 132 455 289 27 42 184 22 490 24 21 55 695 38 59 348 856 61 216 23 33 21 20 1599 43 23 124 25 89 20 568 466 533
internal_value=-5.09499e-06 0.000592924 -0.00121823 0.00100474 0.000101625 -0.000729723 -7.31234e-05 0.000721145 -0.00161787 -8.94509e-05 0.00121384 0.00125356 0.00162655 0.000291553 -0.000582643 -0.000604808 0.000783498 -0.00100789 0.00057275 0.000381863 -4.61412e-06 0.00126906 0.00121046 0.000354191 0.00045274 0.00121667 0.00013143 -0.00054086 0.000408678 -0.00140896 0.0012011 0.00144278 0.00115324 0.000201344 0.000922704 -0.000861911 0.000964283 0.00112131 0.0012246 0.00219316 0.00114463 -0.00039271 0.000771303 0.000368974 -0.00010203 0.000683429 0.000463674 0.000249963 0.000795957 0.00148225 0.00105282 0.00152426 -0.00176018 -0.00169401 0.000822714 0.000980336 0.00114223 0.00146754 0.00161112 0.000324577 -0.000657535 -0.000536928
internal_weight=20764 13908 6856 7566 6342 3085 3303 3211 3771 3280 4355 3987 413 3039 2018 1986 368 1067 1994 2182 2563 66 3574 2116 1467 80 649 1811 1387 1528 3551 587 2964 823 69 758 1217 671 590 45 545 717 546 81 1740 1379 467 277 912 56 250 82 2243 1642 168 145 62 377 288 615 1153 687
internal_count=20764 13908 6856 7566 6342 3085 3303 3211 3771 3280 4355 3987 413 3039 2018 1986 368 1067 1994 2182 2563 66 3574 2116 1467 80 649 1811 1387 1528 3551 587 2964 823 69 758 1217 671 590 45 545 717 546 81 1740 1379 467 277 912 56 250 82 2243 1642 168 145 62 377 288 615 1153 687
is_linear=0
shrinkage=0.05


Tree=9
num_leaves=63
num_cat=0
split_feature=20 20 20 20 20 20 5 18 22 0 2 19 21 21 20 0 19 21 0 21 2 14 13 19 19 0 0 14 20 3 3 14 22 19 10 2 11 19 18 2 0 19 18 13 13 21 1 2 21 20 0 21 20 0 21 2 22 15 18 21 18 21
split_gain=5.43803 1.01584 0.483546 0.161968 0.0760891 0.0625707 0.0421176 0.0414077 0.0358771 0.0334168 0.030792 0.027127 0.0268767 0.0326584 0.033377 0.026813 0.025681 0.0253645 0.0267334 0.0233588 0.0233244 0.0262109 0.0458974 0.0216 0.0311093 0.0194491 0.0193374 0.0190636 0.0181276 0.021676 0.0180129 0.0164225 0.0161061 0.0165598 0.0159904 0.0151735 0.014934 0.0148115 0.0329943 0.0144745 0.0142909 0.0140726 0.0477789 0.0138304 0.0276086 0.0137342 0.0136312 0.0130246 0.012946 0.0122544 0.0122202 0.01185 0.0112559 0.0128926 0.0112137 0.0111001 0.012594 0.0104845 0.0133933 0.0106468 0.0102075 0.0100667
threshold=0.11622499999999999 0.14243055555555559 0.095625694444444451 0.1562854166666667 0.13053333333333336 0.080773611111111129 0.0052359200000000007 5.3779897192121444 0.033399999999999999 17.500000000000004 52.500000000000007 0.11405000000000001 0.070685537656146685 0.065565240008928119 0.11060486111111113 17.500000000000004 0.12125000000000001 0.028075951092164094 17.500000000000004 0.027434570436515787 1.0000000180025095e-35 0.0002713200000000003 0.0064381370000000009 0.098550000000000013 0.10085000000000001 21.500000000000004 15.500000000000002 -9.3605000000000063e-05 0.12581111111111112 0.0050003750000000005 0.0051794350000000005 -0.0023483099999999997 -0.0087999999999999971 0.10445000000000002 7.1430417094788882e-05 1.0000000180025095e-35 0.0027160712500000003 0.11145000000000001 -0.11785019702114412 1.0000000180025095e-35 7.5000000000000009 0.12255000000000001 -0.1678452821164767 0.005033568500000001 0.0050092525000000011 0.029369124257395015 2.5000000000000004 32.500000000000007 0.034776029011025424 0.15236666666666668 12.500000000000002 0.035586193274913171 0.064230555555555569 17.500000000000004 0.045730154861679632 1.0000000180025095e-35 0.014799999999999999 3.8149999999998957e-06 -0.57990964008385038 0.036158505574619214 -0.28276486505333759 0.039305235402206436
decision_type=2 2 2 2 2 2 2 2 2 2 2 2 2 2 2 2 2 2 2 2 2 2 2 2 2 2 2 2 2 2 2 2 2 2 2 2 2 2 2 2 2 2 2 2 2 2 2 2 2 2 2 2 2 2 2 2 2 2 2 2 2 2
left_child=2 4 5 6 7 51 15 9 -9 19 11 36 13 14 25 40 35 -8 31 28 -13 27 -23 54 -25 32 37 -22 47 -30 41 -19 34 -34 -4 -6 -5 50 -39 46 -3 42 -18 44 -32 -33 -16 -2 -41 -42 -7 52 -1 -54 -11 -43 -57 58 -17 -60 -21 -37
right_child=1 3 12 10 16 26 17 8 -10 23 -12 20 -14 -15 39 57 30 18 -20 60 21 22 -24 24 -26 -27 -28 -29 29 -31 43 45 33 -35 -36 61 -38 38 -40 48 49 55 -44 -45 -46 -47 -48 -49 -50 -51 -52 -53 53 -55 -56 56 -58 -59 59 -61 -62 -63
leaf_value=-0.002029182146254685 0.00016572234062089367 0.00054960398523104818 -0.000390211876081567 0.0017839513984374486 0.00068822384267049432 -0.0013202625133330614 0.00041293765148531919 0.00038072268453106519 0.002974361798260361 -0.0006734325690418841 0.00071488263503346517 0.0016321616515309171 -0.0014365880852128612 0.0012745474418372161 0.0014220962113800594 0.0011115055640237353 -3.4990109270438552e-05 0.00010330083063713068 0.0026021056610978015 0.00052320220544330642 0.0012701453136114912 0.0023437339893351279 0.0012695093000999556 0.0013265426542299489 -0.00033534955876671235 -0.0011997778892927006 -0.0015025226110336445 0.0010069431224161915 0.00030783489528891082 0.0018486813606614306 0.0005656773887393583 0.0020736722877093901 -0.0010561356459594868 -0.00063697069907963548 -0.0012849707135253333 0.00012891611787937211 0.00050900894929867637 0.00059162351472706013 -0.0010964335475460087 -0.0003076007334604277 0.00075963141962142244 0.00076868010365791666 0.0030158414451372149 0.00053849499293036113 0.0029518239667099392 0.0011186314559075902 -0.00013201715746829503 -0.00021006290142652534 -0.00086885991858434871 0.0012761445208580523 -0.00090724790521770106 -0.0022981652058660985 -0.0015473005596883479 -0.0018484483878637549 -0.0016600071175678355 0.0004226935241625483 0.00013948882973733039 0.00081085725248088321 0.00037121712795056743 -6.4886014117096898e-05 -0.00017794042218709821 -0.00024408450645911647
leaf_weight=177 552 858 542 26 90 835 119 40 20 130 367 322 100 23 21 44 33 36 33 54 1215 123 519 30 459 201 632 1586 466 24 27 42 388 600 55 540 197 37 133 577 883 134 21 69 22 363 43 396 125 132 228 72 1611 456 37 869 716 104 373 224 1341 272
leaf_count=177 552 858 542 26 90 835 119 40 20 130 367 322 100 23 21 44 33 36 33 54 1215 123 519 30 459 201 632 1586 466 24 27 42 388 600 55 540 197 37 133 577 883 134 21 69 22 363 43 396 125 132 228 72 1611 456 37 869 716 104 373 224 1341 272
internal_value=-4.84024e-06 0.000563277 -0.00115732 0.000954505 9.65433e-05 -0.00149319 0.000685088 -5.70954e-05 0.00124527 -7.9492e-05 0.00115315 0.00119348 -0.00063235 -0.000601118 -0.000618022 0.000598904 0.000291768 0.00106557 0.00122942 -5.03069e-06 0.00122522 0.00118716 0.00147532 -0.00040106 -0.000233393 -0.000736443 -0.00127764 0.00112111 0.000136379 0.000383305 0.000396481 0.0011267 -0.000677685 -0.000801582 -0.000472644 7.22438e-05 0.000657657 -0.00116237 -0.000729033 -0.000341914 0.000699822 0.00035667 0.00115144 0.000994657 0.00163701 0.00121767 0.000377926 8.74876e-06 -0.00040754 0.000826804 -0.00123168 -0.00166676 -0.00164651 -0.00161374 -0.000892015 0.000331703 0.00029476 0.000345188 0.000269635 0.000207587 -0.000150799 3.9701e-06
internal_weight=20764 13908 6856 7566 6342 4181 3211 3549 60 3489 4355 3988 2675 2575 2552 2618 2793 593 474 2833 3765 3443 642 656 489 1786 1865 2801 1438 490 1891 441 1585 988 597 902 223 1233 170 766 1873 1773 54 118 49 405 64 948 702 1015 1063 2316 2244 2067 167 1719 1585 745 641 597 1395 812
internal_count=20764 13908 6856 7566 6342 4181 3211 3549 60 3489 4355 3988 2675 2575 2552 2618 2793 593 474 2833 3765 3443 642 656 489 1786 1865 2801 1438 490 1891 441 1585 988 597 902 223 1233 170 766 1873 1773 54 118 49 405 64 948 702 1015 1063 2316 2244 2067 167 1719 1585 745 641 597 1395 812
is_linear=0
shrinkage=0.05


Tree=10
num_leaves=63
num_cat=0
split_feature=20 20 20 20 20 20 2 19 19 15 3 2 22 18 21 10 19 19 20 21 2 2 21 22 21 4 13 2 2 2 15 9 9 21 19 21 19 2 22 21 23 23 21 22 4 19 22 21 13 2 19 22 7 23 22 22 9 18 23 11 9 22
split_gain=4.72548 0.92507 0.553441 0.136329 0.088038 0.0816547 0.030838 0.0305419 0.0297305 0.0297145 0.0292895 0.0285215 0.050573 0.0282552 0.0238728 0.0262867 0.0234163 0.022421 0.0219128 0.0214121 0.0209214 0.0206452 0.0348195 0.019603 0.0220297 0.0193072 0.0179199 0.0178745 0.0169585 0.0162947 0.0161449 0.0302502 0.0289316 0.0155815 0.0151998 0.0148926 0.0148228 0.0145224 0.014455 0.0143542 0.019494 0.0141626 0.014069 0.0139638 0.0137514 0.0127444 0.0124279 0.0121885 0.0118262 0.0115677 0.0113442 0.0114351 0.011301 0.0112929 0.0122566 0.0111591 0.0110969 0.0109725 0.0107716 0.0116196 0.0106085 0.0106012
threshold=0.1185388888888889 0.14671944444444449 0.097860416666666686 0.13290000000000005 0.15826597222222225 0.081321527777777791 1.0000000180025095e-35 0.10545 0.13655000000000003 -2.1310000000000075e-05 0.0051794350000000005 22.500000000000004 -0.10254999999999997 4.574913590631783 0.041144169357790895 0.00021488560309639029 0.088750000000000009 0.10025000000000002 0.10725833333333334 0.062961088649770888 7.5000000000000009 7.5000000000000009 0.044262468098147004 -0.015150000000000002 0.023783378117240312 0.0050326550000000013 0.003915998500000001 52.500000000000007 1.0000000180025095e-35 1.0000000180025095e-35 7.16499999999995e-06 0.0050108180555555569 0.0050034269444444454 0.055492363944804425 0.085350000000000023 0.033342883459273366 0.13085000000000002 32.500000000000007 -0.017949999999999997 0.059509295202081106 0.057407407407407414 0.057407407407407414 0.039594630582996844 -0.017650000000000002 0.0050561300000000007 0.074750000000000025 -0.028949999999999993 0.077793323057245012 0.0050075765000000003 42.500000000000007 0.12215000000000002 0.026600000000000013 0.0077680900000000009 0.057407407407407414 -0.018699999999999994 -0.047849999999999997 0.0058448286805555562 -0.12976665807950241 0.097685185185185194 0.0049962662500000017 0.0052498066666666681 0.066050000000000011
decision_type=2 2 2 2 2 2 2 2 2 2 2 2 2 2 2 2 2 2 2 2 2 2 2 2 2 2 2 2 2 2 2 2 2 2 2 2 2 2 2 2 2 2 2 2 2 2 2 2 2 2 2 2 2 2 2 2 2 2 2 2 2 2
left_child=2 3 5 16 9 45 26 25 49 21 28 12 -4 27 15 34 -2 20 61 60 -7 22 -3 24 -19 48 -6 44 -9 56 37 32 -32 41 38 57 52 47 -14 -31 -41 -30 -36 -34 -10 -1 55 -18 -5 58 -39 -52 -23 -22 -55 -37 -11 -20 59 -8 -12 -13
right_child=1 4 11 7 6 17 8 10 13 29 19 18 14 -15 -16 -17 30 23 35 -21 53 36 -24 -25 -26 -27 -28 -29 33 39 31 -33 43 -35 42 46 -38 50 -40 40 -42 -43 -44 -45 -46 -47 -48 -49 -50 -51 51 -53 -54 54 -56 -57 -58 -59 -60 -61 -62 -63
leaf_value=-0.0016794832196940575 -0.00063026972372123673 0.0012518267206887909 0.0021867731914971956 -0.00032883427247567024 0.002970802060074427 -0.00082629458863022864 0.0012463068318750749 0.00079691154976991381 0.0010585124524561558 0.00093569637910979062 0.0010438445292832103 -0.0008713148683561604 -0.00033877856465019913 0.0025596076019307173 -0.00096690910762700318 0.0012439649290172383 6.4614970433618922e-05 0.0013818735163658859 -1.5575894373011e-05 0.002373767691460671 -0.0013911783330825646 0.00016119958391672381 0.0035814444039715455 -0.00094983627438466041 -0.00088710232698561054 -0.0012146380522769023 0.0014955554667130857 0.00076036325538549369 0.00034350604185297046 0.0006450187708954521 9.7779975359087753e-05 -5.7774692735013862e-05 0.001198621429502964 -5.9973767159905185e-05 -0.00025915450584308188 -0.00065060205131885597 0.0010859889288601921 -0.00030805222138544607 -0.0013030246374462191 -0.00021112435841362119 0.0013453315042424949 0.0006981261873616649 0.001021598050349646 0.003067030679085292 0.0012893483914370619 -0.0014430790812966921 -0.00096920781274093318 -0.00072657880341284913 0.0003470785870032725 0.00052648263103597292 0.00013852782296109602 -0.00028339449857097722 0.0013852238744827142 -0.00049381873865898417 -0.0012739613815989596 0.00077274091089791575 0.002032115592235892 -0.00046630352889490595 0.0019200014726569255 0.00073769721252536736 0.00032113849087193701 0.00029657166945980864
leaf_weight=1363 165 81 20 115 22 254 163 237 1135 113 153 683 89 36 138 28 1840 20 176 24 1055 88 20 444 23 34 320 267 2106 1464 31 120 20 208 846 40 343 715 69 103 25 325 22 20 1495 980 215 50 148 234 420 260 24 78 142 21 29 580 27 361 76 20
leaf_count=1363 165 81 20 115 22 254 163 237 1135 113 153 683 89 36 138 28 1840 20 176 24 1055 88 20 444 23 34 320 267 2106 1464 31 120 20 208 846 40 343 715 69 103 25 325 22 20 1495 980 215 50 148 234 420 260 24 78 142 21 29 580 27 361 76 20
internal_value=1.1376e-06 0.000558296 -0.00102205 0.000164747 0.000996282 -0.00137987 0.0011361 0.000391141 0.00109431 0.00074839 0.000437134 -0.000492788 -0.00030668 0.00116746 -0.000348517 -0.000267551 -4.82776e-05 -0.00114657 -0.000622796 0.000952906 -0.00124068 0.00106646 0.00171314 -0.000851115 0.000168235 -9.34209e-05 0.00159045 0.00115016 0.000391762 0.000646401 -2.06514e-05 0.000426237 0.00124428 0.000355377 -0.000308801 -0.000476137 0.000922912 -4.66349e-05 -0.000759873 0.000600625 9.28709e-05 0.000390915 -0.000226693 0.00213283 0.00118973 -0.0015806 -0.000790493 4.36839e-05 5.15273e-05 0.000821011 -0.000169002 -2.27954e-05 0.000423491 -0.00132323 -0.000997365 -0.000160599 0.00115961 -0.000361372 0.000946092 0.00089591 0.000803994 -0.000838089
internal_weight=20723 13417 7306 7067 6350 4359 4060 3426 3718 2290 3129 2947 1212 2933 1192 1054 3641 2016 1735 253 1529 556 101 487 43 297 342 2897 2876 1734 3476 191 71 2639 1026 1032 455 3285 158 1592 128 2431 868 40 2630 2343 276 1890 263 785 1395 680 112 1275 220 61 142 756 551 524 229 703
internal_count=20723 13417 7306 7067 6350 4359 4060 3426 3718 2290 3129 2947 1212 2933 1192 1054 3641 2016 1735 253 1529 556 101 487 43 297 342 2897 2876 1734 3476 191 71 2639 1026 1032 455 3285 158 1592 128 2431 868 40 2630 2343 276 1890 263 785 1395 680 112 1275 220 61 142 756 551 524 229 703
is_linear=0
shrinkage=0.05


Tree=11
num_leaves=63
num_cat=0
split_feature=19 13 19 8 22 13 22 3 12 22 19 19 16 22 15 13 19 21 22 19 19 22 23 13 19 9 9 21 19 16 8 2 21 2 8 19 4 5 7 13 23 22 22 13 1 19 15 5 4 22 12 19 8 5 9 22 19 21 2 4 23 9
split_gain=3.30172 0.72747 0.456008 0.263796 0.242471 0.210177 0.0985815 0.0740754 0.0675861 0.0563833 0.0442138 0.0433163 0.0431832 0.0375574 0.0337781 0.0346146 0.0333681 0.0330173 0.0327343 0.0306779 0.0278717 0.0401953 0.0455755 0.0263733 0.0261837 0.0252273 0.0521731 0.0251678 0.0249133 0.0243142 0.0259711 0.023567 0.022571 0.0224575 0.0208153 0.0197645 0.0192426 0.0191068 0.0180286 0.0307785 0.0175275 0.0165803 0.0163656 0.0162364 0.0212135 0.0155003 0.015423 0.0152793 0.0143248 0.0142047 0.0139047 0.013496 0.0133165 0.013167 0.0247448 0.0129747 0.012672 0.0126449 0.0124134 0.016415 0.0121051 0.0115819
threshold=0.10875000000000001 0.0052680840000000001 0.084050000000000014 0.0049995300000000012 -0.0011000000000000001 0.0050039500000000009 0.021300000000000006 0.0054975450000000004 0.0050000012500000012 -0.023399999999999994 0.17505000000000001 0.12965000000000002 0.0029496270000000007 -0.027999999999999987 4.0350000000000202e-05 0.0050361380000000016 0.069150000000000003 0.037874070679683569 0.010899999999999998 0.13125000000000003 0.12795000000000004 -0.0039000000000000072 0.097685185185185194 0.0054701260000000014 0.073350000000000012 0.0050219511111111118 0.0050263016666666676 0.041325215995862946 0.095050000000000009 0.008000972000000002 0.0023511250000000004 1.0000000180025095e-35 0.029540048079374191 12.500000000000002 0.0050136600000000005 0.15435000000000001 0.0050000050000000009 0.0050069250000000006 0.0056067650000000005 0.011539238500000002 0.057407407407407414 -0.044649999999999995 0.015999999999999997 0.012582678500000001 1.0000000180025095e-35 0.10025000000000002 -0.0016804600000000002 0.0020044300000000002 0.0074367100000000009 -0.033149999999999992 0.008751658750000002 0.15335000000000001 0.0050145400000000005 0.0050039650000000008 0.0050345891666666674 0.048050000000000009 0.099250000000000019 0.02651642969213908 12.500000000000002 0.0050020250000000011 0.057407407407407414 0.0050012948611111128
decision_type=2 2 2 2 2 2 2 2 2 2 2 2 2 2 2 2 2 2 2 2 2 2 2 2 2 2 2 2 2 2 2 2 2 2 2 2 2 2 2 2 2 2 2 2 2 2 2 2 2 2 2 2 2 2 2 2 2 2 2 2 2 2
left_child=2 3 9 33 8 6 20 12 13 24 36 55 27 25 53 -16 -11 35 45 52 21 22 -5 -9 -1 34 -27 -3 -15 30 -25 50 -31 47 -4 -13 49 42 39 -34 -10 61 -33 -32 -45 -6 -40 -2 -42 -7 -21 -29 58 -12 -55 -8 -20 -28 59 -14 -30 -26
right_child=1 7 4 5 18 10 11 23 40 16 14 17 19 28 15 -17 -18 -19 56 31 -22 -23 -24 29 41 26 57 51 60 32 43 37 38 -35 -36 -37 -38 -39 46 -41 48 -43 -44 44 -46 -47 -48 -49 -50 -51 -52 -53 -54 54 -56 -57 -58 -59 -60 -61 -62 -63
leaf_value=-0.0011442891905806085 0.00066832306548652318 0.0009309959323258425 -0.00019628730085944859 0.00011184556636813698 -0.00090115948321224974 0.00071434266716561071 -0.00062109062681188606 0.0024563849502482228 0.00032523117226603541 -0.0016110473850285514 0.00057378827201701871 -0.00030361754883353646 0.00032083952922861233 -0.00074772041657059974 0.0038311675359727817 0.0010643738995825586 -0.0012360346363248838 -0.00075009325643805858 -0.0013300357173166276 0.0011920085257565182 0.00025725258957042175 -0.00029133249037089574 0.0019508270450335529 0.0029608008715340042 -0.00069041944951759573 0.0025329312756574448 0.0010625049530062825 0.0023834004639259852 -0.0003595079946951334 0.0023615454083483201 0.0010960278609542472 0.00077468228428121874 0.00071762557171157332 0.00098406577738360942 0.0014055589058746896 0.00011135588300461939 0.00064018608790065903 0.00093619952416962153 0.001490672384718162 -0.0015567670853453735 0.0021462829218832596 -0.00090457996086734443 0.00037447854423994112 0.0020249516075976212 0.0012399598083885515 -0.00038695915384435423 0.00078071579688109222 0.0019268257436020739 0.00043326624233842544 0.000245914063066655 0.0026127188091049905 0.0013935166885549169 0.00066250457696848271 0.002363882657921161 0.00060085524395011214 -0.001228119457260214 -0.00095004253713931643 -0.00017956133983234931 1.67740996146053e-05 0.0018344013445565233 0.00021175614021760544 0.00022641322089169224
leaf_weight=702 30 294 592 901 367 182 476 37 313 1124 190 611 81 450 20 26 1256 243 521 124 1292 871 35 21 63 28 27 51 656 24 1197 550 51 478 21 541 547 644 91 21 26 194 477 118 318 244 480 123 23 1461 20 106 240 34 48 108 379 85 283 23 108 76
leaf_count=702 30 294 592 901 367 182 476 37 313 1124 190 611 81 450 20 26 1256 243 521 124 1292 871 35 21 63 28 27 51 656 24 1197 550 51 478 21 541 547 644 91 21 26 194 477 118 318 244 480 123 23 1461 20 106 240 34 48 108 379 85 283 23 108 76
internal_value=1.08072e-06 0.000464294 -0.000858817 0.000170536 -0.000484993 8.88292e-05 -9.61292e-05 0.000923981 -0.00016497 -0.00127916 0.000463318 -0.000371812 0.000754436 -0.000280519 0.00101424 0.00226733 -0.00141314 -0.000220458 -0.000978265 0.000671419 7.99198e-05 -4.68726e-05 0.000180611 0.00113199 -0.000971081 -3.10538e-06 0.000602479 0.00120394 -0.000452588 0.00111088 0.00121365 0.00077558 0.00085604 0.00115283 -0.000141412 -0.000108739 0.000383321 0.000722689 0.000799847 5.4261e-05 0.000462889 -0.000605939 0.000588804 0.00119118 0.00145241 -0.000695816 0.000893861 0.00168006 0.00134221 0.000297803 0.00138933 0.00171507 0.0003699 0.000802327 0.00133187 -0.000733349 -0.00117002 0.000119865 0.00018844 0.00065557 -0.000278753 -0.00018913
internal_weight=20723 13468 7255 8217 3840 7586 5078 5251 2329 3415 2508 1979 2893 1967 318 46 2380 1395 1511 2442 3099 1807 936 2358 1035 753 140 451 1214 2321 1654 1815 667 631 613 1152 2190 1671 643 72 362 333 1027 1633 436 611 571 153 49 1643 144 157 627 272 82 584 900 112 387 104 764 139
internal_count=20723 13468 7255 8217 3840 7586 5078 5251 2329 3415 2508 1979 2893 1967 318 46 2380 1395 1511 2442 3099 1807 936 2358 1035 753 140 451 1214 2321 1654 1815 667 631 613 1152 2190 1671 643 72 362 333 1027 1633 436 611 571 153 49 1643 144 157 627 272 82 584 900 112 387 104 764 139
is_linear=0
shrinkage=0.05


Tree=12
num_leaves=63
num_cat=0
split_feature=20 20 20 20 20 20 2 0 19 19 0 15 10 19 15 21 20 13 20 6 20 2 21 21 15 4 0 0 19 22 22 2 2 0 13 1 0 19 21 0 10 19 2 21 22 9 12 20 22 20 21 21 0 19 0 23 5 2 1 0 21 13
split_gain=3.88784 0.755757 0.461817 0.111255 0.0716097 0.0690337 0.0265406 0.0260437 0.0253763 0.0251068 0.0248161 0.0246315 0.0232992 0.0257937 0.0231967 0.022205 0.0218647 0.038119 0.031446 0.0218051 0.0208183 0.0181407 0.0312441 0.017329 0.0322034 0.017137 0.0170466 0.0192144 0.0169234 0.0190824 0.0247551 0.0185087 0.0168337 0.0158436 0.0156373 0.0148074 0.0147362 0.0144423 0.0152214 0.0136397 0.0127449 0.0124096 0.0123776 0.0119707 0.0117127 0.0113544 0.0220466 0.0112133 0.0110819 0.0234785 0.0162547 0.0110702 0.0197653 0.0116594 0.0107665 0.0114885 0.0106428 0.010411 0.0123849 0.0178406 0.0106518 0.0102822
threshold=0.1185388888888889 0.14671944444444449 0.097860416666666686 0.13290000000000005 0.15826597222222225 0.081321527777777791 1.0000000180025095e-35 15.500000000000002 0.10545 0.13655000000000003 18.500000000000004 -2.1310000000000075e-05 0.00021488560309639029 0.10185000000000001 0.0013370300000000008 0.039810866563239768 0.17218611111111115 0.0077750129999999999 0.17321319444444447 0.0050200300000000008 0.10725833333333334 7.5000000000000009 0.044262468098147004 0.026340494268170121 8.1245000000000202e-05 0.0050326550000000013 17.500000000000004 11.500000000000002 0.10135000000000001 -0.015150000000000002 -0.030750000000000003 7.5000000000000009 12.500000000000002 13.500000000000002 0.003915998500000001 1.0000000180025095e-35 16.500000000000004 0.14685000000000004 0.056120070435216586 19.500000000000004 0.00011800092365417727 0.13085000000000002 52.500000000000007 0.062961088649770888 -0.0058000000000000022 0.0052343279861111125 0.0050139162500000009 0.12364791666666668 -0.041499999999999981 0.11060486111111113 0.033804537144299554 0.03258920426052931 10.500000000000002 0.12615000000000001 17.500000000000004 0.022201684124050117 0.0050036650000000009 17.500000000000004 5.5000000000000009 18.500000000000004 0.032191719533655669 0.012582678500000001
decision_type=2 2 2 2 2 2 2 2 2 2 2 2 2 2 2 2 2 2 2 2 2 2 2 2 2 2 2 2 2 2 2 2 2 2 2 2 2 2 2 2 2 2 2 2 2 2 2 2 2 2 2 2 2 2 2 2 2 2 2 2 2 2
left_child=2 3 5 10 11 54 34 19 25 51 23 21 15 -14 26 57 40 -18 -19 20 -4 22 -3 24 35 -5 27 43 31 30 -30 -7 -25 -29 -6 47 -33 38 -13 -36 -11 -23 -42 -10 45 46 -39 -2 49 -22 -50 52 -8 -54 55 -1 -41 58 60 -60 -9 -40
right_child=1 4 7 8 6 28 9 12 14 16 -12 37 13 -15 -16 -17 17 18 -20 -21 48 41 -24 32 -26 -27 -28 33 29 -31 -32 36 -34 -35 39 -37 -38 44 61 56 42 -43 -44 -45 -46 -47 -48 -49 50 -51 -52 -53 53 -55 -56 -57 -58 -59 59 -61 -62 -63
leaf_value=-0.0014692940755643437 0.001778876542535034 0.0011374974422110821 -0.00055283068790557379 5.0069789525905812e-05 0.0027393266452815047 -0.00073246110387258383 0.00068484052867979356 -0.00067821838414191355 0.00038666965184018433 0.0022586462675826626 -0.00035121055453419105 0.00052091639408855406 0.0016777760211632332 -0.00053246801523500567 0.0017364180407639651 -0.0011796891259095695 0.0029482284515526974 0.0024860822075667482 0.0010778621427990831 0.0011021254393898954 0.0016539278702111916 0.00037677585210726001 0.0033442679987638261 0.00017661217545797967 0.0018550871526477515 -0.0011428128119672799 0.00016480039756792497 0.00092720923688940644 -0.00097542279749177399 -0.00087353887917921617 0.0015123007528018207 -0.0010806138721584464 -0.00018404080778729794 0.00046271417047981161 0.0012028169942082357 7.1568723655765048e-05 -0.0014430753154547613 0.0010225554838524983 -0.00045665014009680076 0.0028539021347872527 0.0010268495042792629 0.00098295111294153452 0.00064191261649007775 -0.00015100428396951291 0.00063558377614263302 0.00073054741651325391 0.0028351091377376379 0.00040993002856759217 -0.00017848332154717572 -0.00017227316230039862 -0.00072534466992506198 0.00065635607953103527 0.0011753103561679145 0.0027506993787634812 -0.0016421942204835332 -0.0012026011584130175 0.0015019684573761313 -0.00071165156700039173 -0.00054059535794381407 0.0015460157577763312 0.00016751299951966778 0.00066068820843015452
leaf_weight=1235 21 81 787 263 22 258 79 155 1536 20 550 817 22 33 32 197 36 45 333 26 24 112 20 433 27 34 693 313 20 428 20 878 1280 444 259 1278 412 62 71 24 2269 343 230 111 630 102 23 52 871 66 161 659 23 24 508 600 37 515 21 20 49 29
leaf_count=1235 21 81 787 263 22 258 79 155 1536 20 550 817 22 33 32 197 36 45 333 26 24 112 20 433 27 34 693 313 20 428 20 878 1280 444 259 1278 412 62 71 24 2269 343 230 111 630 102 23 52 871 66 161 659 23 24 508 600 37 515 21 20 49 29
internal_value=1.02669e-06 0.000506397 -0.000927054 0.000150682 0.000902278 -0.00125391 0.00102838 -0.000443585 0.000355198 0.000989608 -4.17578e-05 0.000678707 -0.000649118 0.00035163 0.000397123 -0.000706632 0.00105683 0.00139357 0.00124551 -0.000336092 -0.00035568 0.000968298 0.00157448 1.3305e-05 0.000145301 -8.64892e-05 0.000383284 0.000446267 -0.0010394 -0.000775934 0.000268439 -0.00111906 -9.28775e-05 0.000654771 0.00144989 0.000111131 -0.00119638 0.000585851 0.000449647 0.00136124 0.00100148 0.000833739 0.000991421 0.000350433 0.000738727 0.00108621 0.00151301 0.000803737 -0.000217393 0.000314714 -0.000263798 0.000738459 0.00116787 0.00197976 -0.00143849 -0.00138209 0.00203388 -0.000584011 -0.000315706 0.000477264 -0.000475077 -0.000132622
internal_weight=20723 13417 7306 7067 6350 4359 4060 2947 3426 3718 3641 2290 1012 55 3129 957 2933 414 378 1935 1909 556 101 3091 1378 297 3097 2404 2016 468 40 1548 1713 757 342 1351 1290 1734 917 320 2519 455 2499 1647 817 187 85 73 1122 90 1032 785 126 47 2343 1835 61 760 245 41 204 100
internal_count=20723 13417 7306 7067 6350 4359 4060 2947 3426 3718 3641 2290 1012 55 3129 957 2933 414 378 1935 1909 556 101 3091 1378 297 3097 2404 2016 468 40 1548 1713 757 342 1351 1290 1734 917 320 2519 455 2499 1647 817 187 85 73 1122 90 1032 785 126 47 2343 1835 61 760 245 41 204 100
is_linear=0
shrinkage=0.05


Tree=13
num_leaves=63
num_cat=0
split_feature=20 20 20 20 20 22 20 20 19 6 18 12 2 21 3 0 0 2 0 19 19 6 2 5 0 20 21 15 22 2 9 20 9 21 23 1 19 3 3 7 15 2 21 7 3 21 2 22 18 21 20 2 21 9 0 23 20 21 19 22 1 21
split_gain=3.50878 0.682298 0.417821 0.0969928 0.0688935 0.0426024 0.0423934 0.0361617 0.0359597 0.0269486 0.0261927 0.0680405 0.0233912 0.0336433 0.0228584 0.0223965 0.0223523 0.0204627 0.0200233 0.01857 0.0256518 0.0182712 0.0189833 0.017541 0.0164796 0.0159893 0.0156394 0.0290635 0.015491 0.0151924 0.0150843 0.0147521 0.014323 0.0143115 0.0140023 0.0133637 0.0133199 0.0128282 0.0165161 0.0127304 0.0155874 0.0122564 0.0121882 0.0149552 0.012167 0.0118353 0.0115633 0.0154303 0.0113529 0.0112535 0.0109477 0.0122176 0.010859 0.0107683 0.0104568 0.0102094 0.01012 0.0100914 0.0099634 0.0157561 0.0211863 0.0183403
threshold=0.1185388888888889 0.14644791666666671 0.092555555555555571 0.13290000000000005 0.15557916666666669 -0.13614999999999997 0.11162430555555557 0.081321527777777791 0.13655000000000003 0.0050020250000000011 4.574913590631783 0.0050225287500000005 12.500000000000002 0.045174176713143888 0.0050000050000000009 18.500000000000004 19.500000000000004 1.0000000180025095e-35 20.500000000000004 0.11485000000000002 0.11835000000000002 0.0046238850000000003 7.5000000000000009 0.009924050000000002 22.500000000000004 0.097860416666666686 0.026340494268170121 8.1245000000000202e-05 -0.0011000000000000001 12.500000000000002 0.0050129282638888906 0.087122916666666675 0.0090887442361111109 0.034522044720154473 0.057407407407407414 1.0000000180025095e-35 0.097450000000000023 0.005005980000000001 0.010091860000000003 0.0050326550000000013 -0.00053468499999999905 1.0000000180025095e-35 0.028075951092164094 0.007275595000000001 0.0063485850000000012 0.028841107089062575 52.500000000000007 -0.13614999999999997 6.3541710791422945 0.035875842661139294 0.074775000000000022 1.0000000180025095e-35 0.062961088649770888 0.0050001434722222234 6.5000000000000009 1.0000000180025095e-35 0.12364791666666668 0.032477671729968953 0.096850000000000006 -0.0048499999999999993 1.5000000000000002 0.033566916325366083
decision_type=2 2 2 2 2 2 2 2 2 2 2 2 2 2 2 2 2 2 2 2 2 2 2 2 2 2 2 2 2 2 2 2 2 2 2 2 2 2 2 2 2 2 2 2 2 2 2 2 2 2 2 2 2 2 2 2 2 2 2 2 2 2
left_child=2 3 7 15 9 -4 18 50 21 49 17 -12 13 -11 16 26 41 -10 25 34 -21 22 -6 32 30 -7 27 35 36 55 -8 -22 44 -18 -9 56 -27 -23 45 40 -14 -5 -41 -44 57 -39 47 -19 -46 -3 51 -1 54 -33 -43 -28 -2 -16 -17 60 61 -60
right_child=1 4 5 14 8 6 24 19 10 12 11 -13 39 -15 23 58 33 46 -20 20 31 37 -24 -25 -26 28 29 -29 -30 -31 -32 53 -34 -35 -36 -37 -38 38 -40 42 -42 52 43 -45 48 -47 -48 -49 -50 -51 -52 -53 -54 -55 -56 -57 -58 -59 59 -61 -62 -63
leaf_value=-0.00090798550241050267 0.001689932745648548 0.00056203373536525293 0.0018125361029524356 0.00071906328746644294 0.0023593794472550078 -0.00080425118242939274 -0.00020950086873727661 -0.0011839684764612011 0.0014513782806005019 0.001079195498008898 0.0043970136169809845 0.00040943679297292284 -0.00069297579207664567 0.0031622464252657003 0.00069557214560892269 -0.00077175462162510191 0.000102219815983598 0.0024025314807659018 -0.00098961891567080768 0.00076880064837995079 -0.001405483103911232 0.00034246311383707767 0.00093443639947843457 -0.00028355033948038774 0.00080328126038823808 -0.00047081402903374205 0.0010911510664560152 0.0017623327926870576 -0.00064283010324742748 -0.00017483876675129296 -0.0006547386749011265 0.00053019730112282561 0.00197125542385038 -0.00055443666796974251 -0.00075840192275174591 6.7990287433707686e-05 -7.6681989262800048e-06 0.0021147540182573721 0.00029692114658500689 0.00023686179401405719 0.00056702836829100752 0.00017910649054659315 0.0014678880521372042 0.0006628987130950139 0.00077676031423834502 0.00086276625369507769 0.00069373645173772256 0.0010088321407373845 0.0021908556814940476 0.0002326833117327672 -0.0012690821667527717 -0.0015366390247852073 -9.8644076178799271e-05 -0.0009385114231218513 0.00042783186439835415 0.00010394367905165482 0.00038943352500120035 0.00026038543110542699 6.7868418603514639e-05 -0.00045866724983186814 -0.00025984140512629771 0.0018471618014570725
leaf_weight=84 21 817 20 189 27 525 964 1068 257 163 20 23 27 22 377 105 382 20 331 31 58 313 174 54 35 450 28 27 721 1280 237 24 20 106 236 1278 237 20 143 53 270 685 119 112 40 336 303 2834 22 380 1292 967 159 26 1103 405 52 206 30 280 107 28
leaf_count=84 21 817 20 189 27 525 964 1068 257 163 20 23 27 22 377 105 382 20 331 31 58 313 174 54 35 450 28 27 721 1280 237 24 20 106 236 1278 237 20 143 53 270 685 119 112 40 336 303 2834 22 380 1292 967 159 26 1103 405 52 206 30 280 107 28
internal_value=9.75351e-07 0.000481077 -0.000880701 0.000138874 0.000852591 -0.000488559 -0.000501708 -0.00124529 0.000961023 0.000605677 0.00103779 0.00226412 0.000837262 0.00132691 0.000333334 -3.96699e-05 0.000264894 0.00102235 -0.000630283 -0.00104839 -0.000499005 0.000699043 0.00112585 0.000583105 -0.000266195 -0.000568751 1.26398e-05 0.000138036 -0.00048094 -8.82336e-05 -0.000297362 -0.000862913 0.00065348 -4.04146e-05 -0.00110695 0.000105574 -0.000311039 0.000593393 0.00075079 0.00068135 0.000452483 0.000334647 0.000920694 0.00107759 0.000612619 0.000933103 0.000987419 0.0010186 0.00127854 0.000457478 -0.00136656 -0.00148639 0.00029733 -0.000233531 0.000332543 0.000167782 0.00076355 0.000541801 -0.00033365 -0.000230277 0.000157294 0.000926838
internal_weight=20723 13417 7306 6984 6433 3520 3500 3786 4470 1963 3457 43 766 185 3343 3641 2624 3414 2264 1443 139 1013 201 719 1236 1933 3091 1378 1408 1713 1201 108 665 488 1304 1351 687 812 499 581 297 2136 284 231 645 356 3157 2854 62 1197 2343 1051 1947 50 1788 433 73 583 550 445 165 58
internal_count=20723 13417 7306 6984 6433 3520 3500 3786 4470 1963 3457 43 766 185 3343 3641 2624 3414 2264 1443 139 1013 201 719 1236 1933 3091 1378 1408 1713 1201 108 665 488 1304 1351 687 812 499 581 297 2136 284 231 645 356 3157 2854 62 1197 2343 1051 1947 50 1788 433 73 583 550 445 165 58
is_linear=0
shrinkage=0.05


Tree=14
num_leaves=63
num_cat=0
split_feature=20 20 20 20 20 22 20 20 14 14 14 21 6 2 21 0 21 16 18 15 14 0 13 13 10 2 23 21 23 2 0 0 10 16 20 21 15 22 4 2 10 10 8 15 4 1 1 1 20 2 10 21 10 23 0 21 18 9 0 0 21 20
split_gain=3.16667 0.615774 0.377083 0.087536 0.0621764 0.0384486 0.0382601 0.0326977 0.0292298 0.0282566 0.0244832 0.0344885 0.0243211 0.0211105 0.0303631 0.0202129 0.0200635 0.019463 0.0353667 0.0196022 0.0181032 0.018071 0.0175507 0.0181633 0.017264 0.0172585 0.0163805 0.0340887 0.0159658 0.0154544 0.0419768 0.0147838 0.0146609 0.0146251 0.0144304 0.0141146 0.0262298 0.0139806 0.0139161 0.0137112 0.0130663 0.012711 0.0126513 0.0122607 0.0142321 0.0142346 0.0120607 0.0117556 0.0114048 0.0111081 0.0110025 0.0106636 0.0106214 0.0106137 0.0100884 0.00984747 0.0116241 0.00972914 0.00968332 0.0094829 0.00934455 0.009317
threshold=0.1185388888888889 0.14644791666666671 0.092555555555555571 0.13290000000000005 0.15557916666666669 -0.13614999999999997 0.11162430555555557 0.079420138888888894 9.9499999999998912e-06 -7.2024999999999853e-05 4.0350000000000202e-05 0.055492363944804425 0.0050020250000000011 12.500000000000002 0.045174176713143888 18.500000000000004 0.034776029011025424 0.026385262000000003 4.574913590631783 -0.0014216749999999996 -0.0014216749999999996 20.500000000000004 0.012439217000000001 0.013990255000000002 0.00023884445646838113 1.0000000180025095e-35 0.057407407407407414 0.029369124257395015 0.057407407407407414 12.500000000000002 21.500000000000004 19.500000000000004 1.4934981980993918e-05 0.0093164320000000012 0.097860416666666686 0.026340494268170121 8.1245000000000202e-05 -0.0011000000000000001 0.0021835800000000005 12.500000000000002 8.2344138445706176e-05 0.0010137237105783689 0.0058716500000000008 -0.00026290499999999942 0.0058570000000000002 1.0000000180025095e-35 1.0000000180025095e-35 2.5000000000000004 0.14025000000000001 1.0000000180025095e-35 7.2911730899438771e-05 0.056120070435216586 0.00012649596851305241 0.021738721161087153 10.500000000000002 0.035708098215004334 -0.23803804640556772 0.0076811579861111121 11.500000000000002 14.500000000000002 0.051147595263460958 0.13053333333333336
decision_type=2 2 2 2 2 2 2 2 2 2 2 2 2 2 2 2 2 2 2 2 2 2 2 2 2 2 2 2 2 2 2 2 2 2 2 2 2 2 2 2 2 2 2 2 2 2 2 2 2 2 2 2 2 2 2 2 2 2 2 2 2 2
left_child=2 3 7 15 12 -4 21 53 9 20 16 43 51 14 55 35 26 18 19 -10 42 34 41 -24 38 -21 49 -28 40 30 32 33 -8 48 -7 36 46 50 -11 -37 -9 -22 60 -12 45 -45 52 -30 -18 -5 -36 -3 -2 -1 -34 56 -14 -41 -48 -31 -6 -17
right_child=1 4 5 10 8 6 29 28 17 24 11 -13 13 -15 -16 61 31 -19 -20 25 22 -23 23 -25 -26 -27 27 -29 47 59 -32 -33 54 -35 37 39 -38 -39 -40 57 -42 -43 -44 44 -46 -47 58 -49 -50 -51 -52 -53 -54 -55 -56 -57 -58 -59 -60 -61 -62 -63
leaf_value=-0.00142487915282014 0.00029011147453275046 0.00048487895187670723 0.0017219093214225724 0.0007040104150077219 0.00040794789210849561 -0.00076403862515248228 0.00027394756154706105 -0.0010466480827482593 0.0025849186402324234 0.00085074764028831857 -0.00049787945529467176 0.0027438249484735677 0.00083825464470363745 0.00064728244771792599 0.003004134047924626 -0.00041751893664856478 3.7504682015800239e-05 -0.00046433248964603989 0.0026121009263653451 0.0016219113820261555 0.001191229095655258 -0.00094013797365719162 0.001644277982284067 0.0010029456772767647 0.00058711754876790282 0.00099684811260524744 0.0005497606605540231 0.0025549848899137709 -0.00040316981005459679 -0.00023209999089824309 0.0020198442758992317 -0.00047489797159818342 0.00014320454812756606 -0.0011813437649107073 -0.00023704381742599315 0.00015939249405863898 0.0016742161165220076 -0.00061068859261880371 0.0024252391526597026 -0.00018633207796865003 -0.0015398545826319605 0.00079340482991861012 0.00077716321422779619 0.001787213494588452 0.0020105973818863275 0.00042412432950506034 -2.3433024271853337e-05 -0.00099792953686997431 0.00044340119556399377 0.00027041085002467912 -0.00098056954749928846 -8.3911098522176118e-06 0.0015610729432664814 -0.0011947466782190384 -0.00073583200488321705 0.00044931535667274152 0.0018650672804476334 0.00077296858901347695 0.00027978641915480225 -0.00056270425658131362 -0.00088220649538561704 0.00010421008004379715
leaf_weight=1103 48 1075 20 161 32 525 128 1282 21 36 22 21 63 581 22 444 464 20 38 120 266 331 184 276 1126 1385 270 23 159 590 25 107 48 20 633 433 27 721 23 1253 150 819 99 22 20 148 907 174 276 1789 54 122 25 918 102 51 49 27 371 343 25 106
leaf_count=1103 48 1075 20 161 32 525 128 1282 21 36 22 21 63 581 22 444 464 20 38 120 266 331 184 276 1126 1385 270 23 159 590 25 107 48 20 633 433 27 721 23 1253 150 819 99 22 20 148 907 174 276 1789 54 122 25 918 102 51 49 27 371 343 25 106
internal_value=9.26583e-07 0.000457024 -0.000836666 0.00013193 0.000809962 -0.000464131 -0.000476622 -0.00118303 0.000912972 0.000818249 0.000316667 0.000811022 0.000575393 0.000795399 0.00126056 -3.76864e-05 0.00027963 0.00108556 0.00110538 0.00106786 0.000948832 -0.000598769 0.00100066 0.00125948 0.000630803 0.00104669 0.000358587 0.000707167 -0.00102579 -0.000252885 5.73609e-05 7.53633e-05 -0.000119121 0.000152834 -0.000540314 1.20078e-05 0.000131134 -0.000456893 0.00146453 -8.38219e-05 -0.00109831 0.000890936 0.000435502 0.000619565 0.000748953 0.000600524 0.000100295 -0.000713945 0.000188893 0.000306211 -0.000295487 0.000434604 0.000725372 -0.00132035 -0.00045454 0.00102524 0.00128749 -0.000166097 6.45908e-05 -0.00035364 -0.000157909 -0.000316968
internal_weight=20723 13417 7306 6984 6433 3520 3500 3786 4470 2886 3343 233 1963 766 185 3641 3110 1584 1564 1526 1701 2264 1545 460 1185 1505 2243 293 1765 1236 303 867 278 760 1933 3091 1378 1408 59 1713 1432 1085 156 212 190 170 1351 333 740 1950 687 1197 73 2021 150 163 112 1280 1278 933 57 550
internal_count=20723 13417 7306 6984 6433 3520 3500 3786 4470 2886 3343 233 1963 766 185 3641 3110 1584 1564 1526 1701 2264 1545 460 1185 1505 2243 293 1765 1236 303 867 278 760 1933 3091 1378 1408 59 1713 1432 1085 156 212 190 170 1351 333 740 1950 687 1197 73 2021 150 163 112 1280 1278 933 57 550
is_linear=0
shrinkage=0.05


Tree=15
num_leaves=63
num_cat=0
split_feature=20 20 20 20 20 22 0 18 23 6 20 14 14 19 5 19 2 20 19 2 15 4 0 22 2 22 22 3 15 5 0 3 15 6 9 20 8 19 3 2 9 8 14 15 19 18 5 0 0 23 0 22 19 2 18 23 19 18 0 0 9 20
split_gain=2.9831 0.587036 0.307729 0.076032 0.0514935 0.0337032 0.0307593 0.0440643 0.0386901 0.0307471 0.029594 0.0283705 0.0323406 0.0263033 0.0238038 0.0235404 0.0228563 0.0220277 0.020357 0.0197046 0.0221708 0.024536 0.0186746 0.0212643 0.0186711 0.0308219 0.0267552 0.0165288 0.0202779 0.0160113 0.0154585 0.0151815 0.0188723 0.0154037 0.0151731 0.0147719 0.0144126 0.0152769 0.0141014 0.0140156 0.0148942 0.0139962 0.0138472 0.0126906 0.0183707 0.0121979 0.0131763 0.0116264 0.0115051 0.0111935 0.0110881 0.0150996 0.0108903 0.0108225 0.0105973 0.0105639 0.0102874 0.0152833 0.0102163 0.0122989 0.0100709 0.00997394
threshold=0.11580833333333333 0.14757222222222224 0.092555555555555571 0.13527986111111115 0.15557916666666669 -0.11459999999999999 16.500000000000004 6.3541710791422945 0.018869556369556374 0.0050022150000000008 0.12581111111111112 9.9499999999998912e-06 -7.2024999999999853e-05 0.095650000000000013 0.015095245000000002 0.083350000000000021 12.500000000000002 0.10925208333333335 0.13375000000000004 12.500000000000002 -0.00029244000000000009 0.0074889150000000014 11.500000000000002 0.00075000000000000077 7.5000000000000009 -0.0070499999999999998 -0.030099999999999991 0.028399335000000005 -0.0014216749999999996 0.0082145200000000012 14.500000000000002 0.0089208600000000009 0.0010143449999999996 0.0093375400000000018 0.0050230477083333348 0.074775000000000022 0.0076896900000000008 0.12615000000000001 0.0071641000000000005 12.500000000000002 0.0050049319444444461 0.0053451350000000009 1.5649999999999435e-05 -1.6499999999988743e-07 0.19095000000000004 -0.1490835276705206 0.0051915800000000003 19.500000000000004 16.500000000000004 0.014814814814814817 15.500000000000002 -0.043499999999999983 0.11235000000000002 32.500000000000007 -0.65663967200762574 0.046296296296296301 0.14685000000000004 -0.1408251545710375 6.5000000000000009 13.500000000000002 0.0050108180555555569 0.12700208333333338
decision_type=2 2 2 2 2 2 2 2 2 2 2 2 2 2 2 2 2 2 2 2 2 2 2 2 2 2 2 2 2 2 2 2 2 2 2 2 2 2 2 2 2 2 2 2 2 2 2 2 2 2 2 2 2 2 2 2 2 2 2 2 2 2
left_child=2 3 15 6 9 -4 7 10 -9 34 22 12 14 -11 36 35 38 39 29 20 21 -15 -2 -24 25 26 -8 28 -13 45 -19 32 -30 -33 60 55 53 -38 -5 -7 50 -22 48 -14 -45 46 -18 -37 -20 -21 51 -41 -26 -6 -36 -1 -12 -58 -44 -60 -3 -27
right_child=1 4 5 16 11 17 24 8 -10 13 56 27 43 19 -16 -17 18 30 42 49 41 -23 23 -25 52 61 -28 -29 31 -31 -32 33 -34 -35 54 47 37 -39 -40 40 -42 -43 58 44 -46 -47 -48 -49 -50 -51 -52 -53 -54 -55 -56 -57 57 -59 59 -61 -62 -63
leaf_value=-0.0014963020457680453 -0.00016161556025845575 0.00056895004370744579 0.0011971811775583774 0.00052565962627368075 0.0010084193357913539 -0.00035103517150958949 -3.7949071071731547e-05 0.0026965257362462584 -0.00010171452886424959 0.0025980194616204246 0.00014987353122629211 0.0025455435783521313 0.00079005698460190503 0.0034306884416201639 0.00026686352553259069 -0.00097725392396576021 -3.0453977568757004e-06 -0.00011064771191496533 0.00040728929180738714 0.00012487204502642423 0.0011576131747000893 0.0011123791986610741 0.00060997263960629465 -0.00015254010315933801 -0.00047440997948898798 -0.00073791642239401964 0.0019481715050717005 -0.00025031102425903859 0.0010996762673051933 -0.0012128663545413673 -0.00053082655361789434 0.00041764686296902212 0.0022322549518369334 0.0010754483146229177 0.0010709259872260189 -0.0010865382204497075 0.00047471504921679086 0.0012723659736673554 0.0016497010343049748 0.00023252549213151832 -0.0010082261465050948 -0.00020293328957450286 0.00015810082431493185 0.00035761904368566928 0.0011497868006436734 0.00046132249418016214 0.0010818319311385557 -0.0014114268150429094 9.2980465508350028e-06 0.00072039414568886675 -0.00079650397631043771 -0.00054402798811118596 -0.00013827801007126089 0.00067253145446080631 0.00023546845854276503 -0.0010349818720642721 0.00073461069250473608 6.5179466180619004e-05 0.0014780801659430259 0.00042151606641709804 0.0014077209821713971 0.00018703528485568841
leaf_weight=676 1413 150 30 737 559 507 30 30 21 20 1377 23 456 21 126 1310 802 536 892 97 89 25 188 178 466 55 39 24 1147 23 370 169 38 188 40 1334 68 512 29 68 249 24 42 619 83 210 29 347 228 423 418 788 499 420 743 152 203 147 71 45 47 62
leaf_count=676 1413 150 30 737 559 507 30 30 21 20 1377 23 456 21 126 1310 802 536 892 97 89 25 188 178 466 55 39 24 1147 23 370 169 38 188 40 1334 68 512 29 68 249 24 42 619 83 210 29 347 228 423 418 788 499 420 743 152 203 147 71 45 47 62
internal_value=7.397e-06 0.000426228 -0.000852302 0.000139191 0.000793349 -0.00047021 1.24847e-05 8.5185e-05 0.00154431 0.000557538 6.39598e-05 0.000882683 0.000788108 0.000810888 0.000927909 -0.00114905 0.000331126 -0.000487247 0.000253581 0.000758248 0.00124535 0.00217074 -7.91681e-05 0.000239133 -0.000212185 0.000246511 0.00108464 0.00105189 0.00107186 9.2023e-05 -0.000282244 0.00104988 0.001136 0.000764052 0.000376832 -0.00123875 0.000981335 0.00117885 0.000568215 -0.000578741 -0.000654543 0.000868648 0.000388086 0.000584684 0.00045128 0.000120853 3.48143e-05 -0.0011536 0.00032627 0.000609306 -0.000585417 -0.000482339 -0.000300597 0.00086432 0.000278148 -0.00141162 0.000211397 0.00045345 0.000826279 0.00106821 0.000769063 -0.000247771
internal_weight=20712 13927 6785 7816 6111 2966 4708 3557 51 1679 3506 4432 2843 699 1685 3819 3108 2936 2342 679 159 46 1779 366 1151 186 69 1589 1565 1064 906 1542 1185 357 980 2509 1559 580 766 2030 1523 113 1278 1158 702 1041 831 1681 1120 520 1274 856 965 979 783 828 1727 350 158 116 197 117
internal_count=20712 13927 6785 7816 6111 2966 4708 3557 51 1679 3506 4432 2843 699 1685 3819 3108 2936 2342 679 159 46 1779 366 1151 186 69 1589 1565 1064 906 1542 1185 357 980 2509 1559 580 766 2030 1523 113 1278 1158 702 1041 831 1681 1120 520 1274 856 965 979 783 828 1727 350 158 116 197 117
is_linear=0
shrinkage=0.05


Tree=16
num_leaves=63
num_cat=0
split_feature=20 20 20 20 5 20 5 19 14 19 19 22 4 2 22 1 20 20 10 18 19 19 1 22 23 16 4 7 14 14 20 9 20 4 1 19 13 1 9 23 10 19 20 1 2 9 23 4 23 14 2 19 19 15 2 18 14 10 19 23 6 12
split_gain=2.69237 0.52126 0.287921 0.0669458 0.0472353 0.0382521 0.0322471 0.0314867 0.0354131 0.0553726 0.0312281 0.0301527 0.0296072 0.0285144 0.0247283 0.0229772 0.021954 0.0211615 0.02079 0.0310249 0.0205777 0.0198814 0.0320826 0.0244856 0.0190332 0.0189243 0.0269905 0.0201591 0.0174039 0.018531 0.0166685 0.0166025 0.0161762 0.0160629 0.0167959 0.0158621 0.0156787 0.0153676 0.0150864 0.0144732 0.0144347 0.0134453 0.0128779 0.0128459 0.0126491 0.013442 0.0125208 0.0125001 0.0115633 0.0113402 0.0113104 0.0105598 0.0127736 0.0103444 0.010281 0.0100712 0.00995863 0.00985802 0.00958256 0.00933303 0.00930865 0.0142672
threshold=0.11622499999999999 0.14757222222222224 0.092555555555555571 0.13754236111111115 0.0052482000000000006 0.1562854166666667 0.032501405000000004 0.11275 0.00044545500000000047 0.17705000000000001 0.19095000000000004 -0.11459999999999999 0.005005980000000001 22.500000000000004 -0.00025000000000000017 2.5000000000000004 0.10925208333333335 0.11692083333333335 0.00047129740319579004 0.51713433242490037 0.095650000000000013 0.095050000000000009 1.5000000000000002 0.032750000000000001 0.046296296296296301 0.0086765270000000016 0.009924050000000002 0.0025811750000000002 9.0050000000002992e-06 -8.8184999999999726e-05 0.12761250000000005 0.0098326909027777794 0.17218611111111115 0.0050102900000000014 1.0000000180025095e-35 0.13005000000000003 0.0050462575000000008 1.5000000000000002 0.0050230477083333348 0.018869556369556374 4.4298741343546062e-05 0.12125000000000001 0.15040486111111115 1.5000000000000002 12.500000000000002 0.0050049319444444461 0.080555555555555561 0.0050142050000000007 0.097685185185185194 -8.8184999999999726e-05 1.0000000180025095e-35 0.16955000000000003 0.14345000000000002 -1.6499999999988743e-07 1.0000000180025095e-35 -1.2218638081107425 0.00049011000000000031 3.5374442847417628e-06 0.13375000000000004 0.080555555555555561 0.0050069250000000006 0.0050043525000000007
decision_type=2 2 2 2 2 2 2 2 2 2 2 2 2 2 2 2 2 2 2 2 2 2 2 2 2 2 2 2 2 2 2 2 2 2 2 2 2 2 2 2 2 2 2 2 2 2 2 2 2 2 2 2 2 2 2 2 2 2 2 2 2 2
