tree
version=v4
num_class=1
num_tree_per_iteration=1
label_index=0
max_feature_idx=17
objective=quantile
feature_names=hour day_of_week minute fee_lag_1 fee_lag_2 fee_lag_3 fee_rolling_mean fee_rolling_std fee_rolling_p25 fee_rolling_p75 fee_rolling_p90 fee_diff_1 fee_diff_2 fee_zscore ratio_lag_1 ratio_rolling_mean ratio_rolling_std ratio_diff_1
feature_infos=[0:23] [0:6] [0:55] [0.002:0.10757177] [0.002:0.10757177] [0.002:0.10757177] [0.0020689713888888892:0.024862886388888887] [0:0.021532387530403131] [0.002:0.020816599999999998] [0.0020940925000000003:0.028429252500000002] [0.002219033:0.033301736999999998] [-0.041096589999999995:0.055417869999999994] [-0.041096589999999995:0.055417869999999994] [-2.5917331067890088:8.3674293521292888] [0.0001:1] [0.057709722222222225:0.19533333333333333] [0.010796634481108467:0.12506600995728309] [-0.88289999999999991:0.88459999999999994]
tree_sizes=5807 5902 5810 5826 5816 5807 5832 5886 5777 5835 5858 5826 5837 5875 5876 5866 5846 5823 5894 5823 5888 5867 5880 5895 5855 5880 5894 5906 5911 5915 5891 5906 5901 5901 5936 5937 6010 5972 6034 5993 5968 5984 5984 5948 5990 5916 6016 5999 5986 5959 5980 5938 6018 5976 5977 5975 5966 5969 5942 6067 5968 5970 5968 6020 6004 6003 5994 5988 6019 5956 5985 6050 5970 5993 6004 5977 5999 5989 5988 5976 5986 6026 5985 6021 6012 5952 5960 5991 6048 6019 6006 5941 5968 6034 6034 6020 6048 6030 5844 5375 6007 6014 6058 6047 6000 6035 6029 6023 6035 6029 6017 6038 6009 6028 6057 6037 6002 5980 6003 6033 6029 6019 6036 5962 6028 5986 6033 5963 5678 6004 5987 5993 6004 6000 5994 6069 5996 5967 5994 5960 6042 5982 6014 5935 6027 5974 5979 6036 6028 5948 5988 5975 5957 5995 5962 5964 5984 5986 6028 5931 5952 5960 6012 6028 6007

Tree=0
num_leaves=63
num_cat=0
split_feature=4 11 4 11 4 4 11 11 7 11 4 11 4 11 4 7 16 5 17 0 11 11 12 4 5 4 2 4 7 11 17 6 4 12 4 15 15 4 11 17 12 17 12 7 5 11 4 7 2 4 4 17 17 15 5 12 8 11 9 11 6 2
split_gain=13761.1 668.219 233.833 319.151 211.069 183.521 205.98 106.094 67.0285 61.8966 51.903 31.8699 31.697 29.1188 133.127 27.4151 22.4085 21.3486 17.2402 13.417 11.3834 11.1052 9.89049 9.75676 9.71082 8.63698 7.7641 7.61905 6.81818 6.08324 4.78139 4.56002 3.97451 3.69122 3.44309 3.29922 3.01786 2.9302 15.9043 2.9011 2.82774 2.52135 2.40698 2.26068 2.23214 1.40456 3.47224 1.40243 0.952381 0.800033 1.23074 0.574578 4.65041 0.504053 1.32203 0.4976 0.445553 0.431035 0.312065 0.300789 0.277778 3.55271e-15
threshold=0.0068459950000000006 0.000598895 0.0075449000000000011 -0.00017740999999999978 0.0054564950000000013 0.0058294000000000011 -0.00010768000000000018 0.0026879849999999999 0.00070113398368541421 -0.00046776500000000057 0.0065171150000000013 0.00025050500000000031 0.0071641000000000005 -0.0008753650000000011 0.0084131000000000015 0.001664192023324237 0.10553314543611543 0.0050008150000000005 0.046950000000000006 13.500000000000002 -0.00028959500000000008 0.00019125999999999998 0.00016179000000000022 0.0092287600000000008 0.0055505050000000007 0.0057664900000000009 32.500000000000007 0.0071641000000000005 0.0026352390674219957 1.3949999999995218e-06 0.0010499999999999956 0.0052343279861111125 0.0050042150000000011 -6.6734999999999828e-05 0.0051268250000000007 0.14360208333333338 0.16695972222222225 0.0079700300000000012 -0.0005340700000000001 0.070350000000000024 -0.00043712999999999993 0.087050000000000016 -0.00023590499999999999 0.0022398188558884436 0.0050090050000000013 1.728999999999967e-05 0.0054342550000000007 0.017680847886431254 27.500000000000004 0.0050270000000000011 0.0050353800000000016 -0.0080499999999999999 -0.0077000000000000046 0.16532430555555558 0.0063485850000000012 -0.00021578500000000021 0.012664371250000002 -0.00035310499999999977 0.0042507762500000002 -0.00042878499999999962 0.0052623673611111128 42.500000000000007
decision_type=2 2 2 2 2 2 2 2 2 2 2 2 2 2 2 2 2 2 2 2 2 2 2 2 2 2 2 2 2 2 2 2 2 2 2 2 2 2 2 2 2 2 2 2 2 2 2 2 2 2 2 2 2 2 2 2 2 2 2 2 2 2
left_child=1 5 3 9 7 21 20 17 -4 27 11 15 -11 14 -10 -8 23 22 34 -13 53 45 31 -16 32 -6 33 48 -12 -5 -29 39 41 -22 -19 -25 44 38 -15 -3 -31 55 -17 60 -34 47 51 49 -2 59 -51 61 -53 -7 -55 -23 58 -40 -39 -1 -27 -47
right_child=2 4 8 29 25 6 10 -9 13 12 28 19 -14 37 16 42 -18 18 -20 -21 26 24 -24 35 -26 43 -28 30 -30 40 -32 -33 36 -35 -36 -37 -38 56 57 -41 -42 -43 -44 -45 -46 46 -48 -49 -50 50 -52 52 -54 54 -56 -57 -58 -59 -60 -61 -62 -63
leaf_value=0.006454978966356305 0.006566154962051182 0.0065379902577501038 0.0066204090440979083 0.0066203101214899586 0.0066935486694957415 0.0065460283980822067 0.0065980177940977184 0.0073675800715416019 0.0065855095603900736 0.0065890492370159343 0.0066509110552708025 0.0065841877562300647 0.0066616580298581082 0.0065959354861216263 0.0066441383812324787 0.0065573367051865337 0.0074583730747024958 0.006572130735613935 0.007028055453969939 0.0066060175554726623 0.0065565190604468197 0.0065049547344363298 0.0066102366284920581 0.0072478025831686829 0.0065920580407038409 0.0067038467340805987 0.006591413405439955 0.0065721244445827443 0.0066135678599822832 0.0066970030497713216 0.0065937147438569045 0.0066073911829878538 0.0065572346462046353 0.0065772796383188666 0.0065878902946787301 0.0073177757200545979 0.0065783936384481547 0.0068412066689054422 0.0066650522625693711 0.0065406608863287311 0.0067291165284413031 0.0065221086022585837 0.0065629062388673385 0.0066917162552531332 0.0065639548322573345 0.0065096492220501831 0.0065409769935217219 0.0065106987864377627 0.0065558487540512134 0.0065023744497565341 0.0065142376165350877 0.0066247812472283842 0.0065104423038678146 0.0065415177375221286 0.0065551866169329372 0.0065148735141302306 0.0074165708516427233 0.0067356727632776449 0.0072431917479433673 0.0064958527451381091 0.0068081304354268178 0.0065181044944406328
leaf_weight=305 210 440 220 360 300 1710 390 270 340 310 330 200 340 250 370 230 220 200 220 210 260 160 210 220 240 200 230 220 220 260 200 310 560 230 210 3110 280 310 200 210 1160 271 200 200 560 1935 210 270 210 510 8490 20 4766 200 390 2136 210 1250 9200 155285 250 525
leaf_count=35 21 44 22 36 30 171 39 27 34 31 33 20 34 25 37 23 22 20 22 21 26 16 21 22 24 20 23 22 22 26 20 31 56 23 21 311 28 31 20 21 116 28 20 20 56 216 21 27 21 51 849 2 518 20 39 219 21 125 920 15848 25 57
internal_value=0.00661357 0.00242083 0.0469319 0.034755 0.0257468 0.00203233 0.0116787 0.016792 0.0494362 0.017682 0.0251701 0.0194608 0.0292669 0.0498208 0.0462929 0.0137697 0.048896 0.0124079 0.0198285 0.0308429 0.0037269 0.00177002 0.00841219 0.0498178 0.00430812 0.0452588 0.00921347 0.00871744 0.0379382 0.0490465 0.0134793 0.00626208 0.00371726 0.00565621 0.0137697 0.0506737 0.0058603 0.0511368 0.0492216 0.00388227 0.0505182 0.00254848 0.00506295 0.0484977 0.00469958 0.00170806 0.0023793 0.0016777 0.00395553 0.00167179 0.00213014 0.00219561 0.00251482 0.00200936 0.0032695 0.00201012 0.0514717 0.0512298 0.051522 0.00164528 0.0504635 0.00157458
internal_weight=203513 184343 19170 3270 3020 181323 4800 2070 15900 1490 1780 1230 650 15680 4260 820 3920 1800 630 410 3020 176523 1170 3700 4207 950 720 840 550 1780 420 960 3967 490 410 3330 1400 11420 1700 650 1420 2567 430 650 1120 172316 7456 164860 420 164590 9000 7246 4786 2300 590 2296 9720 1450 9510 155590 450 2460
internal_count=20750 18833 1917 327 302 18531 480 207 1590 149 178 123 65 1568 426 82 392 180 63 41 302 18051 117 370 427 95 72 84 55 178 42 96 403 49 41 333 140 1142 170 65 142 263 43 65 112 17624 814 16810 42 16783 900 793 520 230 59 235 972 145 951 15883 45 273
is_linear=0
shrinkage=1


Tree=1
num_leaves=63
num_cat=0
split_feature=3 3 3 5 3 11 3 1 11 7 11 9 7 1 10 14 14 14 7 10 12 7 7 7 12 5 10 3 11 14 3 12 11 11 14 2 6 7 17 3 17 17 7 9 5 7 10 17 12 14 7 5 12 3 11 3 17 3 11 12 1 9
split_gain=14640.2 274.703 158.972 67.8233 47.0497 50.5432 42.0096 35.304 33.3762 20.837 17.8289 15.8861 15.8384 15.4083 14.4877 14.2422 13.4711 11.4603 10.9009 10.4001 10.0962 7.304 25.5743 7.23588 7.21866 7.15014 9.75653 6.4508 17.9758 8.76587 5.72344 5.14831 4.8 4.65732 3.8667 5.37964 7.82701 3.36066 5 3.23559 2.77361 2.98765 2.6683 3.23559 2.61602 2.3332 1.80355 1.61326 1.51807 1.1227 1.63918 1.11111 1.05903 0.888712 2.45119 0.888348 1.12531 1.32523 0.688251 0.924692 0.649542 2.04443
threshold=0.0066445200000000001 0.0076659800000000002 0.0055505050000000007 0.0091442450000000022 0.0063853650000000014 -0.00016643499999999969 0.0068904350000000012 3.5000000000000004 -0.00041517999999999975 0.000864656638901507 -8.7870000000000079e-05 0.0050024975000000013 0.00082190886063473925 2.5000000000000004 0.0090168850000000005 0.18565000000000001 0.16275000000000003 0.15085000000000001 0.011634431523575269 0.0084886310000000017 0.00013337499999999984 0.00049826872879686027 0.0016899845949674857 0.00073735216378777104 -1.2700000000002638e-06 0.0053780400000000015 0.0094992360000000012 0.0079910450000000022 -0.00041517999999999975 0.15555000000000002 0.0059644350000000014 -0.00028959500000000008 0.00013361500000000015 0.00012705000000000011 0.19075000000000003 32.500000000000007 0.0050207427083333337 0.00033721186430828778 0.0020499999999999967 0.0082145200000000012 0.02180000000000001 0.042550000000000004 0.0012364505823660914 0.005026415000000002 0.0054564950000000013 2.9624302022867168e-05 0.033268071000000003 0.023599999999999993 -0.00046776500000000057 0.26565000000000005 0.00012862505259426929 0.0064252700000000012 -0.00055179499999999935 0.0084718950000000019 -0.00084104000000000026 0.0050025250000000007 0.020600000000000004 0.0050064850000000006 -2.9609999999999356e-05 -0.0020608299999999987 1.0000000180025095e-35 0.0050004512500000011
decision_type=2 2 2 2 2 2 2 2 2 2 2 2 2 2 2 2 2 2 2 2 2 2 2 2 2 2 2 2 2 2 2 2 2 2 2 2 2 2 2 2 2 2 2 2 2 2 2 2 2 2 2 2 2 2 2 2 2 2 2 2 2 2
left_child=2 3 33 6 10 31 16 8 -8 11 40 -3 -10 -7 19 25 24 -14 27 23 -18 -17 -23 -9 -2 37 30 28 29 -11 -27 -6 -15 46 45 47 -37 -12 -39 -13 42 -42 43 -4 -29 -35 49 -36 -16 55 -51 -43 -47 54 -46 58 -57 -58 59 -1 61 -54
right_child=1 9 4 -5 5 13 7 14 12 18 15 39 17 32 48 21 20 -19 -20 -21 -22 22 -24 -25 -26 26 -28 44 -30 -31 -32 -33 -34 34 35 36 -38 38 -40 -41 41 51 -44 -45 53 52 -48 -49 -50 50 -52 -53 60 -55 -56 56 57 -59 -60 -61 -62 -63
leaf_value=3.7460697641144952e-06 2.857433745607148e-05 0.00013298878759103447 -4.2433985465111239e-05 8.7815896656395599e-06 -3.6578731832066502e-06 6.9143583285598544e-05 2.1730733601428394e-05 8.0715568226742652e-05 4.3941477743896586e-05 3.5703347457913244e-05 -2.7645993863484895e-05 7.5812975088628492e-05 4.7015587510206232e-05 2.1078820650849908e-05 5.7794231311173784e-05 -3.8543700005449491e-06 2.0770444996620179e-05 8.1403645780539266e-05 0.00078772358333440676 6.4448385370031734e-05 4.1676317453331945e-05 5.4717539784756469e-05 -2.288089623958458e-07 7.2772944993154407e-05 8.6805619902733315e-06 2.0689095138507979e-06 -1.6182181214662852e-05 0.0014178209230363758 9.0889166505816001e-05 5.4550232971505285e-05 2.4349594396652812e-05 2.0267001027268116e-06 1.4895621385534057e-05 -0.00011684544063642836 -1.8518320054764661e-05 -7.5522120781326184e-05 2.2157979434041644e-05 -1.5031494525131049e-05 2.621350666578817e-05 0.00024783595063563311 1.5668969698226132e-05 -6.4408983819515233e-06 -2.305149758884363e-05 -1.4388242901369511e-07 6.4596082732475401e-05 2.0157595885023084e-05 -4.3730800708448577e-05 -3.3778258642236982e-05 7.4424020441146501e-05 -7.6376351541922053e-05 -7.2700019267021455e-05 -1.813879723864795e-05 -0.00010807803960445266 0.00074777556985520469 0.00011029606438366194 -6.1646479689599063e-05 -6.8874377832496306e-05 -5.3355120647460223e-05 -7.4792642844840902e-05 -7.4345039565081931e-05 -5.228838499206435e-05 -5.5326089496092278e-05
leaf_weight=90 310 210 200 300 270 300 350 200 200 240 410 230 200 200 200 280 260 700 280 230 230 210 380 430 250 280 410 300 1150 210 260 320 300 140 190 222 381 540 270 200 360 200 1090 230 260 80 210 623 630 310 402 250 137 10660 1760 9060 870 4130 147905 8673 3020 320
leaf_count=9 31 21 20 30 27 30 35 20 20 24 41 23 20 20 20 28 26 70 28 23 23 21 38 43 25 28 41 30 115 21 26 32 30 14 19 24 39 54 27 20 36 20 109 23 26 8 21 65 63 31 42 25 20 1066 176 906 87 413 15038 996 311 32
internal_value=-0.000110879 0.0405228 -0.00453684 0.0296325 0.00298816 0.011187 0.0312768 0.034172 0.0284483 0.0436774 0.000865921 0.0348437 0.0327273 0.019375 0.0390828 0.00338816 0.022619 0.0355556 0.0440579 0.0345349 0.0286735 0.0087931 0.0119492 0.0378571 0.0173214 0.0012212 0.00447368 0.0442455 0.04125 0.0327778 0.00888889 8.47447e-05 0.014 -0.00482463 -0.00333757 -0.00111582 0.00246269 -0.00131148 0.000555554 0.0403488 -0.00242489 -6.17295e-05 -0.00368421 -0.000348838 0.0446148 -0.00418853 -0.00486892 -0.00376999 0.0437952 -0.00487459 -0.00289326 -0.00277778 -0.00443773 0.044724 0.0437624 -0.00488286 -0.00450213 -0.0039 -0.00491702 -0.00448648 -0.00456859 -0.00281182
internal_weight=203513 19990 183523 4490 6760 1390 4190 3140 1450 15500 5370 640 1100 800 1690 3040 1050 900 14860 860 490 870 590 630 560 2170 950 14580 1600 450 540 590 500 176763 5113 1416 603 1220 810 430 2330 810 1520 430 12980 3697 171650 813 830 171440 712 450 3557 12680 2020 170728 14060 5000 156668 8763 3477 457
internal_count=20750 1999 18751 449 676 139 419 314 145 1550 537 64 110 80 169 304 105 90 1486 86 49 87 59 63 56 217 95 1458 160 45 54 59 50 18075 532 147 63 122 81 43 233 81 152 43 1298 385 17543 84 83 17522 73 45 371 1268 202 17449 1406 500 16043 1005 363 52
is_linear=0
shrinkage=0.05


Tree=2
num_leaves=63
num_cat=0
split_feature=3 3 3 4 3 3 15 3 4 4 14 15 1 3 15 5 4 6 3 9 15 14 14 16 16 9 3 8 5 6 14 6 4 4 6 4 1 9 3 5 16 3 14 5 2 0 16 16 0 4 4 0 15 13 3 14 2 10 10 0 6 4
split_gain=13699.7 204.138 201.81 72.663 46.4401 43.5571 50.5688 40.0198 39.8208 35.2147 34.384 24.9633 22.9617 20.4473 17.415 17.3808 15.7981 15.351 14.8222 13.4553 17.7327 14.9927 11.7991 11.6101 11.5238 11.5201 10.7361 10.3846 10.0551 11.1364 8.50079 8.42593 7.29885 6.64729 7.00132 5.61281 5.23709 4.98701 4.34811 3.68011 3.49383 3.26241 2.99758 4.19856 9.78737 2.8818 4.96435 2.84223 3.74641 3.73703 4.29501 2.30488 2.11337 8.55972 3.7563 1.88392 2.46416 1.90009 1.49542 1.18541 2.35714 0.975108
threshold=0.006742955000000001 0.0076659800000000002 0.0058878600000000008 0.0079700300000000012 0.0071641000000000005 0.0093375400000000018 0.14561805555555557 0.0063853650000000014 0.0066445200000000001 0.0098170050000000019 0.14835000000000001 0.15446666666666667 3.5000000000000004 0.0055505050000000007 0.16330416666666669 0.0066990500000000007 0.0062221000000000012 0.0057492572222222231 0.0069343200000000008 0.0096010562500000018 0.14612083333333337 0.14585000000000004 0.13295000000000004 0.034262481647675792 0.034127900069353304 0.0077580837500000012 0.0061416500000000011 0.0056835900000000014 0.0085981500000000006 0.0077450722222222245 0.16885000000000003 0.00612060576388889 0.0068015700000000007 0.0052482000000000006 0.0052343279861111125 0.0079910450000000022 2.5000000000000004 0.0090324762500000027 0.0051268250000000007 0.007332555000000001 0.041171463553976433 0.0082646150000000012 0.19075000000000003 0.0050078050000000006 32.500000000000007 12.500000000000002 0.034795119924767602 0.038515243758722222 7.5000000000000009 0.0060212700000000013 0.0056306200000000002 12.500000000000002 0.15632083333333335 0.45960870879694243 0.010091860000000003 0.26565000000000005 27.500000000000004 0.033268071000000003 0.0050000090000000006 14.500000000000002 0.0087200320833333341 0.0050008150000000005
decision_type=2 2 2 2 2 2 2 2 2 2 2 2 2 2 2 2 2 2 2 2 2 2 2 2 2 2 2 2 2 2 2 2 2 2 2 2 2 2 2 2 2 2 2 2 2 2 2 2 2 2 2 2 2 2 2 2 2 2 2 2 2 2
left_child=2 3 13 4 10 6 -3 16 14 22 12 -6 -2 38 24 31 19 -17 -19 20 -4 -22 28 -5 -9 -11 -23 -16 41 -30 39 -12 -24 34 51 -34 -36 -25 55 -10 59 -8 58 44 -44 -18 -47 48 -35 50 -50 -15 53 -7 -55 57 -57 61 -40 -13 -61 -1
right_child=1 5 7 23 11 52 9 8 30 25 15 40 -14 33 27 17 45 18 -20 -21 21 26 32 37 -26 -27 -28 -29 29 -31 -32 -33 35 47 36 -37 -38 -39 42 -41 -42 -43 43 -45 -46 46 -48 -49 49 -51 -52 -53 -54 54 -56 56 -58 -59 -60 60 -62 -63
leaf_value=-7.1053010702598881e-05 1.1123843530233258e-05 3.9930190839598253e-05 -2.0958513519841956e-05 2.756631692175972e-05 5.5704722368961882e-05 0.00058252102620171193 7.3852893518577822e-05 7.315781417883752e-06 1.545726549509032e-06 2.8387422488551435e-05 6.982901120199098e-05 7.258147117791552e-05 8.8119144340291185e-05 -4.8382080732886385e-05 2.9109154250296369e-05 2.3569061008338766e-05 -1.5206411468044276e-05 2.0374867453584964e-05 2.4772678736524195e-05 -1.6116575831295911e-05 -8.2049419957559112e-07 2.2682985113359007e-05 0.00012788971743842403 8.2684500418851088e-06 -2.5383776396368668e-07 4.2239229358981555e-05 3.8658923693522313e-05 1.8584907997648963e-05 3.5751110462151508e-05 4.0265346056852914e-05 3.0605707329217688e-05 7.1076975365832895e-05 0.00012436634676468003 -3.0968636972448683e-05 -7.8503525410975781e-06 8.1882603027444521e-05 4.4109899076992286e-05 1.8777002897284324e-05 -4.9126829399514431e-05 -2.324016323769239e-06 6.8852509058818032e-05 6.1581513863438717e-05 -3.2291628800683769e-05 -2.8596741598026757e-05 3.6366199039971215e-05 1.3892673722810119e-06 -9.9321079262659966e-06 -2.6776939822297025e-05 -1.7494682418077429e-05 -2.8835607523950445e-05 7.9547966507922197e-06 -1.9317534419314849e-06 0.00076089570353381154 0.00017429856181888417 0.0012540980240323277 -7.024827497345241e-05 -7.4812454362245366e-05 -3.8717910189406011e-05 -4.2131427337163343e-05 5.4904519745615078e-05 7.1963123791346493e-05 -6.5201664874007753e-05
leaf_weight=153599 290 220 340 230 280 220 230 280 320 200 280 520 280 210 240 250 480 210 310 250 290 410 200 220 200 260 220 260 220 220 200 260 1580 290 210 3150 220 200 390 300 330 240 420 690 310 300 520 770 210 250 200 200 7060 210 1490 413 351 200 4120 200 220 16270
leaf_count=15755 29 22 34 23 28 22 23 28 32 20 28 52 28 21 24 25 48 21 31 25 29 41 20 22 20 26 22 26 22 22 20 26 158 29 21 315 22 20 39 30 33 24 42 69 31 30 52 77 21 25 20 20 706 21 149 44 36 20 412 20 22 1627
internal_value=-0.000250919 0.0395097 -0.00448351 0.0295588 0.0324636 0.042129 0.0390184 0.00584599 0.0116667 0.0398413 0.0271809 0.038871 0.0169298 -0.00474906 0.0184694 0.0316412 0.00211744 0.0268182 0.0219231 0.00559603 0.00769841 0.0113043 0.0408904 0.0142308 0.0116667 0.0265217 0.0156349 0.025 0.0356593 0.0302273 0.00353658 0.0385185 0.041856 -0.000312501 0.00333333 0.0422516 0.0077907 0.00928571 -0.00481331 0.00064516 0.0418504 0.0407447 -0.00348229 -0.00147887 0.00116438 -0.00192308 -0.000121952 -0.00209302 -0.000263159 0.00181818 0.0047561 -0.00134146 0.0443875 0.0429167 0.0441176 -0.00485951 -0.0023822 -0.00487064 -0.00411308 0.0434043 0.0414286 -0.00487638
internal_weight=203513 19580 183933 4080 3430 15500 6520 4610 1800 6300 1880 1550 570 179323 980 1310 2810 770 520 1510 1260 920 5840 650 480 460 630 500 910 440 820 540 4930 2560 840 4730 430 420 176763 620 1270 470 5930 1420 730 1300 820 1720 950 660 410 410 8980 1920 1700 170833 764 170069 4510 940 420 169869
internal_count=20750 1958 18792 408 343 1550 652 461 180 630 188 155 57 18331 98 131 281 77 52 151 126 92 584 65 48 46 63 50 91 44 82 54 493 256 84 473 43 42 18075 62 127 47 593 142 73 130 82 172 95 66 41 41 898 192 170 17482 80 17402 451 94 42 17382
is_linear=0
shrinkage=0.05


Tree=3
num_leaves=63
num_cat=0
split_feature=3 3 3 11 3 11 7 3 11 7 14 3 11 3 3 4 17 11 11 14 2 3 14 17 7 7 17 17 8 2 9 12 17 12 2 11 4 5 17 2 3 8 3 4 13 10 5 6 11 14 2 10 3 10 11 3 14 10 2 12 14 7
split_gain=12821.3 206.67 165.159 68.2442 57.9296 78.3402 45.915 42.4981 32.4312 26.925 22.5583 22.0731 20.0577 19.7966 17.1187 15.783 15.6214 14.1347 12.6234 12.2748 11.669 11.6667 11.25 10.9394 10.6716 21.6919 10.2385 10.1956 10.0946 9.25194 8.75758 8.4539 7.64597 7.63673 8.45534 7.61905 7.05306 6.48529 17.2174 4.99257 4.8294 4 3.79332 8.49302 3.66667 3.5617 3.02589 2.68525 2.05051 2.98448 3.4965 2.09402 1.96624 1.908 1.87999 5.64706 1.73133 2.42621 1.53568 1.63582 1.53439 1.44444
threshold=0.0068015700000000007 0.0058878600000000008 0.0079081800000000025 -0.0005340700000000001 0.010523790000000003 -0.0011203749999999992 0.00055393260409790672 0.0063853650000000014 -0.00024461499999999962 0.0028968353726881199 0.13945000000000005 0.0055505050000000007 -0.00042878499999999962 0.0069343200000000008 0.0074367100000000009 0.0063485850000000012 -0.0070499999999999998 -8.7870000000000079e-05 -0.00152355 0.16815000000000002 47.500000000000007 0.007275595000000001 0.14345000000000002 -0.010500000000000004 0.00057845860910565427 0.0016899845949674857 0.012600000000000005 0.032050000000000002 0.0088136025000000017 37.500000000000007 0.006041325000000001 8.4550000000000961e-06 -0.016999999999999994 4.6950000000000037e-05 32.500000000000007 -0.00072492500000000029 0.0050132600000000012 0.0054127650000000008 -0.016599999999999993 1.0000000180025095e-35 0.0050025250000000007 0.005054687500000001 0.0083076300000000016 0.010091860000000003 0.043894269244149721 0.0052330050000000006 0.0049239650000000015 0.0060030238888888901 0.00012705000000000011 0.19075000000000003 32.500000000000007 0.0050000090000000006 0.0056067650000000005 0.033268071000000003 -0.0036478199999999991 0.016435360000000003 0.26565000000000005 0.0050075765000000003 17.500000000000004 -0.00036040499999999979 0.12295000000000002 0.0024425573332416185
decision_type=2 2 2 2 2 2 2 2 2 2 2 2 2 2 2 2 2 2 2 2 2 2 2 2 2 2 2 2 2 2 2 2 2 2 2 2 2 2 2 2 2 2 2 2 2 2 2 2 2 2 2 2 2 2 2 2 2 2 2 2 2 2
left_child=1 11 3 9 5 18 -5 17 16 14 21 40 22 -12 23 -14 -9 58 30 37 27 -8 35 -2 -21 -26 52 32 39 31 -4 -15 44 34 36 -7 -28 -19 -39 -17 53 -20 -24 -44 -10 -6 -42 -36 -48 51 -51 -50 -13 56 55 -47 -1 -58 -3 -60 -54 -31
right_child=2 7 4 6 45 12 10 8 20 -11 13 26 15 29 -16 28 -18 19 41 24 -22 -23 42 -25 25 -27 33 -29 -30 61 -32 -33 -34 -35 47 -37 -38 38 -40 -41 46 -43 43 -45 -46 54 48 -49 49 50 -52 -53 60 -55 -56 -57 57 -59 59 -61 -62 -63
leaf_value=-6.7500360167468929e-05 2.7712550316985668e-05 -1.4792032330702163e-05 2.5814002712702652e-05 4.5490237748592575e-05 0.0010886688695921566 4.4884183972873474e-05 5.0827907202155513e-05 -5.6168672291611234e-06 2.1495584536593242e-05 2.3299443751994126e-05 5.8143857158092377e-05 -3.1768853666542442e-05 0.00013238249086410734 7.8667980947749879e-05 4.6166728416412784e-05 6.8729520664278821e-05 1.0131353132812585e-05 -1.8079787083586387e-05 9.7224557178118344e-05 -4.6145188134914688e-06 3.9954793029074219e-06 3.2843531543697408e-05 5.6783148096865075e-05 1.8814243456581839e-05 5.0094449558818027e-05 8.9996238250104114e-06 4.4643180487994754e-06 2.9268091685839952e-05 5.6703181581892469e-05 6.8046935835716475e-05 4.3926904305470234e-05 7.7768026379663351e-05 1.5482391447112668e-05 -1.6709665804400032e-05 4.6044547685783812e-05 3.3470097264766055e-05 -2.7855835292426464e-05 2.4053640873722809e-05 -2.8200303580236529e-05 0.00011629992928901419 -7.2489257540018357e-06 3.3742991066307732e-05 5.8273752478844997e-05 6.9747661389167346e-05 2.4509625118994829e-05 0.00022524062687707578 -5.423152791711637e-05 3.5930001816871774e-06 -6.3275925296605741e-05 -3.1605920233443612e-05 2.6915376236792147e-05 -4.3369121660879068e-05 -5.2317511260707978e-05 -3.6782014679935701e-05 0.00077645281900830644 0.0010550826110981894 -6.7233202549632541e-05 -2.4611918900811326e-05 -1.6247560278277686e-05 -1.1002738686313287e-05 -2.2820825916729134e-05 4.3984576018130727e-05
leaf_weight=158419 200 360 200 350 360 270 240 400 200 390 380 260 200 980 320 360 350 400 200 200 200 320 290 240 210 300 250 250 220 520 240 810 390 320 200 210 240 230 220 4310 220 200 360 310 240 200 14310 210 300 520 360 1950 210 200 5990 480 274 210 340 550 870 200
leaf_count=16237 20 36 20 35 36 27 24 40 20 39 38 26 20 98 32 36 35 40 20 20 20 32 29 24 21 30 25 25 22 52 24 81 39 32 20 21 24 23 22 431 22 20 36 31 24 20 1431 21 30 52 36 195 21 20 599 48 31 21 34 55 87 20
internal_value=-0.000383588 -0.00445157 0.0383333 0.0304545 0.0410417 0.0379444 0.0336842 0.0057438 0.0112562 0.0197826 0.0354348 -0.00472675 0.0397933 0.0372145 0.0252632 0.0412672 0.003 0.00176156 0.0235714 0.0049359 0.0160937 0.02625 0.0345833 0.0188636 0.00978873 0.0136275 -0.000117189 0.0181481 0.0418303 0.0388247 0.0177273 0.0368994 0.0154819 0.00319672 0.00555555 0.0283333 0.00112245 0.000882352 0.005 0.0423233 -0.00479351 0.03 0.0377083 0.0397761 0.02 0.0442888 -0.00400906 0.0108537 -0.00408257 -0.00292332 -0.000454547 -0.00388889 -0.00313433 -0.00488058 0.0445502 0.0420588 -0.00488672 -0.00190083 -0.0022 -0.00331461 -0.00407408 0.0436111
internal_weight=203513 184163 19350 4950 14400 7370 3800 4840 2030 1150 3450 179323 6530 2890 760 5090 750 2810 840 1560 1280 560 1440 440 710 510 2560 1080 4890 2510 440 1790 830 1220 900 480 490 850 450 4670 176763 400 960 670 440 7030 17660 410 17440 3130 880 2250 1340 159103 6670 680 158903 484 1250 890 1080 720
internal_count=20750 18815 1935 495 1440 737 380 484 203 115 345 18331 653 289 76 509 75 281 84 156 128 56 144 44 71 51 256 108 489 251 44 179 83 122 90 48 49 85 45 467 18075 40 96 67 44 703 1766 41 1744 313 88 225 134 16309 667 68 16289 52 125 89 108 72
is_linear=0
shrinkage=0.05


Tree=4
num_leaves=63
num_cat=0
split_feature=3 3 3 3 11 11 11 3 11 3 3 11 11 9 4 16 9 15 10 11 3 10 11 4 9 11 15 17 11 15 15 3 0 13 17 12 2 10 11 12 15 3 9 12 12 3 3 3 15 2 10 12 4 17 10 11 2 1 17 15 4 8
split_gain=11950.6 200.486 184.401 70.5371 99.1936 63.0403 44.9884 40.2719 36.4167 35.1215 28.9121 27.7549 23.748 22.7763 21.6023 21.3099 20.0799 18.0491 24.372 16.6558 15.4179 15.2682 15.0097 14.2469 13.511 13.1779 14.2164 12.0819 10.6659 10.2632 9.66702 9.48205 7.93071 15.8142 7.13203 13.9096 6.37116 6.87013 6.4 6.2646 6.25689 12.0616 6.25 5.87206 6.77255 5.64706 7.71429 5.40341 4.73469 4.57948 3.45012 2.84348 2.43006 2.22516 1.90309 1.88675 1.84151 3.23135 4.46684 1.91821 1.77143 1.43093
threshold=0.0068015700000000007 0.0061416500000000011 0.0079081800000000025 0.011659005000000002 -0.0008753650000000011 -0.00049741499999999964 0.0014923250000000003 0.0055505050000000007 -0.00016643499999999969 0.0072137850000000012 0.0076659800000000002 -0.00028959500000000008 0.0033203699999999996 0.0065266200000000012 0.006468380000000001 0.04185838275708776 0.010644593750000002 0.14718263888888891 0.007101212 0.00029366000000000033 0.0066445200000000001 0.0137408185 -0.00029853999999999986 0.0065171150000000013 0.0080943625000000023 0.00022777499999999997 0.16671319444444449 -0.095249999999999987 -0.00028959500000000008 0.16671319444444449 0.15077013888888893 0.0092287600000000008 16.500000000000004 -0.2610887334909287 0.049250000000000016 -1.7824999999999956e-05 12.500000000000002 0.010282402500000003 0.00044545500000000047 0.00022755 0.15146319444444448 0.01417205 0.0083140212500000012 -0.00038222000000000012 -0.00019670999999999987 0.0089208600000000009 0.010091860000000003 0.0050025250000000007 0.16330416666666669 27.500000000000004 0.012240492500000002 -0.00065154499999999979 0.0056980650000000013 -0.064049999999999982 0.033268071000000003 0.00012705000000000011 32.500000000000007 2.5000000000000004 0.031300000000000022 0.13058750000000005 0.0050821000000000009 0.0049962662500000017
decision_type=2 2 2 2 2 2 2 2 2 2 2 2 2 2 2 2 2 2 2 2 2 2 2 2 2 2 2 2 2 2 2 2 2 2 2 2 2 2 2 2 2 2 2 2 2 2 2 2 2 2 2 2 2 2 2 2 2 2 2 2 2 2
left_child=1 7 5 4 13 10 9 47 20 14 21 42 19 31 -7 45 -17 -10 39 27 43 24 -16 25 49 -20 -27 -6 -9 -24 -29 -4 -13 -34 36 -36 37 38 -30 -19 41 -5 -11 -3 -45 -15 -47 54 -46 -2 52 -21 -38 -53 -1 61 59 58 -58 -57 -61 -49
right_child=2 8 3 40 12 6 -8 28 17 11 -12 32 -14 15 22 16 -18 18 23 51 -22 -23 29 -25 -26 26 -28 30 34 -31 -32 -33 33 -35 35 -37 50 -39 -40 -41 -42 -43 -44 44 48 46 -48 55 -50 -51 -52 53 -54 -55 -56 56 57 -59 -60 60 -62 -63
leaf_value=-6.412534215909549e-05 1.5890044120132104e-05 -7.339910977045878e-06 2.9480028906291869e-05 0.00027921382257533093 8.6160260240881919e-05 5.5153281785656385e-05 5.3525995746828064e-05 -2.1277020050951123e-05 7.9359035675730199e-06 3.9492497940436802e-05 5.0993294574269292e-05 6.5061456933218157e-05 0.00017910081447386066 0.00012562635062327937 7.6784767724397037e-05 1.9001969925630765e-05 4.3755880543038085e-05 1.6424888401448233e-05 -2.1220544946668493e-05 8.7837210179799081e-05 1.060754621949699e-05 1.2190904606688915e-05 2.2988086344348369e-05 3.1340280578826836e-05 2.795716599842616e-05 7.2593941034521307e-06 2.1236643102764629e-05 5.9133536542688789e-05 2.7825365634460922e-05 4.7854606733289593e-05 8.4545734109689729e-05 0.00015600264785338167 6.4368071868472915e-05 5.2970548182080786e-05 8.7930235124785886e-05 -2.09140514935073e-06 -1.7010437192681083e-05 -2.8559393505821934e-05 -2.0724283142526342e-06 2.9391995765860871e-05 0.0008724469593128178 0.0011858055938102369 7.454568996865728e-05 2.1322278987913933e-06 1.044310716939901e-06 3.2055841029410439e-05 8.9868324476913316e-05 -4.2700721004293725e-05 -8.611793471506779e-06 1.4290953733176839e-05 -7.2099468686737168e-06 5.4395059183750806e-05 -4.5302778714998269e-06 0.00016824499946897775 -3.49429139459389e-05 -4.6992006973938144e-05 -3.0136723402983472e-05 -3.2604741474629215e-05 3.4205079239913461e-05 -3.8810167515040152e-05 -2.2410447114652089e-05 -5.1537976979252345e-05
leaf_weight=158903 240 470 260 250 260 250 300 1200 350 200 290 1030 200 200 230 260 210 250 280 200 250 230 570 250 300 330 200 210 200 390 4060 240 290 200 200 340 940 210 250 210 4660 580 200 200 200 200 280 200 290 230 270 270 510 2060 200 310 330 700 200 1550 200 14170
leaf_count=16289 24 47 26 25 26 25 30 120 35 20 29 103 20 20 23 26 21 25 28 20 25 23 57 25 30 33 20 21 20 39 406 24 29 20 20 34 94 21 25 21 466 58 20 20 20 20 28 20 29 23 27 27 51 206 20 31 33 70 20 155 20 1417
internal_value=-0.000518715 -0.00444614 0.0368605 0.0397222 0.0369753 0.0285354 0.0318852 -0.0046683 0.00780488 0.0335417 0.019031 0.0379687 0.0394904 0.0259091 0.0276389 0.0297826 0.0215957 0.0123797 0.0147368 0.0399717 0.00173759 0.015 0.0248319 0.010566 0.0183766 0.00734568 0.0119811 0.0381567 0.000218446 0.0220833 0.0387939 0.017 0.0410526 0.0358163 0.00184931 0.00703704 0.000672268 0.00484848 0.00833333 0.0243478 0.0441803 0.0401807 0.02625 -0.000689656 0.00224638 0.0354412 0.0325 -0.0047822 -0.000918368 0.0130851 -0.000930234 0.0432213 -0.00189655 0.0437124 -0.0048743 -0.00395244 -0.00287234 -0.00134146 0.00160377 -0.00378641 -0.00442857 -0.00419972
internal_weight=203513 184163 19350 14400 8910 4950 3660 180883 3280 3360 1290 1920 7260 1650 1440 1150 470 1870 1520 7060 1410 1000 1190 1060 770 810 530 4530 4120 960 4270 500 1520 490 2920 540 2380 660 450 460 5490 830 400 1160 690 680 480 176763 490 470 1720 2530 1450 2330 159103 17660 3290 1230 530 2060 1750 14370
internal_count=20750 18815 1935 1440 891 495 366 18487 328 336 129 192 726 165 144 115 47 187 152 706 141 100 119 106 77 81 53 453 412 96 427 50 152 49 292 54 238 66 45 46 549 83 40 116 69 68 48 18075 49 47 172 253 145 233 16309 1766 329 123 53 206 175 1437
is_linear=0
shrinkage=0.05


Tree=5
num_leaves=63
num_cat=0
split_feature=3 3 3 3 11 14 14 11 4 3 15 3 11 14 3 16 14 17 11 16 5 11 5 5 1 4 1 15 5 4 2 4 6 11 15 17 14 6 16 3 5 6 11 2 16 0 14 14 17 3 16 17 16 1 16 0 16 6 15 15 17 2
split_gain=10778.2 183.397 170.755 89.6466 170.778 55.3919 48.5914 42.6992 62.3642 27.2937 27.2529 26.9359 28.6732 22.8323 19.9227 34.0233 19.9225 18.8259 17.5243 15.7644 14.9735 21.4542 13.383 12.8863 12.3869 12.1884 12.0118 12.5443 13.6134 17.3756 11.8024 10.2937 10.0392 8.705 8.92921 8.29098 7.39354 12.0988 7.12826 6.62802 6.25 5.78363 5.37076 5.09091 4.50699 4 3.83158 5.21023 3.79608 4.80392 3.62155 3.55072 3.46639 3.26667 2.73102 2.54159 5.54362 2.06762 4.20085 1.78984 1.73621 2.14543
threshold=0.006742955000000001 0.0079081800000000025 0.0060212700000000013 0.013037755000000002 -0.0010656800000000001 0.11485000000000002 0.17505000000000001 -0.00035310499999999977 0.0072137850000000012 0.0055505050000000007 0.15689861111111117 0.011659005000000002 -0.0016804600000000002 0.21225000000000002 0.0063853650000000014 0.030190529082475794 0.14255000000000004 0.046950000000000006 -0.00017157500000000017 0.031976315508513563 0.0070685800000000005 0.0014923250000000003 0.011128515 0.0087514200000000011 4.5000000000000009 0.006468380000000001 4.5000000000000009 0.1532604166666667 0.0054799450000000008 0.0063853650000000014 22.500000000000004 0.0050005950000000009 0.0052343279861111125 -0.00096539000000000032 0.16491319444444449 0.060100000000000001 0.13815000000000002 0.0087200320833333341 0.036669832035035925 0.0050096200000000011 0.0081546000000000032 0.0049498804861111126 -0.00020368499999999986 22.500000000000004 0.032492930943760483 14.500000000000002 0.14585000000000004 0.15385000000000001 0.0082499999999999952 0.0057976750000000013 0.10553314543611543 -0.0011000000000000001 0.038875099016068636 1.5000000000000002 0.04185838275708776 11.500000000000002 0.034795119924767602 0.012792768819444448 0.16252361111111116 0.13917847222222224 -0.0080499999999999999 27.500000000000004
decision_type=2 2 2 2 2 2 2 2 2 2 2 2 2 2 2 2 2 2 2 2 2 2 2 2 2 2 2 2 2 2 2 2 2 2 2 2 2 2 2 2 2 2 2 2 2 2 2 2 2 2 2 2 2 2 2 2 2 2 2 2 2 2
left_child=2 5 9 4 11 -2 14 17 13 39 16 12 43 20 55 -16 23 24 22 -18 21 -9 35 -6 33 -17 27 -8 -29 -30 -14 32 -11 -7 -35 -12 37 -20 -32 57 -26 -41 -10 -3 -38 -22 -33 -48 -49 -50 59 -21 -27 -24 -44 -4 -57 -1 -59 -5 -43 -62
right_child=1 3 6 50 10 7 26 8 42 31 18 -13 30 -15 15 25 19 -19 36 51 45 -23 53 -25 40 52 -28 28 29 -31 38 46 -34 34 -36 -37 44 -39 -40 41 -42 60 54 -45 -46 -47 47 48 49 -51 -52 -53 -54 -55 -56 56 -58 58 -60 -61 61 -63
leaf_value=-6.0919075051140728e-05 -3.7507566157255748e-06 6.0198591096451173e-05 -1.3538942645307861e-05 0.00088364162707512805 4.7606220158286558e-05 5.4532461155621826e-05 -4.821085396287075e-06 5.484703986789082e-05 4.5088676798400227e-05 -1.394985287324455e-05 5.7269026432842599e-05 0.00013802290018891084 5.3007175348309158e-05 6.0489667700674003e-05 1.7750382822257429e-05 1.9603816971506059e-05 4.3515328236320129e-05 3.5608591920392057e-05 9.0620428653133235e-05 7.615125704391737e-05 2.6507074453182987e-05 3.6969961950198321e-05 8.5070532859796445e-05 2.7188955137054014e-05 3.2667276546532701e-05 -5.8841307775287631e-06 6.7273182137427342e-06 3.2397232102749253e-05 6.0640871401839913e-06 2.9773266549885487e-05 2.0001428603147951e-05 -2.3333478244689295e-05 4.3846702725750237e-05 2.5827125622186626e-05 1.6450839878910404e-05 5.5334316662233255e-05 0.00015539030216873799 0.00010376767669651506 1.9638346774920598e-05 1.5900383628826522e-06 3.3777126638144143e-05 -4.4738077203193346e-05 6.4390616664137382e-05 2.5237681626972692e-05 0.00013620036393141498 2.9302692995204419e-06 4.3359079005121218e-06 -1.6031167416310022e-05 2.7949645188117411e-06 -1.1534475697499798e-05 0.0035800128570125664 0.00013852536973027365 -5.9316830565947032e-07 9.6452827051043391e-05 4.7570266308138926e-05 1.6969126395919109e-06 -7.8472085275311728e-06 7.3400090875520049e-05 -6.0951876333433018e-05 0.00096254995592204892 -3.9843254223640184e-05 -4.2607749003767754e-05
leaf_weight=163514 240 200 530 200 220 200 250 990 360 340 1500 310 320 340 250 280 290 290 540 230 200 230 250 210 200 330 330 210 260 250 210 970 200 410 330 220 590 270 220 210 200 4880 630 350 3210 200 330 480 510 510 210 460 350 500 200 310 470 140 264 3580 4310 4160
leaf_count=16715 24 20 53 20 22 20 25 99 36 34 150 31 32 34 25 28 29 29 54 23 20 23 25 21 20 33 33 21 26 25 21 97 20 41 33 22 59 27 22 21 20 488 63 35 321 20 33 48 51 51 21 46 35 50 20 31 47 14 48 358 431 416
internal_value=-0.000766831 0.0349791 -0.00446652 0.0379028 0.035396 0.0267729 0.00599476 0.0279498 0.0313492 -0.00468753 0.0382273 0.0204658 0.0173077 0.0258673 0.00194444 0.00657025 0.0318794 0.0213804 0.0394915 0.0358163 0.0233951 0.0261475 0.0360931 0.022907 0.0188806 0.00229167 0.0138462 0.0166495 0.02 0.0155882 0.0236667 -0.000209582 0.00611111 0.0157447 0.0132432 0.0336628 0.0413124 0.0369753 0.0182558 -0.0047718 0.02625 -0.00370944 0.0403782 0.00863636 0.0422368 0.015 -0.00142857 -8.19683e-05 -0.00133333 0.000392156 0.0442481 0.0399275 -0.00132353 0.0416667 0.0425904 -0.00232825 -0.000512822 -0.00485969 -0.00128713 0.0446032 -0.00383895 -0.00340614
internal_weight=203748 19110 184638 14090 10100 5020 3820 4780 3150 180818 8490 1610 1300 1960 2520 1210 1410 1630 7080 980 1620 1220 2470 430 1340 960 1300 970 720 510 750 3340 540 940 740 1720 4610 810 430 177478 400 13560 1190 550 3800 400 2800 1830 1500 1020 3990 690 680 750 830 1310 780 163918 404 3780 13350 8470
internal_count=20760 1911 18849 1409 1010 502 382 478 315 18467 849 161 130 196 252 121 141 163 708 98 162 122 247 43 134 96 130 97 72 51 75 334 54 94 74 172 461 81 43 18133 40 1356 119 55 380 40 280 183 150 102 399 69 68 75 83 131 78 16777 62 378 1335 847
is_linear=0
shrinkage=0.05


Tree=6
num_leaves=63
num_cat=0
split_feature=3 3 3 11 4 11 3 4 15 3 14 4 11 12 11 14 14 5 14 17 15 12 13 7 0 12 11 3 7 3 11 15 15 17 2 11 11 7 17 7 4 6 6 13 13 3 17 6 0 11 4 0 7 14 14 5 2 4 14 6 0 3
split_gain=10003.9 193.294 175.054 126.253 89.9294 62.578 46.1756 38.8891 35.3501 47.3394 33.5154 52.552 47.7635 28.216 22.0413 20.7466 19.6676 20.4358 19.4659 18.7466 19.0208 18.3333 17.3563 16.9774 16.8303 16.4016 13.9402 14.8996 9.42641 9.32456 9.1028 21.0114 8.59974 9.52637 7.96898 8.43717 7.80512 17.8402 14.7 7.36687 6.22813 7.28763 6.09622 8.4602 7.23338 6.02277 5.93407 5.01082 4.73469 4.55127 4.15773 4.15374 3.90137 3.79307 5.43782 3.69066 3.39343 6.73401 2.12661 2.62373 1.99275 1.84492
threshold=0.0068015700000000007 0.010785995000000001 0.0055505050000000007 -0.00036040499999999979 0.0072137850000000012 -0.0016804600000000002 0.0063853650000000014 0.0085297050000000003 0.15564027777777781 0.013037755000000002 0.21225000000000002 0.0057976750000000013 0.00051736999999999974 -0.00046776500000000057 -0.0011203749999999992 0.16815000000000002 0.16215000000000004 0.0086769350000000019 0.14585000000000004 0.032050000000000002 0.15632083333333335 -0.0048726449999999984 2.1378008791242293 0.0056492691579448561 17.500000000000004 9.0129999999999911e-05 0.00051736999999999974 0.0060967450000000006 0.0025992646451448238 0.0051268250000000007 -0.0003079200000000001 0.16642708333333336 0.16075069444444448 0.040700000000000014 52.500000000000007 0.00077765000000000028 -0.0008753650000000011 0.0040891609651488676 0.006100000000000016 0.0017162245655476789 0.0050005950000000009 0.0052343279861111125 0.0060702708333333346 0.71649105017654813 -0.20887774218522112 0.0087514200000000011 0.041650000000000013 0.0049498804861111126 15.500000000000002 -4.5099999999999951e-05 0.0066445200000000001 14.500000000000002 0.0016171294455367472 0.19075000000000003 0.20395000000000002 0.0074889150000000014 17.500000000000004 0.0062629100000000009 0.25195000000000006 0.0050114812500000007 16.500000000000004 0.015095245000000002
decision_type=2 2 2 2 2 2 2 2 2 2 2 2 2 2 2 2 2 2 2 2 2 2 2 2 2 2 2 2 2 2 2 2 2 2 2 2 2 2 2 2 2 2 2 2 2 2 2 2 2 2 2 2 2 2 2 2 2 2 2 2 2 2
left_child=2 3 29 5 10 45 18 16 9 -3 11 -5 25 48 28 23 17 39 -4 20 -15 -11 24 34 -16 -13 32 40 -9 55 -22 -32 33 49 35 -6 37 38 -10 -7 41 -28 -17 44 -44 -2 -18 -31 -8 -20 -12 -14 -38 -49 -55 58 57 -34 -1 -60 -58 -39
right_child=1 8 6 4 15 7 13 14 36 21 50 12 51 19 22 42 46 -19 26 -21 30 -23 -24 -25 -26 -27 27 -29 -30 47 31 -33 56 -35 -36 -37 52 61 -40 -41 -42 -43 43 -45 -46 -47 -48 53 -50 -51 -52 -53 -54 54 -56 -57 60 -59 59 -61 -62 -63
leaf_value=-5.7873121298583678e-05 -5.2125929275159576e-06 0.00016739544017599676 -1.9604750751861212e-05 -4.7434254710946948e-06 5.8223924349150893e-05 2.1629235159416827e-05 -1.7357504023235542e-05 5.0598576387247019e-05 0.00013364396299907246 0.00062369153033750796 -2.7855591833957794e-06 2.580484988666974e-05 0.00015119713901066382 2.1518086699941544e-05 5.6740622115398621e-05 0.00011940115557234647 3.9129920663762889e-05 1.6058882739833869e-06 -2.6033362592866298e-05 1.2727848894954861e-05 -2.8253956384918133e-06 0.0011457194743873798 2.5155821094066619e-05 4.4186561632541059e-05 5.037845660574382e-05 3.8693667274003701e-05 -3.2217176966148272e-05 3.5460919639569882e-05 8.0436918760268928e-05 1.9790556822682289e-06 5.6110606971680365e-06 1.9908370007468247e-05 -3.1516174380336657e-06 2.6356258763294097e-05 4.2552855675330289e-05 8.2912504995999385e-05 0.00023475783586067011 0.00014475503955883683 0.00012955127489775399 2.4168402888080116e-05 -1.9045732769065432e-05 4.1654367589462732e-05 6.8592597932134723e-05 0.00014010519343694874 9.94428835470662e-05 5.7101765740753765e-05 3.6137323298076369e-05 -3.6649670736374829e-05 8.4441771081575252e-06 -7.5972457566851737e-07 8.6864140404122628e-05 6.7536153490119593e-05 0.00074591685021085517 -3.5493353095248946e-06 -2.4065518691093719e-05 -7.8081894353281944e-05 -1.287660070158708e-05 8.0061464573179708e-06 -5.7619321561639111e-05 -3.2562446561901827e-05 -1.0073234172948647e-06 0.0009463817185322807
leaf_weight=170385 200 380 1780 320 2070 320 290 320 300 270 230 570 370 390 1110 950 280 260 350 290 220 720 210 230 410 470 270 260 290 200 440 200 270 210 210 240 320 330 200 340 290 200 680 380 960 310 240 4390 200 370 210 240 3240 370 890 230 550 220 522 491 600 690
leaf_count=17421 20 38 178 32 207 32 29 32 30 27 23 57 37 39 111 95 28 26 35 29 22 72 21 23 41 47 27 26 29 20 44 20 27 21 21 24 32 33 20 34 29 20 68 38 96 31 24 439 20 37 21 24 324 37 89 23 55 22 54 50 60 69
internal_value=-0.000887077 0.0337917 -0.00442665 0.0301449 0.0338069 0.0232051 0.00310811 0.0254233 0.040814 0.0336861 0.0257054 0.0229188 0.0265152 0.00953202 0.0294017 0.0372203 0.0189583 0.0145652 0.000679701 0.0128571 0.0102 0.0394444 0.0322832 0.0340909 0.0341447 0.02 0.00279944 0.0077451 0.0212295 -0.00474081 0.00604651 0.0090625 0.000836575 0.00467742 0.0352778 0.0361255 0.0427362 0.0397368 0.032 0.0192424 0.00421053 0.00776596 0.0401178 0.0385644 0.040122 0.0067647 0.0267308 -0.00277778 -0.000918368 0.00194444 0.0381818 0.037623 0.0440169 -0.0030531 -0.000634922 -0.00480772 -0.00134146 0.00214286 -0.00481622 -0.00253208 -0.00282609 0.0435294
internal_weight=203748 18870 184878 12420 8130 4290 7400 3780 6450 1370 2410 1970 1650 2030 2340 5720 1440 920 5370 1540 1250 990 1730 2750 1520 1040 3590 1020 610 177478 860 640 2570 930 2520 2310 5080 1520 500 660 760 470 2970 2020 1640 510 520 5850 490 720 440 610 3560 5650 1260 171628 1640 490 171398 1013 1150 1020
internal_count=20760 1887 18873 1242 813 429 740 378 645 137 241 197 165 203 234 572 144 92 537 154 125 99 173 275 152 104 359 102 61 18133 86 64 257 93 252 231 508 152 50 66 76 47 297 202 164 51 52 585 49 72 44 61 356 565 126 17548 164 49 17525 104 115 102
is_linear=0
shrinkage=0.05


Tree=7
num_leaves=63
num_cat=0
split_feature=3 3 3 11 3 15 3 15 17 5 16 3 11 17 5 3 15 6 4 11 7 17 11 3 16 3 11 5 1 3 5 10 6 5 10 17 2 17 5 6 11 16 0 10 1 17 3 11 16 11 2 10 7 1 5 5 16 17 17 4 17 16
split_gain=8763.1 201.378 162.236 118.308 81.9274 44.4413 39.684 32.6563 32.6323 28.2032 27.7394 25.7067 27.48 25.4277 24.2569 26.9223 21.7209 21.6625 20.1847 26.9231 18.5312 16.0138 15.3333 12.6001 12.1482 18.7934 10.3758 14.581 10.2866 9.93201 9.86312 9.53763 8.71357 7.79221 7.2915 6.87833 5.50195 7.41422 6.21775 4.90129 4.50689 3.60198 7.61621 3.6135 3.55595 3.18573 2.60335 2.44375 2.31394 2.24377 8.07602 2.6281 1.5625 1.54023 1.42029 1.39573 1.3052 1.05679 1.10175 0.893032 0.776597 0.671659
threshold=0.0068015700000000007 0.01417205 0.0055505050000000007 -0.00152355 0.0076659800000000002 0.16105763888888891 0.0063853650000000014 0.16373819444444446 0.040700000000000014 0.0068015700000000007 0.029135255826595308 0.012202675000000001 -0.00020960499999999983 0.072850000000000026 0.0089208600000000009 0.0072137850000000012 0.1453527777777778 0.0076811579861111121 0.0079910450000000022 0.002336635000000001 0.0019263251372732576 0.028800000000000017 0.002011194999999999 0.0095636700000000015 0.034127900069353304 0.0065532800000000007 0.00030959000000000027 0.0054564950000000013 2.5000000000000004 0.0051268250000000007 0.0056306200000000002 0.009826536000000002 0.0050148027777777793 0.015095245000000002 0.033268071000000003 -0.024899999999999999 12.500000000000002 -0.025399999999999999 0.0066041050000000007 0.0049498804861111126 -0.0048726449999999984 0.039865980425436341 11.500000000000002 0.0080816390000000016 4.5000000000000009 -0.012999999999999992 0.0050003750000000005 -0.0023483099999999997 0.030325473839545189 0.00022777499999999997 32.500000000000007 0.0050143060000000005 0.00094615019031814654 2.5000000000000004 0.0050118350000000009 0.0059644350000000014 0.03869927204771053 0.020600000000000004 0.022200000000000022 0.0050008150000000005 0.015650000000000001 0.048554055525017764
decision_type=2 2 2 2 2 2 2 2 2 2 2 2 2 2 2 2 2 2 2 2 2 2 2 2 2 2 2 2 2 2 2 2 2 2 2 2 2 2 2 2 2 2 2 2 2 2 2 2 2 2 2 2 2 2 2 2 2 2 2 2 2 2
left_child=2 3 29 7 8 13 26 23 10 24 -5 12 17 18 15 -12 -3 -7 19 -6 -20 45 -14 -2 30 -26 36 31 -10 34 -8 32 -28 -25 46 -13 37 -4 -39 -31 -18 42 53 -44 -30 -11 47 -1 -41 51 54 -50 -34 -38 -51 57 -53 -48 -59 -49 -61 -43
right_child=1 16 6 4 5 11 9 -9 28 21 14 35 22 -15 -16 -17 40 -19 20 -21 -22 -23 -24 33 25 -27 27 -29 44 39 -32 -33 52 -35 -36 -37 41 38 -40 48 -42 61 43 -45 -46 -47 55 59 49 50 -52 56 -54 -55 -56 -57 -58 58 -60 60 -62 -63
leaf_value=2.0350183106158504e-05 -4.252347735402117e-06 0.0020616874166342293 -1.2128034206812453e-05 1.1577941295664706e-05 7.9139763858807264e-05 4.7741298321053715e-05 5.8323798166867042e-05 0.00011389572636119395 6.5495043278237895e-05 -3.1630814592587639e-06 5.7218673335826013e-05 0.00012539708414674672 9.4529712686082962e-05 0.000201575014166665 5.1442398390216409e-06 5.2007177662137814e-05 0.00081335995550952344 7.014631978652326e-05 8.0857420921876566e-05 0.00024168619896608454 8.3655966366866084e-05 1.2659632974460891e-05 0.00011104833450291475 3.587723019078578e-05 -1.7671215048630568e-06 1.7913706121477512e-05 4.7104086880317544e-05 3.2062409883577294e-05 -0.00015182872178490657 1.8801028981548354e-06 1.7706907181062726e-05 2.0989258974561883e-05 -1.0715238735699116e-05 5.2818464651080437e-05 -1.1337152355927962e-05 0.0001619100891433946 -1.2555374407225754e-05 4.0850232258977977e-05 -1.8830395505321721e-05 -3.2738663280731971e-05 0.0010368728391757743 -8.4123185131318107e-06 3.1425448913139802e-06 -4.6817531655123762e-06 8.8874947608316186e-05 5.4707248430110057e-07 -5.0755987268067501e-05 -5.4979465233654474e-05 -1.6526235752894305e-05 -4.3344682350773876e-05 1.2944882055759904e-05 -2.7033354288175115e-05 -2.9442478156690251e-05 -2.264773381774553e-05 -3.6340464829333313e-06 -4.8247948738421294e-05 -3.4442684715094824e-05 -5.1640430822160194e-05 -4.5923807520141874e-05 -5.3887205178105911e-05 -5.1981909154027313e-05 -7.8369058384334756e-06
leaf_weight=40 320 300 200 370 520 1090 230 340 250 420 1370 240 3960 330 210 940 300 1590 900 280 1110 200 230 200 250 340 220 290 270 200 270 310 600 220 210 740 200 230 250 1800 2590 740 400 510 200 320 8730 145768 200 490 380 1020 360 670 200 200 1560 200 4940 8870 2670 390
leaf_count=4 32 30 20 37 52 109 23 34 25 42 137 24 396 33 21 94 30 159 90 28 111 20 23 20 25 34 22 29 27 20 27 31 60 22 21 74 20 23 25 180 259 74 40 51 20 32 873 14962 20 49 38 102 36 67 20 20 156 20 494 887 267 39
internal_value=-0.00110303 0.031354 -0.00441583 0.0290242 0.0302055 0.0323521 0.00283784 0.0130556 0.0236704 0.0087931 0.0212976 0.0343631 0.0332824 0.0273248 0.0231746 0.0246537 0.0428056 0.0293284 0.0257829 0.0325 0.0231095 0.00244681 0.0358115 0.00716216 0.0142661 0.00940678 0.000586591 0.00370786 0.0331944 -0.00471828 0.02 0.00171141 -0.000338984 0.0128571 -0.00478733 0.0419388 -0.000961004 0.00308823 0.00645833 -0.00269231 0.0441349 -0.00190722 -0.000505619 0.00269231 0.0375532 -0.000945947 -0.00479874 -0.00485701 -0.0029646 -0.00227273 -0.000327104 -0.00302158 -0.00239583 -0.00385058 -0.00355073 -0.00414712 -0.00344961 -0.00420692 -0.00363813 -0.00486015 -0.00443674 -0.00411505
internal_weight=203748 18870 184878 15680 14600 10990 7400 1080 3610 2030 2890 7850 6870 3140 2520 2310 3190 2680 2810 800 2010 940 4190 740 1090 590 5370 1780 720 177478 500 1490 1180 420 171628 980 3590 680 480 5850 2890 2910 1780 910 470 740 171418 157348 5650 3850 1070 2780 960 870 690 14070 2580 13870 5140 157308 11540 1130
internal_count=20760 1887 18873 1568 1460 1099 740 108 361 203 289 785 687 314 252 231 319 268 281 80 201 94 419 74 109 59 537 178 72 18133 50 149 118 42 17548 98 359 68 48 585 289 291 178 91 47 74 17527 16120 565 385 107 278 96 87 69 1407 258 1387 514 16116 1154 113
is_linear=0
shrinkage=0.05


Tree=8
num_leaves=63
num_cat=0
split_feature=3 3 3 11 3 14 15 3 4 14 11 4 17 11 2 3 5 12 3 4 14 16 13 3 4 16 12 11 11 13 5 3 14 3 3 17 12 6 16 7 15 7 11 16 5 14 12 16 6 16 7 11 7 2 14 2 13 15 7 16 14 2
split_gain=7736.81 219.364 164.663 104.823 62.4746 57.9906 56.0842 73.3539 42.5301 36.0787 34.872 36.4374 32.2464 27.2291 23.4882 22.5925 29.7636 20.8729 20.2996 17.3024 16.7651 15.744 15.2803 14.5835 16.6106 14.4821 12.2485 20.6294 20.25 13.1739 11.7097 10.0212 9.98871 9.30769 9.09865 12.6479 7.93388 7.47428 7.43749 6.65464 6.50348 6.19363 7.89808 6.8614 5.93939 5.44406 5.14286 5.09972 4.94626 4.68842 5.95238 4.55469 4.25438 4 3.88256 5.47881 9.10364 6.63248 4.78139 3.36391 2.19687 3.41185
threshold=0.0068015700000000007 0.012751095000000002 0.0055505050000000007 -0.00068319000000000051 0.0072137850000000012 0.19225000000000003 0.15564027777777781 0.017151930000000003 0.0057976750000000013 0.19805000000000003 -0.00152355 0.0085297050000000003 0.044299999999999999 -0.00035310499999999977 22.500000000000004 0.0063485850000000012 0.0068015700000000007 -0.00042878499999999962 0.006468380000000001 0.0083076300000000016 0.15665000000000004 0.040821878410987202 -0.23236242236596757 0.011286145000000003 0.0091442450000000022 0.034659463379510015 0.0002503950000000001 -0.0002215750000000003 0.00029366000000000033 -0.30516084239653346 0.011128515 0.0050469350000000007 0.14495000000000002 0.0066041050000000007 0.015707655000000004 -0.024399999999999995 -0.00063050999999999938 0.0052765665972222238 0.031976315508513563 0.0026955765683284063 0.1613826388888889 0.0031810391949601709 0.00036172500000000029 0.03869927204771053 0.0059943550000000007 0.16955000000000003 -0.00152355 0.03869927204771053 0.0049498804861111126 0.039644093179751309 0.0029363270190754581 -0.0011203749999999992 0.017680847886431254 22.500000000000004 0.19075000000000003 32.500000000000007 -0.46923873116630027 0.16582083333333336 0.00044727736681643275 0.035050246429476857 0.26565000000000005 27.500000000000004
decision_type=2 2 2 2 2 2 2 2 2 2 2 2 2 2 2 2 2 2 2 2 2 2 2 2 2 2 2 2 2 2 2 2 2 2 2 2 2 2 2 2 2 2 2 2 2 2 2 2 2 2 2 2 2 2 2 2 2 2 2 2 2 2
left_child=2 3 31 10 12 8 7 21 -6 15 20 39 26 19 30 32 25 -15 22 -10 40 -3 -11 24 -16 44 27 -5 -28 -29 -13 52 -4 -27 35 -8 -34 -24 -7 -12 -2 43 -43 -40 -17 47 -9 -38 -33 -18 -51 -37 60 -14 -50 57 -57 -56 -58 -47 -1 -62
right_child=1 6 9 4 5 38 34 46 13 18 11 14 53 17 23 16 49 -19 -20 -21 -22 -23 37 -25 -26 33 28 29 -30 -31 -32 48 36 -35 -36 51 45 -39 41 -41 -42 42 -44 -45 -46 59 -48 -49 54 50 -52 -53 -54 -55 55 56 58 -59 -60 -61 61 -63
leaf_value=-5.223049197197174e-05 2.4719311806960434e-06 0.00011433086473681659 -1.8270157616214164e-05 4.3594527936449558e-05 2.6816961567006309e-05 0.00015044845582601088 0.00010383632241464099 0.00077269197604407959 2.8333911698898364e-05 -5.0564095122046577e-06 1.1588998013484426e-05 4.7530976586221668e-05 5.7888124288274719e-05 6.9794909836188313e-05 4.0516006350437418e-05 1.5348936236171437e-05 -4.0547658031629872e-06 7.4503031957813892e-05 1.1694908274736777e-05 4.6360056068643851e-05 0.0001151182790825831 6.4720278743626681e-05 4.3943150219772539e-06 6.4431575314209392e-05 1.5180220513112365e-06 -2.8726392339348924e-06 1.3566207898957102e-05 4.191533524076937e-05 5.9848025304666335e-05 3.5605597873504656e-06 6.0054961275251522e-05 1.3175785157174123e-06 6.0385573808719282e-06 1.196493402280741e-05 0.0010124708442805816 8.6865740222916683e-05 2.3448270013279093e-05 -3.3616790063128802e-05 0.00010691500198418318 4.3792315607443061e-06 3.1763490418342371e-05 5.0311777777855887e-05 0.00014745712346146133 0.00012191020941086331 1.7574238599824663e-05 -2.123661480531868e-05 0.00260972769423015 -6.6906153992740749e-06 -3.5222312899055864e-05 9.5528431464469266e-06 -6.451307849551252e-07 0.00017324648074890764 -2.3616862255823293e-05 0.00016184117917130466 -2.4631624189847777e-05 -3.9457371347254824e-05 -4.6395918247290595e-05 3.1149136643679456e-06 1.5805816956290949e-05 -1.8778813187520291e-06 -5.3467405598057725e-05 1.4051726296981926e-05
leaf_weight=167736 390 270 1690 310 220 250 310 200 380 350 300 300 200 1160 210 240 470 4410 290 1070 330 210 220 260 780 320 200 210 200 460 320 210 330 200 1880 210 870 250 690 230 200 390 250 710 200 550 360 460 6690 210 210 800 350 200 970 260 220 200 200 540 371 271
leaf_count=17157 39 27 169 31 22 25 31 20 38 35 30 30 20 116 21 24 47 441 29 107 33 21 22 26 78 32 20 21 20 46 32 21 33 20 188 21 87 25 69 23 20 39 25 71 20 55 36 46 669 21 21 80 35 20 97 26 22 20 20 54 38 28
internal_value=-0.00128954 0.0292077 -0.00440231 0.0263055 0.0285986 0.0302046 0.0392217 0.0291346 0.028011 0.0029054 0.018494 0.0216667 0.02 0.0286895 0.0249465 0.00143879 0.00608108 0.0302783 0.0112162 0.0225862 0.0102174 0.0147917 0.00719512 0.021 0.0182323 0.0121875 0.0163768 0.0133673 0.02375 0.00843283 0.0329032 -0.00470701 -0.000495497 0.00653846 0.0425 0.0393182 0.00136364 0.0130851 0.0371397 0.0100943 0.00516949 0.0381373 0.0340625 0.04 0.0188636 0.0003719 0.0414286 0.0025188 -0.00305714 -0.000505619 0.00333333 0.0420297 -0.00479257 0.0325 -0.00324356 -0.00121622 0.00235294 -0.0032906 0.00690476 -0.00224771 -0.00480401 -0.00188474
internal_weight=203748 18870 184878 14630 11310 9530 4240 1040 7240 7400 3320 2400 1780 7020 1870 6290 1850 5570 1110 1450 920 480 820 1250 990 960 1380 980 400 670 620 177478 4440 520 3200 1320 2750 470 2290 530 590 2040 640 1400 440 2420 560 1330 8750 890 420 1010 168728 400 8540 1850 680 1170 420 1090 168378 642
internal_count=20760 1887 18873 1463 1131 953 424 104 724 740 332 240 178 702 187 629 185 557 111 145 92 48 82 125 99 96 138 98 40 67 62 18133 444 52 320 132 275 47 229 53 59 204 64 140 44 242 56 133 875 89 42 101 17258 40 854 185 68 117 42 109 17223 66
is_linear=0
shrinkage=0.05


Tree=9
num_leaves=63
num_cat=0
split_feature=3 3 3 11 3 15 14 14 11 3 5 10 3 16 15 12 7 11 2 14 11 16 11 3 15 3 7 14 2 16 8 3 2 14 15 11 12 12 5 10 14 15 14 3 5 3 14 16 2 8 10 2 12 14 2 14 14 11 0 11 12 6
split_gain=7080.42 218.204 149.883 86.5543 91.3072 52.6199 45.3733 44.5883 43.813 42.8584 35.612 33.3534 27.5125 26.88 25.2305 22.7086 16.9589 14.1737 14.0654 14.04 18.8618 13.9541 13.4887 16.9647 21.5017 13.2245 13.0446 11.7409 10.9558 10.8462 10.5834 10.4251 9.37754 8.02139 7.73986 7.61528 7.57816 7.13682 8.85016 6.87274 6.68006 5.75284 5.64708 11.7655 5.19697 5.0021 4.48364 3.85284 3.83826 4.22228 3.60106 6.8902 9.3011 7.8229 3.42899 3.34091 3.21511 3.67311 3.62427 2.43622 1.70053 3.2257
threshold=0.0068015700000000007 0.01417205 0.0060212700000000013 -0.00152355 0.0072137850000000012 0.16165763888888893 0.17175000000000004 0.18805000000000002 -0.0075961099999999988 0.009924050000000002 0.0079700300000000012 0.010143982500000001 0.0052226700000000013 0.032101104427698035 0.16373819444444446 -0.0014216749999999996 0.0030005965389320239 0.00056764999999999995 17.500000000000004 0.17035000000000003 0.00030959000000000027 0.031083061084432036 -9.3429999999999802e-05 0.0063853650000000014 0.15827083333333339 0.0065532800000000007 0.0028346757881849952 0.14545000000000002 12.500000000000002 0.043260733059871437 0.0061437687500000013 0.0095636700000000015 7.5000000000000009 0.15775000000000003 0.16252361111111116 -5.6104999999999647e-05 1.0159999999999511e-05 -0.00023590499999999999 0.0069343200000000008 0.033268071000000003 0.19075000000000003 0.14435625000000005 0.14075000000000001 0.018312400000000003 0.015095245000000002 0.0050003750000000005 0.14585000000000004 0.036669832035035925 32.500000000000007 0.0050672437500000013 0.0093822540000000013 32.500000000000007 0.00014059000000000014 0.15385000000000001 22.500000000000004 0.15775000000000003 0.20395000000000002 4.2399999999999738e-06 14.500000000000002 -0.0023483099999999997 -3.7135000000000199e-05 0.0086019804861111136
decision_type=2 2 2 2 2 2 2 2 2 2 2 2 2 2 2 2 2 2 2 2 2 2 2 2 2 2 2 2 2 2 2 2 2 2 2 2 2 2 2 2 2 2 2 2 2 2 2 2 2 2 2 2 2 2 2 2 2 2 2 2 2 2
left_child=2 3 12 14 16 6 15 22 -3 10 27 -12 39 -11 31 -6 19 46 -15 37 35 -8 32 33 -25 36 34 -7 -23 -17 -18 -2 -4 -24 -10 -21 54 -5 -39 45 41 -19 43 -28 -33 59 -14 -26 -34 -50 51 53 -53 -48 -9 -43 -47 58 -58 -1 -52 -62
right_child=1 8 7 4 5 9 21 25 26 13 11 -13 17 18 -16 29 30 40 -20 20 -22 28 23 24 47 -27 42 -29 -30 -31 -32 44 48 -35 -36 -37 -38 38 -40 -41 -42 55 -44 -45 -46 56 50 -49 49 -51 60 52 -54 -55 -56 -57 57 -59 -60 -61 61 -63
leaf_value=2.1944198549449148e-05 -6.8697010533928682e-06 0.00058220464694451327 -1.0969895873484212e-05 1.5607094709343163e-05 2.0079214751811639e-05 3.8147709035187407e-05 0.00010930223889532296 5.7674782428610004e-06 0.00018836820115972804 2.1659915764667145e-05 5.1659890404476829e-05 4.0946005665900912e-05 -2.5052770095600465e-05 0.00011144150886927516 0.00010077792693725414 5.4309041226985772e-05 -5.2753854489077022e-07 -3.3596305428415972e-05 0.00010925430706867539 1.7575558036385737e-05 9.8659228862033944e-05 0.00011659738314196002 -2.3387698144612676e-05 1.3669623731411957e-05 1.0198084675039856e-05 2.1918741155825598e-05 0.0001814532349393787 8.9254690405322535e-05 0.00014995758599864112 2.0851571321770682e-05 3.9371460616152194e-05 3.3959774807909981e-05 -4.9956944523814936e-06 -5.5486703031810654e-06 0.0003243065649057725 1.2662193523290548e-05 1.9607343971106017e-05 2.7837945619254566e-05 5.1083845215488147e-05 -2.1935538318256605e-05 2.9740389990793216e-05 1.1851775627924022e-05 0.00098709060049721568 0.0010476854685384097 4.499031410364264e-05 -4.4213391929965484e-05 1.733441804762085e-05 -1.023049501145016e-05 -1.1067203474321676e-06 2.9666643022473414e-07 -2.0895823548022958e-05 2.6285997255025178e-05 -2.7170172970228488e-05 -2.0024986044068441e-05 1.4692837184482477e-05 -1.7186679267644138e-05 -2.8915251512593582e-05 -3.8413462876540556e-05 9.7457628165969208e-06 -4.9618967373373136e-05 -1.2326686133787199e-05 -1.7269532049418054e-06
leaf_weight=40 320 260 280 270 250 380 260 210 220 200 1720 1990 2320 820 340 2110 210 200 1830 220 280 280 440 250 200 280 230 1560 870 250 220 200 740 240 210 240 240 390 250 220 200 200 1710 560 220 14560 220 260 350 320 750 650 350 1290 250 240 200 1120 210 157308 490 250
leaf_count=4 32 26 28 27 25 38 26 21 22 20 172 199 232 82 34 211 21 20 183 22 28 28 44 25 20 28 23 156 87 25 22 20 74 24 21 24 24 39 25 22 20 20 171 56 22 1456 22 26 35 32 75 65 35 129 25 24 20 112 21 16116 49 25
internal_value=-0.00142451 0.0277504 -0.00440231 0.0253253 0.0263356 0.0279473 0.0232338 0.00509852 0.0396708 0.0301765 0.0276549 0.0247844 -0.00461564 0.0351754 0.0116667 0.0193295 0.0166346 -0.00157821 0.0365094 0.0189394 0.0240541 0.030461 0.00214286 0.00579137 0.0111972 0.0143878 0.0414164 0.0331443 0.0328261 0.0208475 0.0077907 0.00648649 -0.000857989 0.000147058 0.0333721 0.0178261 0.0107143 0.0147802 0.0176562 -0.00474087 0.00452381 0.00203125 0.0428 0.0393038 0.0116667 -0.00475207 -0.00238924 0.00478261 -0.00251773 0.00022388 -0.001375 -0.000219125 0.003 -0.00235099 0.00695652 0.00522727 -0.00391237 -0.00173203 0.00231707 -0.00483794 -0.00332215 -0.00162162
internal_weight=203748 18870 184878 15680 14600 12520 4020 4060 3190 8500 5650 3710 180818 2850 1080 2610 2080 7160 2650 1650 740 1410 3080 1390 710 980 2930 1940 1150 2360 430 740 1690 680 430 460 700 910 640 173658 840 640 2500 790 420 173438 6320 460 1410 670 4000 2510 1000 1510 460 440 16090 1530 410 157348 1490 740
internal_count=20760 1887 18873 1568 1460 1252 402 406 319 850 565 371 18467 285 108 261 208 716 265 165 74 141 308 139 71 98 293 194 115 236 43 74 169 68 43 46 70 91 64 17751 84 64 250 79 42 17729 632 46 141 67 400 251 100 151 46 44 1609 153 41 16120 149 74
is_linear=0
shrinkage=0.05


Tree=10
num_leaves=63
num_cat=0
split_feature=3 3 3 11 15 3 11 15 12 3 5 11 11 3 14 11 17 3 12 3 12 15 12 15 14 12 15 11 14 11 14 13 14 12 12 12 7 17 4 13 13 15 17 6 3 5 14 14 6 6 14 3 3 7 15 14 14 1 4 5 3 11
split_gain=6377.79 220.62 169.639 93.3926 67.3069 42.6634 62.5782 40.8683 37.9751 37.6438 33.3347 30.6953 28.0405 27.2208 27.2475 27.1964 25.6563 25.5504 24.2517 23.1308 22.9932 22.9429 21.4079 19.0365 18.963 18.675 15.0688 21.1542 20.6135 14.2737 13.5936 13.1527 10.7652 9.55872 8.97981 8.72886 8.67107 8.11458 7.99484 7.68116 8.07918 7.59378 14.1551 13.7286 6.58561 5.92717 5.03648 4.16238 3.55556 16.7937 3.45561 6.04449 3.05821 2.9167 2.6171 2.17695 3.02751 2.42643 2.12418 3.43137 2.11039 1.7659
threshold=0.0068459950000000006 0.016435360000000003 0.0060967450000000006 0.00014077000000000016 0.15632083333333335 0.010929030000000001 -0.0011203749999999992 0.15739722222222227 0.002011194999999999 0.0051268250000000007 0.008988595000000002 -0.0048726449999999984 -0.00017157500000000017 0.0075953000000000001 0.18235000000000004 0.00053721500000000028 0.024500000000000001 0.0063853650000000014 0.00026316999999999969 0.0084718950000000019 -0.00065154499999999979 0.17416041666666671 -0.0011203749999999992 0.16831944444444449 0.17505000000000001 -6.3299999999999628e-05 0.15689861111111117 0.00066760000000000007 0.19075000000000003 0.000598895 0.13815000000000002 2.4387989927402312 0.12925000000000003 -0.0020608299999999987 -0.00068319000000000051 0.0005676349999999996 0.0006882833787097859 -0.0051999999999999885 0.013037755000000002 1.1690365478783626 -0.41061731802546936 0.16955400641025645 0.0054499999999999974 0.0099487772222222239 0.0057976750000000013 0.0071207750000000011 0.14125000000000001 0.19075000000000003 0.0059573145138888889 0.0053872116666666674 0.13495000000000004 0.023643960000000002 0.0050005950000000009 0.017680847886431254 0.16398611111111114 0.17175000000000004 0.14585000000000004 4.5000000000000009 0.0054975450000000004 0.0050074300000000011 0.0053574500000000006 0.0001556400000000001
decision_type=2 2 2 2 2 2 2 2 2 2 2 2 2 2 2 2 2 2 2 2 2 2 2 2 2 2 2 2 2 2 2 2 2 2 2 2 2 2 2 2 2 2 2 2 2 2 2 2 2 2 2 2 2 2 2 2 2 2 2 2 2 2
left_child=2 3 9 5 13 6 32 20 10 52 15 -3 39 -5 18 19 21 24 -15 -6 -7 25 -18 26 -14 -8 27 -19 54 47 -17 -24 -2 -9 -12 37 44 -34 -13 40 45 43 -43 -35 -31 -4 -36 55 49 60 51 -40 53 -1 -28 56 61 -58 59 -50 -49 -11
right_child=1 11 12 4 8 7 16 33 -10 29 34 38 17 14 -16 30 22 23 -20 -21 -22 -23 31 -25 -26 -27 28 -29 -30 36 -32 -33 35 41 46 -37 -38 -39 50 -41 -42 42 -44 -45 -46 -47 -48 48 58 -51 -52 -53 -54 -55 -56 -57 57 -59 -60 -61 -62 -63
leaf_value=-4.7138019004704496e-05 -6.9104381144440942e-06 0.00090331711652283776 -5.5839760661267259e-06 7.9111353416790145e-05 4.6719577510829602e-05 -1.3348990729997529e-05 3.9006624396984636e-05 7.3936345335974435e-05 5.2635729316094564e-05 -2.380012961654987e-05 0.0001053818740081379 0.00050346535998736612 -1.5266074623306523e-05 1.5129815723352916e-05 0.00025788628491157131 4.2693726077167268e-05 2.4726228071757206e-05 2.5075621059560682e-05 5.3626807628277973e-05 3.4590880796098132e-05 0.00016442154924069073 3.5125278440562768e-05 6.3556382974540955e-05 3.3898730162745322e-05 2.5955261816384258e-05 4.225922849536643e-05 1.0740032954911297e-05 1.2342793116604143e-07 1.5020144126827262e-05 6.1438730962677102e-06 0.00014025386565068057 2.2513763963356338e-05 3.6724602164888342e-05 8.3111928232193187e-05 6.8171273695790107e-05 -1.3550439910131667e-06 3.0487275900025538e-05 6.3750855488202039e-05 0.0002792220730785253 1.7031512870907612e-05 -6.298407494678193e-06 6.1766357523802004e-05 9.5357517416201439e-05 5.4927324507595387e-05 -2.4859069212101301e-05 6.8594679500497218e-06 0.0001448161351433266 -3.2976774270742604e-05 -3.1681425873877644e-05 2.5602066244422094e-05 0.00092668922068509787 0.0014373736732211141 -4.0765107489824177e-05 -2.54273661916508e-05 -4.3066749191875559e-06 -2.6944753376593719e-05 -1.1788417094814825e-05 4.0591424455217374e-07 -2.7708983345661856e-05 1.1717787781390509e-06 -1.8065044677305056e-05 -2.1056577402935343e-05
leaf_weight=156463 330 390 210 370 920 240 2180 260 200 1720 310 210 540 320 310 210 200 220 330 400 250 260 1790 260 360 2340 270 210 230 210 1650 200 220 500 270 200 350 450 220 370 750 390 370 200 260 300 1020 440 210 200 1390 250 13870 290 240 1240 1860 800 390 300 260 1330
leaf_count=16036 33 39 21 37 92 24 218 26 20 172 31 21 54 32 31 21 20 22 33 40 25 26 179 26 36 234 27 21 23 21 165 20 22 50 27 20 35 45 22 37 75 39 37 20 26 30 102 44 21 20 139 25 1387 29 24 124 186 80 39 30 26 133
internal_value=-0.00152243 0.0259399 -0.00437824 0.0238796 0.0286767 0.0209634 0.0192962 0.0271267 0.0313454 -0.0046032 0.0322385 0.0399187 0.00585858 0.0186842 0.023125 0.0292767 0.0211119 0.00937768 0.0173077 0.0237879 0.0143878 0.0190586 0.0255936 0.0135315 0.00277778 0.0198894 0.010812 0.0182558 0.00648649 -0.00155173 0.033172 0.0271608 0.00875 0.0307558 0.038125 0.0116667 0.0047561 0.014403 0.042343 0.00082822 -0.00103175 0.0323288 0.0357895 0.0285714 0.000319148 0.00382353 0.0399612 -0.00214286 -1.07288e-09 0.00222222 0.0433871 0.0396809 -0.00477436 -0.00483732 0.000882352 -0.00269784 -0.00228547 -0.00105263 -0.00222222 -9.80403e-05 -0.00142857 -0.00336066
internal_weight=203303 19150 184153 16690 6310 10380 8170 2210 4980 180193 4780 2460 3960 1330 960 3180 6970 2330 650 1320 490 4780 2190 1430 900 4520 1170 430 740 9570 1860 1990 1200 1720 1600 870 820 670 2070 1630 1260 1460 760 700 470 510 1290 8750 1800 900 1860 470 170623 156753 510 6950 5710 2660 900 510 700 3050
internal_count=20720 1915 18805 1669 631 1038 817 221 498 18409 478 246 396 133 96 318 697 233 65 132 49 478 219 143 90 452 117 43 74 957 186 199 120 172 160 87 82 67 207 163 126 146 76 70 47 51 129 875 180 90 186 47 17452 16065 51 695 571 266 90 51 70 305
is_linear=0
shrinkage=0.05


Tree=11
num_leaves=63
num_cat=0
split_feature=3 3 3 15 3 11 11 3 3 5 11 3 8 11 14 4 4 11 5 8 8 15 14 14 15 15 4 7 16 7 9 3 11 7 5 16 14 9 3 14 14 8 3 16 13 15 4 13 14 4 5 10 15 4 3 6 16 0 7 14 16 5
split_gain=5706.67 230.178 156.655 78.43 88.8523 72.8584 38.3311 37.23 36.9444 31.5518 31.4298 30.7702 31.4653 30.0926 29.5944 25.7619 35.4643 22.2967 18.4807 18.9414 28.6117 20.9086 18.1675 16.53 16.4141 15.7764 17.009 18.2609 15.2453 14.9055 13.7641 13.2841 10.6587 10.3305 10.208 10.0383 11.2944 9.32401 9.09006 7.09211 6.7091 6.45729 6.44995 7.53062 6.31313 6.03571 5.46815 5.24803 4.86647 4.83187 10.5766 4.23144 3.51407 4.32028 3.40409 3.093 3.01181 6.53333 4.82655 2.71608 3.549 3.82699
threshold=0.0068459950000000006 0.017151930000000003 0.0055505050000000007 0.15632083333333335 0.010929030000000001 7.6580000000000151e-05 -0.0011843649999999999 0.0063853650000000014 0.0072137850000000012 0.0066990500000000007 -0.00017157500000000017 0.0084718950000000019 0.0047165125000000014 -0.0048726449999999984 0.18235000000000004 0.0084131000000000015 0.0079700300000000012 -0.00152355 0.0086769350000000019 0.0054262000000000008 0.0037867400000000007 0.16611736111111117 0.22005000000000002 0.18565000000000001 0.16831944444444449 0.15402013888888891 0.0062962650000000014 0.00067992990815500325 0.035897451562096803 0.0040891609651488676 0.010336176250000001 0.0051268250000000007 0.00025050500000000031 0.00070113398368541421 0.012358245000000002 0.030325473839545189 0.19075000000000003 0.0050288025000000012 0.0092287600000000008 0.17815000000000003 0.14585000000000004 0.0041839075000000012 0.028399335000000005 0.04033864997507039 1.2614535339254966 0.16192361111111112 0.0079700300000000012 -0.23236242236596757 0.15715000000000004 0.005522565000000001 0.0053168750000000013 0.031360520500000003 0.14185208333333335 0.0050008150000000005 0.0050005950000000009 0.0077450722222222245 0.035603775546000249 11.500000000000002 0.0012364505823660914 0.19075000000000003 0.046587825408087556 0.0051361950000000005
decision_type=2 2 2 2 2 2 2 2 2 2 2 2 2 2 2 2 2 2 2 2 2 2 2 2 2 2 2 2 2 2 2 2 2 2 2 2 2 2 2 2 2 2 2 2 2 2 2 2 2 2 2 2 2 2 2 2 2 2 2 2 2 2
left_child=2 3 31 14 5 6 38 23 9 -7 44 30 -13 -3 17 16 -8 37 -6 20 29 -22 46 49 35 26 -19 -28 -17 -20 -10 51 47 -34 48 -12 45 -2 -5 -36 42 -33 43 -15 55 -37 -16 -25 -21 50 52 54 -4 -54 -1 -9 57 -51 -59 -43 61 -61
right_child=1 13 7 4 18 8 15 10 11 -11 24 12 -14 40 22 28 -18 25 19 34 21 -23 -24 32 -26 -27 27 -29 -30 -31 -32 41 33 -35 39 36 -38 -39 -40 -41 -42 59 -44 -45 -46 -47 -48 -49 -50 56 -52 -53 53 -55 -56 -57 -58 58 -60 60 -62 -63
leaf_value=-4.4781118054469273e-05 0.00014613114595827246 0.0008642310305917735 -5.9559099701040213e-05 3.4040296332112853e-05 0.00017499904924679429 6.638025459273452e-05 3.6259495543094494e-05 -1.5018305003488593e-06 6.8758291716115044e-05 -5.5426125600056911e-06 1.8302044755319651e-05 9.2497826351253259e-05 8.8010131306331808e-05 0.00037547986851920357 0.00013769988358919004 6.1503255622268358e-05 1.9665130333026553e-05 3.3062464791377969e-06 0.00014267755568915635 5.5653716281471125e-05 7.5590372143090432e-05 0.00013122600944843367 0.00030246736787908776 -8.4130201601120667e-06 3.2203793654608054e-05 5.4151417245871329e-06 7.8146719609016263e-05 0.00010396489780544277 3.6041043255635885e-05 4.8356508219405872e-05 4.141959071113977e-05 3.8115793468188648e-06 -4.7311625874677363e-05 4.3506777780967805e-05 8.1756935295856627e-05 1.8656657210068639e-05 1.6520156514345508e-05 -1.8126573519323767e-05 -6.0789193094696533e-05 0.00011910053533545693 0.0008818030476223824 -2.4616634119663896e-05 0.0013655049895600585 0.00037132726083490941 2.3048695158692383e-05 -1.7017580191381267e-06 0.00018196389893207458 2.4257518158912988e-06 0.00013736545253073434 -1.177287419875739e-05 4.0330778079579486e-06 -2.3138672410958186e-05 3.2007140423800574e-06 -7.6645398698576468e-06 -3.8725152933169329e-05 3.4499625556591939e-06 -1.5580246236773752e-05 5.5052178963504824e-05 -1.1953103891131347e-05 1.4807290941093527e-05 -3.8963131951858998e-05 -1.7084158823134248e-05
leaf_weight=156563 220 380 320 350 340 340 1660 370 1210 210 280 450 1390 260 230 1170 1260 220 520 320 230 390 320 340 260 370 230 1380 1470 240 320 230 270 370 690 200 330 260 290 220 1090 4340 250 250 240 360 200 280 420 750 210 200 200 420 13860 290 1610 260 340 600 340 320
leaf_count=16046 22 38 32 35 34 34 166 37 121 21 28 45 139 26 23 117 126 22 52 32 23 39 32 34 26 37 23 138 147 24 32 23 27 37 69 20 33 26 29 22 109 434 25 25 24 36 20 28 42 75 21 20 20 42 1386 29 161 26 34 60 34 32
internal_value=-0.00168229 0.024295 -0.00438367 0.022305 0.0240215 0.0216798 0.0183065 0.0025974 0.0270153 0.015 0.00787554 0.0289763 0.0246196 0.0393946 0.0155539 0.0196403 0.0164041 0.013097 0.0310534 0.0322937 0.027971 0.02 0.0243333 0.000307262 0.0124825 0.0152273 0.0171311 0.018913 0.0232197 0.0344737 0.0342157 -0.0046883 0.00531746 0.00984375 0.0359091 0.00995726 0.00735955 0.00333333 0.00671875 0.0323626 0.042027 -0.00234134 0.0384211 0.0351961 0.000555554 0.00303571 0.0310465 0.00064516 0.0402703 -0.00122871 0.00152174 -0.0047685 -0.000744682 0.00145161 -0.00477703 -0.0019697 -0.0022973 -0.000555557 0.00333333 -0.00267857 -0.000634922 0.00097826
internal_weight=203303 19150 184153 16920 13490 10120 6200 7700 3920 550 2330 3370 1840 2230 3430 5560 2920 2680 3370 3030 1380 620 750 5370 1430 2200 1830 1610 2640 760 1530 176453 1260 640 1650 1170 890 480 640 910 1850 5830 760 510 900 560 430 620 740 4110 1150 170623 940 620 170423 660 2960 1350 600 5600 1260 920
internal_count=20720 1915 18805 1692 1349 1012 620 770 392 55 233 337 184 223 343 556 292 268 337 303 138 62 75 537 143 220 183 161 264 76 153 18035 126 64 165 117 89 48 64 91 185 583 76 51 90 56 43 62 74 411 115 17452 94 62 17432 66 296 135 60 560 126 92
is_linear=0
shrinkage=0.05


Tree=12
num_leaves=63
num_cat=0
split_feature=3 3 3 11 15 3 5 3 15 3 11 4 11 15 3 6 9 4 16 10 9 15 3 3 12 0 10 5 17 15 11 16 2 0 11 11 12 6 12 11 10 6 17 2 2 2 16 7 15 2 10 12 11 10 12 2 3 5 6 4 17 9
split_gain=5092.07 243.835 155.682 87.5136 59.7443 53.3549 40.3293 37.23 34.3606 34.2425 32.2659 31.5913 31.4298 27.679 36.1 27.1356 19.2997 19.6766 18.416 16.8059 37.5137 16.4141 16.0729 14.3675 20.5489 13.9601 13.092 17.3965 12.999 23.668 12.9654 14.1049 14.7384 12.8 12.1243 11.1069 15.1894 9.02737 8.82178 11.2043 8.0023 10.4752 6.65472 6.25419 5.89674 9.84664 8.71111 5.75043 5.41027 5.23709 5.05615 4.44646 4.33206 4.2144 4 3.84216 3.6009 3.38795 3.0557 2.45707 5.28814 2.09914
threshold=0.0068459950000000006 0.018312400000000003 0.0055505050000000007 0.0002713200000000003 0.14435625000000005 0.010635985000000002 0.020722215000000006 0.0063853650000000014 0.16582083333333336 0.0075953000000000001 -0.0011203749999999992 0.0069343200000000008 -0.00017157500000000017 0.15446666666666667 0.028399335000000005 0.0083674243750000016 0.013772206250000002 0.0079700300000000012 0.03869927204771053 0.0060912205000000002 0.0070774337500000015 0.16831944444444449 0.0051268250000000007 0.011659005000000002 0.0016922399999999996 18.500000000000004 0.011539238500000002 0.011471815000000002 0.032050000000000002 0.15827083333333339 0.00070939499999999993 0.033988419274178609 17.500000000000004 12.500000000000002 0.0010798450000000001 0.00029366000000000033 -0.00012998499999999997 0.0063743531944444451 1.0159999999999511e-05 0.00021901499999999995 0.009826536000000002 0.0050148027777777793 -0.015499999999999991 22.500000000000004 12.500000000000002 1.0000000180025095e-35 0.035195942104594626 0.0010137237105783689 0.15863819444444446 17.500000000000004 0.011694830000000002 -3.7135000000000199e-05 -0.0028796749999999995 0.031360520500000003 -0.0011203749999999992 47.500000000000007 0.0050005950000000009 0.0075953000000000001 0.0077450722222222245 0.0056657300000000008 -0.0067999999999999788 0.0072242125000000013
decision_type=2 2 2 2 2 2 2 2 2 2 2 2 2 2 2 2 2 2 2 2 2 2 2 2 2 2 2 2 2 2 2 2 2 2 2 2 2 2 2 2 2 2 2 2 2 2 2 2 2 2 2 2 2 2 2 2 2 2 2 2 2 2
left_child=2 3 22 5 -5 10 15 35 9 48 25 -12 47 14 -3 23 17 -13 -18 -11 -21 28 53 -7 -25 33 -17 -28 29 -14 31 -10 -33 54 42 44 -37 -36 -24 55 41 -38 -32 -35 45 -4 -47 -9 -6 -41 -15 -31 -52 56 -2 61 59 -46 -49 -1 -61 -40
right_child=1 13 7 4 8 6 -8 12 30 19 11 16 21 50 -16 26 18 -19 -20 20 -22 -23 38 24 -26 -27 27 -29 -30 51 34 32 -34 43 37 36 40 -39 39 49 -42 -43 -44 -45 57 46 -48 58 -50 -51 52 -53 -54 -55 -56 -57 -58 -59 -60 60 -62 -63
leaf_value=-4.2542062151745786e-05 3.3144510825062927e-05 0.00027709603626196213 -3.2738861661277489e-05 5.0942312697684946e-05 4.6673869898258073e-05 7.1943562446832678e-05 0.00014311906860441854 1.9606676243245285e-05 2.219205000621356e-05 0.00014640546701279858 -1.7460341721862115e-06 3.7033314712216414e-05 1.989496726987531e-05 0.0011566141936836612 0.0030356182344121879 5.4732800809764628e-05 2.4619236321436859e-05 4.0404869447532424e-05 3.6822085837173592e-05 0.00011611678036337719 0.00011799573407703466 3.0593603971877655e-05 -2.3416023166921409e-05 7.9121923536981729e-05 4.9947708987023822e-05 -7.9939737376873596e-06 3.3216806070046372e-05 8.5213367295788211e-05 2.0578081141223923e-05 -6.2738030155538668e-06 7.136030347298518e-05 7.9599276380942134e-05 0.00011833768896904981 4.4197499372069572e-05 0.00014444219354944754 1.327214057560538e-05 4.3279656868970509e-05 0.00013884386471913878 -1.9314076240556222e-05 -4.573829870864012e-06 -2.0327281611733109e-05 -1.0375386241981942e-05 0.0001263688090011603 5.3763922275182108e-05 -9.1119718636235944e-06 6.2017842712353322e-05 -1.8761474076825196e-05 -1.4080531843942802e-06 3.3686162144211437e-05 7.2639585709768785e-06 0.00062127269318589364 3.4814434907414738e-06 0.00082962637130904902 -2.1981738790410269e-05 -9.9009019367293248e-06 -2.0395581684297836e-05 -3.6788895286510855e-05 3.8435069290681473e-07 3.2774644278762287e-06 -4.3996471802796149e-05 9.4587495158544598e-07 -3.9972132916409795e-05
leaf_weight=155973 200 200 260 310 290 390 320 250 270 340 230 2250 300 200 250 210 370 4230 510 550 1240 260 3890 520 290 270 230 930 290 200 200 280 480 210 370 330 200 580 880 210 290 1010 390 290 2590 200 250 360 200 220 290 380 1060 200 200 280 13860 240 290 390 200 350
leaf_count=15987 20 20 26 31 29 39 32 25 27 34 23 225 30 20 25 21 37 423 51 55 124 26 389 52 29 27 23 93 29 20 20 28 48 21 37 33 20 58 88 21 29 101 39 29 259 20 25 36 20 22 29 38 106 20 20 28 1386 24 29 39 20 35
internal_value=-0.00181018 0.0227285 -0.00436194 0.0208017 0.026 0.0183476 0.0242388 0.0025974 0.0272736 0.0232443 0.0164041 0.0175955 0.00787554 0.03925 0.0283333 0.026323 0.0181658 0.0172222 0.0251136 0.0259859 0.0240503 0.0124825 -0.00466563 0.0208333 0.0246296 0.00867521 0.0311314 0.0290517 0.00995726 0.00693182 0.0313813 0.0270388 0.0305263 0.0116667 0.0342857 0.000307262 0.00346994 0.0307895 -0.00208405 0.000670102 0.00133333 -0.000454547 0.0399153 0.017 -0.00132768 0.00274648 0.00722222 0.000555554 0.0113265 0.0077907 0.0424194 0.00103448 0.0435185 -0.00475384 0.005 -0.00135762 -0.00476236 -0.00234982 -0.00192308 -0.00483074 -0.00161017 -0.00256098
internal_weight=203303 19150 184153 17150 5500 11650 2890 7700 5190 2620 8760 7590 2330 2000 450 2570 7360 6480 880 2130 1790 1430 176453 1200 810 1170 1370 1160 1170 880 2570 1030 760 900 1540 5370 1830 950 5830 1940 1500 1210 590 500 3540 710 450 900 490 430 1550 580 1350 170623 400 1510 170423 2830 650 156563 590 1230
internal_count=20720 1915 18805 1715 550 1165 289 770 519 262 876 759 233 200 45 257 736 648 88 213 179 143 18035 120 81 117 137 116 117 88 257 103 76 90 154 537 183 95 583 194 150 121 59 50 354 71 45 90 49 43 155 58 135 17452 40 151 17432 283 65 16046 59 123
is_linear=0
shrinkage=0.05


Tree=13
num_leaves=63
num_cat=0
split_feature=3 3 3 11 15 9 3 3 4 3 15 3 15 1 9 11 16 3 14 17 3 10 9 11 15 11 10 9 11 14 15 15 7 6 17 4 8 7 17 15 11 5 15 11 14 3 15 11 14 1 14 3 10 16 5 11 4 17 8 17 17 3
split_gain=4468.29 266.263 139.221 88.2967 48.2123 46.2551 33.0845 29.1055 39.8043 44.7405 27.8531 33.1713 27.7511 31.1224 30.688 27.4344 26.3619 22.9615 20.5594 18.9537 18.7154 18.4683 24.7799 17.7174 16.8423 16.7867 22.1566 21.6706 16.6888 14.7435 14.0892 11.1207 10.6309 10.4869 11.1744 10.264 14.6005 9.81417 9.4518 7.99407 7.82724 7.44093 6.94231 6.93725 9.22353 5.34149 4.7786 7.51491 5.34028 4.72327 4.55019 3.86629 3.64183 3.14786 4.57585 3.85176 2.43754 5.28814 1.6972 1.4844 1.86341 4.3834
threshold=0.0068015700000000007 0.019443140000000001 0.0052359200000000007 0.0002713200000000003 0.14435625000000005 0.011058015000000003 0.0063485850000000012 0.0072137850000000012 0.0079700300000000012 0.0080206800000000023 0.15402013888888891 0.032501405000000004 0.16582083333333336 3.5000000000000004 0.006946690000000001 -0.00016051999999999991 0.046261994973842611 0.0075953000000000001 0.13775000000000001 0.050650000000000008 0.0082646150000000012 0.0060912205000000002 0.0068526687500000015 1.3949999999995218e-06 0.16831944444444449 -3.213999999999994e-05 0.0140129915 0.014191047500000002 -3.7135000000000199e-05 0.18565000000000001 0.16354097222222225 0.16192361111111112 0.0056492691579448561 0.0084598048611111126 0.024500000000000001 0.0077164650000000013 0.0050044637500000011 0.0016171294455367472 0.025000000000000001 0.15827083333333339 0.00064438999999999913 0.0056980650000000013 0.15863819444444446 0.00051736999999999974 0.20005000000000003 0.0050005950000000009 0.14148125000000003 0.00056764999999999995 0.15775000000000003 3.5000000000000004 0.16885000000000003 0.022279105000000004 0.030601631999999993 0.03869927204771053 0.005005980000000001 0.00033489500000000004 0.0056657300000000008 -0.0067999999999999788 0.0050150787500000014 -0.0080499999999999999 -0.0032999999999999935 0.0050186150000000006
decision_type=2 2 2 2 2 2 2 2 2 2 2 2 2 2 2 2 2 2 2 2 2 2 2 2 2 2 2 2 2 2 2 2 2 2 2 2 2 2 2 2 2 2 2 2 2 2 2 2 2 2 2 2 2 2 2 2 2 2 2 2 2 2
left_child=2 3 45 5 -5 7 29 28 19 30 11 -3 17 18 -15 50 -11 42 -14 23 -16 -19 -23 -9 38 26 -7 31 35 46 -10 -28 -29 34 37 36 -2 -31 39 -17 -20 -41 -6 44 -36 52 -4 53 -49 -27 58 -12 56 54 -48 -55 -1 -58 -8 -47 61 -61
right_child=1 10 6 4 12 25 15 8 9 16 51 -13 13 14 20 24 -18 21 40 -21 -22 22 -24 -25 -26 49 27 32 -30 33 -32 -33 -34 -35 43 -37 -38 -39 -40 41 -42 -43 -44 -45 -46 59 47 48 -50 -51 -52 -53 -54 55 -56 -57 57 -59 -60 60 -62 -63
leaf_value=-4.041495904415849e-05 4.9516921984026856e-05 0.00039594171500787151 -4.3320457350119797e-05 4.7802065441993961e-05 3.3355044672763659e-05 6.6233165297031394e-05 -4.8741123494224114e-06 5.5088619163599845e-05 -6.4678115864407151e-06 7.6544072820522118e-05 0.00029616151562082433 0.0024009459898960599 3.9462507125301397e-05 0.00012338701534374621 4.8558550791615406e-05 1.4173311014036039e-05 3.7718984549847588e-05 0.00013908519366215863 0.0001125360929793453 3.4209923870589864e-05 9.0853448761346882e-05 0.00021016043737879438 0.00012280984319543883 1.7590388794139813e-05 2.872140895567355e-05 4.0314935449504812e-05 2.7207683866283764e-05 3.4464003323035553e-05 -1.6073379784829275e-06 -9.7785591182891389e-07 2.1992918249012369e-05 3.8870748910964644e-06 6.6002006388507191e-05 -1.0300238698347266e-05 5.0804913122320639e-06 -2.0106010887470454e-08 -1.0296377680296349e-05 2.5570025857305122e-05 2.744286384407978e-05 7.2165900895086437e-06 0.00015151124533134615 -3.3756882017177211e-06 3.200185403700089e-05 3.3267159150467658e-05 -1.1383686816303316e-05 -3.6530483464759896e-05 -3.1309155636379423e-05 -1.0042002107390896e-05 -7.1170037358920361e-07 2.2919548503143633e-05 5.474499484046841e-06 0.00091768580767526012 -3.020960844683618e-05 -1.7951703530683185e-05 5.8021146775747304e-07 -1.0931770477360835e-06 -4.179664821265636e-05 8.9858120400616594e-07 -7.0377332540739681e-06 -4.0046266342005751e-05 -3.3704596211730296e-05 7.7604373005526302e-06
leaf_weight=155930 230 210 1070 330 320 320 350 610 570 4550 390 200 240 200 300 260 800 340 450 210 560 510 1340 450 280 320 210 320 420 210 730 330 1010 320 320 280 380 200 320 220 870 310 200 370 680 5860 640 210 220 220 240 970 233 1720 2540 260 390 200 290 300 9680 290
leaf_count=15980 23 21 107 33 32 32 35 61 57 455 39 20 24 20 30 26 80 34 45 21 56 51 134 45 28 32 21 32 42 21 73 33 101 32 32 28 38 20 32 22 87 31 20 37 68 586 64 21 22 22 24 97 26 172 254 26 39 20 29 30 968 29
internal_value=-0.00196512 0.0208638 -0.00437199 0.0190068 0.0241519 0.0165719 0.00107434 0.0148808 0.0160227 0.0144737 0.0393503 0.0279268 0.0253002 0.0289695 0.0223585 0.00645374 0.0164953 0.0217528 0.0334615 0.0241339 0.0182558 0.0239954 0.022027 0.0214151 0.0108273 0.0222894 0.0203425 0.018262 0.0079771 -0.000319636 0.00615385 0.00981481 0.0216917 0.00333333 0.00483146 0.0118539 0.0154918 0.0120732 0.00806306 0.00512658 0.0359091 0.00160377 0.0123077 0.00266423 0.000499999 -0.00471946 -0.00147147 -0.000885511 0.00546512 0.0301852 -0.000454547 0.0427941 -0.00480862 -0.00141473 -0.000440253 -0.0029798 -0.00481792 -0.00161017 -0.00265625 -0.00385307 -0.00349075 -0.000762713
internal_weight=203303 19390 183913 17620 5660 11960 11030 9230 7920 6650 1770 410 5330 2620 1060 2270 5350 2710 1560 1270 860 2190 1850 1060 1390 2730 2190 1870 1310 8760 1300 540 1330 2100 1780 890 610 410 1110 790 1320 530 520 1370 1000 172883 6660 5590 430 540 880 1360 156753 5160 3180 1980 156520 590 640 16130 10270 590
internal_count=20720 1939 18781 1762 566 1196 1103 923 792 665 177 41 533 262 106 227 535 271 156 127 86 219 185 106 139 273 219 187 131 876 130 54 133 210 178 89 61 41 111 79 132 53 52 137 100 17678 666 559 43 54 88 136 16065 516 318 198 16039 59 64 1613 1027 59
is_linear=0
shrinkage=0.05


Tree=14
num_leaves=63
num_cat=0
split_feature=3 3 3 3 5 15 11 12 3 4 3 14 12 12 14 14 9 11 12 9 14 12 3 3 11 6 15 14 17 14 3 16 16 3 15 3 15 13 16 15 11 5 14 14 12 12 1 3 4 16 3 4 9 12 5 6 7 16 15 13 5 14
split_gain=3947.11 260.553 135.812 78.3942 54.2747 53.4596 50.7357 44.1145 37.2023 46.6143 42.238 31.1038 26.1243 24.2678 24.0545 23.0055 22.5982 21.687 21.3228 20.8423 18.6262 17.8571 17.7846 16.5628 17.4408 13.7683 11.682 11.359 11.2747 10.7373 10.382 8.60303 6.25 6.2112 9.05357 6.19911 6.12646 5.64321 5.44545 5.09449 5.6553 5.06812 6.26832 4.82143 4.42641 10.2763 4.98567 4.27269 4.34662 4.17484 5.83333 3.57274 4.96032 2.9744 2.25 1.94163 1.73981 1.30211 2.5 1.24528 1.23053 1.21666
threshold=0.0068015700000000007 0.019443140000000001 0.0052359200000000007 0.011471815000000002 0.020722215000000006 0.15402013888888891 -0.0012490849999999998 0.002011194999999999 0.0072137850000000012 0.0079700300000000012 0.0080206800000000023 0.19335000000000002 0.00019980499999999998 0.00046601500000000023 0.18565000000000001 0.14495000000000002 0.0084154900000000012 0.00051736999999999974 0.0003093650000000003 0.0056325725000000012 0.13005000000000003 0.00011325999999999959 0.032501405000000004 0.0063853650000000014 -0.00014756999999999962 0.0069728806944444463 0.16695972222222225 0.14215000000000003 0.015200000000000014 0.13005000000000003 0.013037755000000002 0.036174878097255163 0.039865980425436341 0.0058570000000000002 0.16354097222222225 0.0050005950000000009 0.15827083333333339 1.1690365478783626 0.043260733059871437 0.14507222222222224 0.00070939499999999993 0.010523790000000003 0.16275000000000003 0.20185000000000003 -0.00036040499999999979 -0.00041517999999999975 4.5000000000000009 0.0053780400000000015 0.0050042150000000011 0.041015972165049472 0.023643960000000002 0.0056657300000000008 0.0050038375000000012 0.00016179000000000022 0.010635985000000002 0.0051852417361111123 0.0014869073826502817 0.10834605912812903 0.16398611111111114 -0.62011858236151585 0.0061416500000000011 0.24235000000000004
decision_type=2 2 2 2 2 2 2 2 2 2 2 2 2 2 2 2 2 2 2 2 2 2 2 2 2 2 2 2 2 2 2 2 2 2 2 2 2 2 2 2 2 2 2 2 2 2 2 2 2 2 2 2 2 2 2 2 2 2 2 2 2 2
left_child=2 3 35 6 7 22 29 12 13 15 18 -12 19 20 23 31 -17 33 -11 -5 -8 37 -3 39 53 -21 36 -14 -22 -2 -9 -10 -6 47 -35 51 -26 -19 -29 -4 44 -31 -43 -36 45 -41 -46 48 -16 -7 -51 55 -53 59 -32 -1 -49 60 -59 -25 -57 -37
right_child=1 5 14 4 32 49 8 30 9 10 11 -13 27 -15 17 16 -18 21 -20 25 28 -23 -24 24 26 -27 -28 38 -30 41 54 -33 -34 34 43 61 -38 -39 -40 40 -42 42 -44 -45 46 -47 -48 56 -50 50 -52 52 -54 -55 -56 57 -58 58 -60 -61 -62 -63
leaf_value=-3.8394211091950579e-05 -4.8037579948059107e-06 0.00037614462925747785 -3.5985795920313816e-05 2.0450139897912339e-05 0.00013822621014829498 0.00087385463049360554 7.0388197549971923e-05 0.00011503341672797614 2.3162853152034153e-05 1.5050714737476735e-05 4.1356763311425889e-05 0.0001168630869897163 7.2230023682361347e-05 5.2545686492748761e-05 -2.4831716227621651e-05 6.2083776640578978e-05 6.1741732060648785e-05 3.1324831817769009e-05 2.7521835244584264e-05 9.6812169842368841e-05 -1.8564660988405451e-06 2.4291528065547603e-05 0.002280898690401257 -4.9993185200047163e-06 1.1256020135127698e-05 0.00012256219110567089 1.5708397028274243e-05 0.00011683987026500056 9.430393400138418e-06 -2.9208463976589238e-07 0.00013428989318135744 2.9512727484338542e-05 -1.5840294369367431e-05 2.6149875724194976e-05 2.5481011490599221e-06 -3.2998766615783473e-05 7.3343087641675569e-07 3.7893606572047139e-06 0.00016298080650861552 -8.4200352401522175e-06 2.1538966692802341e-05 5.566389716273472e-05 1.7255313891474219e-06 -1.2766042693788451e-06 -1.0091856379146942e-05 1.9939573217566617e-06 8.2409713911242856e-07 -1.3670033786942211e-05 9.5078877848606395e-06 0.0002580678966665012 0.00075724842405348652 -3.9541210179017046e-05 -1.4069718015047255e-05 1.5283671626971642e-06 1.2997602316613275e-05 -3.6922698583311041e-05 -1.7882025303051469e-05 -2.8299011779422277e-06 -3.8394211091950579e-05 -4.8379884493644741e-06 -2.1819887805746324e-05 -3.4902987014256844e-05
leaf_weight=137651 340 210 1470 250 200 730 230 220 430 1100 4580 1220 350 370 250 1780 930 280 280 290 760 200 200 200 230 1230 200 580 680 210 200 220 200 240 240 15560 360 310 250 1000 260 280 240 320 2740 210 1080 290 220 270 360 350 280 230 200 17782 370 200 250 330 240 570
leaf_count=14090 34 21 147 25 20 73 23 22 43 110 458 122 35 37 25 178 93 28 28 29 76 20 20 20 23 123 20 58 68 21 20 22 20 24 24 1556 36 31 25 100 26 28 24 32 274 21 108 29 22 27 36 35 28 23 20 1843 37 20 25 33 24 57
internal_value=-0.00208809 0.0193682 -0.00435024 0.0175312 0.0237154 0.0376554 0.0157326 0.0256723 0.0166216 0.0178178 0.0155432 0.0174138 0.0282203 0.0104412 0.00102901 0.0226786 0.0247048 0.00511029 0.00768116 0.0243785 0.00787425 0.0120886 0.0218293 -0.00030686 0.00435484 0.0265789 0.00955696 0.0339831 0.00576389 0.00528037 0.0135484 0.0142308 0.00625 0.00225388 0.005625 -0.00469344 0.00601695 0.00771186 0.0371687 -0.00137574 -0.000652175 0.00869863 0.0113462 0.00214286 -0.00102386 0.00161157 -0.00185864 -0.000132744 0.00351064 0.0424265 0.0394444 -0.00478948 -0.00103175 -0.00105263 0.00875 -0.00480464 -0.00272727 -0.0043233 -0.00166667 -0.00311321 -0.00438964 -0.00376008
internal_weight=203303 19390 183913 17620 3970 1770 13650 3570 12580 10540 7180 5800 2950 2040 11030 3360 2710 2720 1380 1770 1670 790 410 8310 1550 1520 790 1180 1440 1070 620 650 400 1930 800 172883 590 590 830 6760 5290 730 520 560 5030 1210 3820 1130 470 1360 630 156753 630 760 400 156123 660 18472 450 530 18022 16130
internal_count=20720 1939 18781 1762 397 177 1365 357 1258 1054 718 580 295 204 1103 336 271 272 138 177 167 79 41 831 155 152 79 118 144 107 62 65 40 193 80 17678 59 59 83 676 529 73 52 56 503 121 382 113 47 136 63 16065 63 76 40 16002 66 1912 45 53 1867 1613
is_linear=0
shrinkage=0.05


Tree=15
num_leaves=63
num_cat=0
split_feature=3 3 3 3 11 3 15 4 3 5 12 12 13 9 12 13 8 16 2 7 5 3 15 3 2 4 5 15 12 9 9 12 15 7 9 4 3 2 11 11 9 3 15 13 3 12 12 9 0 7 16 0 16 9 12 13 2 11 1 3 16 4
split_gain=3418.7 247.506 107.902 59.6418 51.6208 44.069 35.7828 29.3699 29.7071 26.511 25.7355 35.9907 25 23.652 26.7712 22.0317 20.053 20.0257 17.0058 14.3881 14.1781 13.5728 12.7633 11.3273 11.0744 25.8615 16.8205 12.9385 11.4374 9.99371 9.68364 9.16718 13.3337 9.27764 8.42062 6.17289 13.7619 6.13636 5.50855 5.4178 5.34468 5.79777 7.37245 6.07556 4.99944 4.71123 6.65108 3.92507 5.16732 3.2068 2.48227 3.2183 2.46363 3.55263 2.41039 1.69935 1.54853 1.75891 3.13394 1.35342 1.20346 2.30488
threshold=0.0063853650000000014 0.019443140000000001 0.0076659800000000002 0.0051915800000000003 -0.00152355 0.0098170050000000019 0.15402013888888891 0.0079700300000000012 0.0072137850000000012 0.010929030000000001 -0.00063050999999999938 0.002011194999999999 4.574913590631783 0.0050487162500000007 5.9180000000000263e-05 0.043894269244149721 0.0037190225000000008 0.037169316067278024 17.500000000000004 0.0017616807002134314 0.0048252200000000007 0.023643960000000002 0.15632083333333335 0.0055820400000000008 12.500000000000002 0.0071641000000000005 0.0070203650000000006 0.16671319444444449 3.5129999999999977e-05 0.0059001487500000005 0.013089891250000003 2.5714999999999943e-05 0.16671319444444449 0.0016899845949674857 0.0050288025000000012 0.013321420000000002 0.014568635000000002 32.500000000000007 -0.00065154499999999979 -0.00025328999999999993 0.010644593750000002 0.0056067650000000005 0.14185208333333335 1.8808840242542597 0.0050025250000000007 1.457500000000018e-05 6.7310000000000126e-05 0.0050038375000000012 14.500000000000002 0.017680847886431254 0.044715093221234771 2.5000000000000004 0.038515243758722222 0.0050041450000000006 1.0159999999999511e-05 -0.23000718416407423 52.500000000000007 2.299500000000005e-05 2.5000000000000004 0.0050028150000000007 0.048554055525017764 0.005015045000000001
decision_type=2 2 2 2 2 2 2 2 2 2 2 2 2 2 2 2 2 2 2 2 2 2 2 2 2 2 2 2 2 2 2 2 2 2 2 2 2 2 2 2 2 2 2 2 2 2 2 2 2 2 2 2 2 2 2 2 2 2 2 2 2 2
left_child=3 2 7 38 29 9 12 8 24 13 16 18 -3 14 -6 -15 -7 -18 -12 -13 -5 30 -10 45 25 27 28 -2 -26 34 -8 33 -33 -24 -4 -31 -37 -9 47 -28 41 -25 -43 -44 49 60 -47 -1 -49 55 56 -52 53 -48 -53 -40 59 58 -58 -46 -22 -62
right_child=1 6 4 20 5 10 21 37 22 -11 11 19 -14 15 -16 -17 17 -19 -20 -21 23 -23 31 40 26 -27 39 -29 -30 35 -32 32 -34 -35 -36 36 -38 -39 44 -41 -42 42 43 -45 50 46 52 48 -50 -51 51 54 -54 -55 -56 -57 57 -59 -60 -61 61 -63
leaf_value=-3.8143250094687266e-05 1.8973295828938938e-06 0.00013052517648536656 0.0001279153838600502 7.2111409463402806e-06 4.1888278207009719e-05 8.011483748510893e-05 0.00027053101796057494 -6.1969116002372858e-06 1.5375538143848281e-05 -3.2676035904423388e-06 0.00012805870367108945 -4.8657334816597443e-06 0.0022204600393499071 3.2556521710181693e-05 6.7942889384858465e-05 3.8383577212830994e-05 0.00010967967636686351 -1.7286866885104628e-06 0.00012954069874708462 6.9945150150479353e-05 -2.004383958532701e-05 0.00086056368218292729 -2.2822008821144959e-06 3.252931765225951e-05 2.5326368848905213e-05 4.0448296686367913e-05 1.0337055588215867e-05 1.2204204892719911e-05 2.4657584259240507e-05 2.1142744600979268e-05 0.0002180350518271077 2.6899086424646449e-05 3.1822878967094626e-05 2.9045460308358596e-05 -3.5955136389113894e-05 7.1526506379474748e-05 1.8125629704701879e-05 5.8096001668745982e-06 -3.5756287353069488e-05 -6.0972899768286999e-06 -1.0126494925745794e-05 -4.0951558376600418e-05 8.4906155004038835e-07 2.4039430055281572e-05 -4.0139872855258906e-05 8.9960673248934137e-06 -3.315303518025959e-05 1.6963614180971736e-05 -4.2997132777761505e-05 -8.7046363193870303e-06 -3.4231827363924725e-06 -3.5128653121743184e-05 -2.755226688045988e-05 4.8193098415058152e-06 -3.7586480201574091e-05 -3.6474500537353031e-05 -3.9941292181904962e-05 -3.3678291408084985e-05 3.2748785573662889e-08 -3.3881683190298743e-05 -3.6275443860996197e-05 -9.9232926540376186e-06
leaf_weight=510 400 200 260 200 400 230 240 440 250 230 1120 210 200 2230 450 3770 710 470 2220 360 2670 700 210 210 610 250 750 250 1200 320 290 220 270 380 210 350 210 220 39220 320 380 490 3400 520 210 320 270 241 240 260 240 1300 470 490 340 118967 310 300 210 9920 210 200
leaf_count=51 40 20 26 20 40 23 24 44 25 23 112 21 20 223 45 377 71 47 222 36 267 70 21 21 61 25 75 25 120 32 29 22 27 38 21 35 21 22 4282 32 38 49 340 52 21 32 27 25 24 26 24 130 47 49 34 11921 31 30 21 992 21 20
internal_value=-0.00225459 0.016773 0.01521 -0.00446458 0.0176182 0.018629 0.0354908 0.0094714 0.0107534 0.0160452 0.0220677 0.024156 0.0225 0.0166058 0.0244118 0.0155 0.0162766 0.0136441 0.0261377 0.0125439 -0.000676502 0.0397154 0.0171805 -0.000950157 0.00849206 0.0133333 0.00697917 0.00807692 0.00991713 0.00833333 0.0336792 0.019537 0.0245918 0.015339 0.00244681 0.0114773 0.0146429 -0.000454547 -0.00468073 0.00200934 0.000699999 0.00116883 0.000782312 0.0015051 -0.00470224 -0.00273218 -0.000483872 -0.000963674 0.00227651 -0.00477911 -0.00375292 -0.00207447 -0.00215447 -0.000394738 -0.00286585 -0.00478823 -0.0040411 -0.00195122 -0.000192309 -0.00421027 -0.00386364 -0.00134146
internal_weight=203248 21150 19520 182098 13750 12400 1630 5770 5110 7080 5320 3910 400 6850 850 6000 1410 1180 3340 570 9830 1230 1330 9630 3780 900 2880 650 1810 1350 530 1080 490 590 470 880 560 660 172268 1070 5000 4620 4410 3920 171277 4630 1550 991 481 158447 12830 1880 1230 760 1640 158187 10950 820 520 10130 3080 410
internal_count=20710 2115 1952 18595 1375 1240 163 577 511 708 532 391 40 685 85 600 141 118 334 57 983 123 133 963 378 90 288 65 181 135 53 108 49 59 47 88 56 66 17612 107 500 462 441 392 17512 463 155 100 49 16229 1283 188 123 76 164 16203 1095 82 52 1013 308 41
is_linear=0
shrinkage=0.05


Tree=16
num_leaves=63
num_cat=0
split_feature=3 3 3 3 14 11 11 15 4 1 8 5 12 3 8 3 3 3 14 4 7 7 16 5 4 14 15 3 17 14 7 12 7 15 16 4 11 16 1 17 14 6 10 6 3 3 11 3 17 12 12 6 5 7 3 12 12 3 16 4 15 12
split_gain=3038.22 263.414 86.0807 57.7398 57.5179 43.684 41.2315 39.3751 21.1552 22.7835 20.7682 20.611 20.4608 20.2489 18.8691 19.4003 17.5973 17.0607 16.9656 14.6152 16.2643 19.2795 15.5769 13.7647 21.076 12.25 11.8699 11.8063 15.8762 10.9088 10.1041 10.0265 12.8138 9.76332 9.2209 8.9732 17.5026 8.89815 8.78222 8.42977 8.1334 7.61399 7.09918 6.94444 6.58793 6.45982 6.25191 8.63088 5.20965 4.33739 4.29501 4.04053 4.00629 12.8209 8.18645 4.54275 3.9002 3.49726 3.23792 3.23381 4.13603 3.13469
threshold=0.0063853650000000014 0.019443140000000001 0.0077164650000000013 0.0052027700000000007 0.17035000000000003 -0.00152355 0.0010143449999999996 0.15402013888888891 0.009924050000000002 3.5000000000000004 0.0077538412500000016 0.010635985000000002 -0.00046776500000000057 0.0090639450000000021 0.0023947062500000002 0.0085297050000000003 0.0069760650000000009 0.011912415000000001 0.22005000000000002 0.0079700300000000012 0.00079125233299658397 0.0013807088374777903 0.031213349932458855 0.010929030000000001 0.0089208600000000009 0.11485000000000002 0.16532430555555558 0.023643960000000002 -0.010849999999999997 0.18565000000000001 0.0018972659622344572 -9.3429999999999802e-05 0.0014541530020426888 0.16042222222222227 0.034920672564749053 0.0071641000000000005 -0.00049741499999999964 0.034403601996263043 1.5000000000000002 0.018949999999999998 0.13005000000000003 0.0087200320833333341 0.033268071000000003 0.0084598048611111126 0.0050025250000000007 0.0055820400000000008 0.000598895 0.005919825000000001 0.034100000000000005 3.1049999999999921e-05 3.5129999999999977e-05 0.0067196822222222235 0.005001025000000001 0.0012364505823660914 0.0061416500000000011 -0.00070038999999999985 0.00010746000000000021 0.0056657300000000008 0.044715093221234771 0.0056657300000000008 0.14070000000000002 -0.0016804600000000002
decision_type=2 2 2 2 2 2 2 2 2 2 2 2 2 2 2 2 2 2 2 2 2 2 2 2 2 2 2 2 2 2 2 2 2 2 2 2 2 2 2 2 2 2 2 2 2 2 2 2 2 2 2 2 2 2 2 2 2 2 2 2 2 2
left_child=3 2 12 42 5 33 17 25 14 11 -11 -10 34 -8 -7 -16 31 23 30 20 22 -22 -18 24 -6 -3 -25 28 -9 45 -15 32 -14 61 -2 -36 39 -19 -33 -37 -35 46 44 -39 59 49 47 48 50 -5 -31 -40 -47 54 57 -55 -51 -54 -46 -1 -61 -4
right_child=1 7 4 29 6 8 13 27 9 10 -12 -13 16 18 15 -17 19 37 -20 -21 21 -23 -24 26 -26 -27 -28 -29 -30 41 -32 38 -34 40 35 36 -38 43 51 -41 -42 -43 -44 -45 58 52 -48 -49 -50 56 -52 -53 53 55 -56 -57 -58 -59 -60 60 -62 -63
leaf_value=-3.4650775510485387e-05 -1.7089663128323685e-06 0.00031199631920609665 -2.3595151336041677e-05 -2.3870541726767306e-05 4.6588516255837208e-05 3.5674155243907428e-05 8.7053584544607835e-05 0.00017678228265168209 8.9308815936441953e-05 3.8432332097950567e-05 3.7783411091131107e-05 9.7509136590893643e-05 2.0185266570134982e-05 0.00012324062199909651 2.9346879868864128e-05 2.5660033212346893e-05 -2.7477451090102821e-06 0.00010706514253624774 0.00027383564153650285 2.6391332873788459e-07 9.8958696517166422e-05 2.8741107070845169e-05 2.3005887450112204e-05 4.9834236279094818e-05 6.5157753633754008e-05 0.0012137330368710061 -1.2654942378895775e-05 0.00081753549807378099 0.00025585834829014415 -1.5707014746415329e-05 0.00015166805163246814 1.073163916543404e-05 6.8234987093207361e-06 -7.9583194540645525e-06 -3.7250822133754595e-06 -7.3569034904908518e-06 3.0989952120989809e-05 7.3057688997649802e-05 1.2476591684832498e-05 1.7126478017396074e-05 4.9351831243876258e-05 -8.1493203630542418e-06 -2.8059360130513782e-06 6.9772894334020356e-05 -3.1791068463252368e-05 -1.5753552790687238e-05 2.7106714976682372e-05 1.8880475207278183e-05 -8.777579581641353e-06 -2.0412934558911133e-06 1.230075327651949e-05 -3.8393346310745276e-06 3.0611742518399199e-05 -7.2452647207872492e-06 2.3120073236617324e-05 -8.3221733699618423e-06 -2.346459254640313e-05 -1.722568713984482e-06 -2.2736380098265129e-05 -3.8200251053413681e-05 1.28922484179501e-06 2.1853339977244771e-05
leaf_weight=158348 540 200 240 2200 1850 370 260 240 450 620 360 1640 270 200 2050 1610 260 270 390 300 310 1230 260 230 1060 200 250 700 290 210 330 390 350 240 310 260 200 200 740 200 390 310 210 250 11250 720 390 360 860 260 200 390 230 260 210 1940 930 530 2000 360 320 250
leaf_count=16220 54 20 24 220 185 37 26 24 45 62 36 164 27 20 205 161 26 27 39 30 31 123 26 23 106 20 25 70 29 21 33 39 35 24 31 26 20 20 74 20 39 31 21 25 1125 72 39 36 86 26 20 39 23 26 21 194 93 53 200 36 32 25
