tree
version=v4
num_class=1
num_tree_per_iteration=1
label_index=0
max_feature_idx=8
objective=regression
feature_names=hour day_of_week fee_lag_1 fee_rolling_mean fee_rolling_std fee_rolling_p75 ratio_lag_1 ratio_rolling_mean ratio_rolling_std
feature_infos=[0:23] [0:6] [0.00020000000000000001:2.7166409900000001] [0.00021944138888888888:0.55860200416666672] [6.7715254346572367e-09:0.68489758649723509] [0.00020063250000000002:0.88016248500000005] [0.0001:1] [0.054134722222222223:0.21484] [0.011421528470311738:0.18635994850001847]
tree_sizes=5649 6003 6003 6012 6018 6000 5989 6019 6059 6038 6017 6048 6013 6015 6041 6011 5999 6003 6022 5994 5975 6014 6013 6009 6014 6026 6007 5993 5985 6047 6037 6043 5981 6008 5982 6012 5969 6032 5983 5972 6057 6044 6039 6008 6071 5991 6081 6002 6059 6047 6041 6008 6046 6060 6084 6044 6023 6028 5998 6010 6012 6053 6033 6036 6018 6017 6034 6034 5897 5996 6023 6044 6030 5980 6026 6030 6015 3955 6009 6011 6010 6013 3949 6016 6055 5062 6127 6038 6057 6051 6000 6055 4263 6020 6046 4280 6077 5971 5243 6012 6030 3113 3937 5824 4570 4556 4421 3539 3578 5973 6038 3185 3654 4219 3931 5990 3762 6002 4397 6005 6020 5123 2986 4656 5868 2886 3507 3155 5388 6011 3588 6033 5405 4603 2915 4100 5945 5444 5564 5971 5085 4194 5023 5916 5696 6047 3179 6004 4542 4102 5138 4572 5545 3347 4919 6040 5390 6007 4690 3983 5977 6049 5990 5935 5643 6028 6049 5107 5761 5500 5986 5974 6037 6034 6042 6029 5614 6035 6062 6019 5978 6007 4888 5977 5979 6003 5958 6000 4710 5978 5795 6003 3666 3877 5999 4746 5970 5111 5994 6032 6002 6107 6038 4268 5925 6025 5984 5969 4146 4191 6066 5992 5772 6022 3760 3180 5961 6019 5578 3222 3261 5970 6030 6003 5991 3793 5954 4429 4700 6037 3858 5046 5930 5010 4420 4236 4742 4897 6075 4361 6011 5991 6004 6027 5997 4984 5687 4514 6020 5584

Tree=0
num_leaves=63
num_cat=0
split_feature=7 7 7 7 7 7 4 7 8 0 0 7 0 8 7 1 3 4 7 8 6 4 7 0 8 4 4 7 6 4 3 6 8 4 0 4 3 7 0 6 6 8 8 4 7 6 0 4 0 1 8 3 8 8 6 0 3 0 0 4 8 6
split_gain=30.5722 3.75903 2.56388 1.264 0.525364 0.465018 0.168658 0.148088 0.13237 0.131654 0.100813 0.0986327 0.0894008 0.072832 0.0618572 0.0569031 0.0554916 0.0530422 0.0515963 0.0690913 0.0505972 0.0529958 0.0700721 0.0461285 0.0453959 0.0449111 0.0432092 0.0427127 0.0421831 0.0621743 0.0411189 0.040265 0.0395567 0.0653122 0.0368709 0.0360103 0.0343727 0.034173 0.0411008 0.0357149 0.034051 0.0336541 0.0332453 0.0331133 0.0322432 0.0333179 0.0317773 0.031347 0.0305288 0.0291178 0.0281792 0.0353074 0.0277397 0.0267109 0.0263968 0.0256489 0.025317 0.0242539 0.0405446 0.0240804 0.0237457 0.0236682
threshold=0.12507916666666671 0.15216180555555558 0.091884722222222229 0.18202222222222225 0.13720277777777781 0.11304652777777781 0.0090283263009059995 0.076286111111111124 0.044934866622773087 17.500000000000004 11.500000000000002 0.15844097222222225 14.500000000000002 0.055891268287261382 0.14453125000000003 5.5000000000000009 0.0054783111111111121 0.0085630235052133567 0.099165972222222246 0.047621961801087721 0.12735000000000005 0.40740771382787555 0.1724368055555556 17.500000000000004 0.1051039367777456 0.00069911141262761695 0.080775950239719133 0.17792500000000003 0.13595000000000004 0.018830015253683524 0.0098007300000000023 0.08815000000000002 0.043964405761466881 0.0015035301976592155 16.500000000000004 0.00063648819724017834 0.0049996043055555569 0.18553055555555559 19.500000000000004 0.13425000000000004 0.22335000000000002 0.088937752883470902 0.022814896496525083 0.0018708725713621067 0.13012916666666671 0.08815000000000002 16.500000000000004 6.7741657056509032e-09 6.5000000000000009 5.5000000000000009 0.076849571182787943 0.0069128457638888896 0.040177764252579476 0.074187224480989231 0.10835000000000002 20.500000000000004 0.0019252726388888886 17.500000000000004 13.500000000000002 0.00058218398716812015 0.13282904309435409 0.08815000000000002
decision_type=2 2 2 2 2 2 2 2 2 2 2 2 2 2 2 2 2 2 2 2 2 2 2 2 2 2 2 2 2 2 2 2 2 2 2 2 2 2 2 2 2 2 2 2 2 2 2 2 2 2 2 2 2 2 2 2 2 2 2 2 2 2
left_child=2 4 7 11 12 13 17 31 46 10 14 24 30 18 32 37 49 35 19 34 27 50 -23 47 26 -12 28 56 59 -30 44 -1 33 -6 61 -5 -14 38 -8 -39 43 -16 -20 -27 45 -2 48 -9 -7 -11 53 -52 -48 -22 -49 -44 -13 58 -15 -3 -58 -4
right_child=1 3 5 6 9 8 15 23 -10 16 25 20 36 57 41 -17 -18 -19 42 -21 21 22 -24 -25 -26 40 -28 -29 29 -31 -32 -33 -34 -35 -36 -37 -38 39 -40 -41 -42 -43 55 -45 -46 -47 52 54 -50 -51 51 -53 -54 -55 -56 -57 60 -59 -60 -61 -62 -63
leaf_value=0.13601663958962118 0.14093441185989633 0.13978782466697734 0.137181076251911 0.14241290714080454 0.13963281198471203 0.13857153693749141 0.14352636836897109 0.13822035988383871 0.13763297256530377 0.13916144950930864 0.14005226049514394 0.13995800883089907 0.14011924870422326 0.13686685465058401 0.14007951305182526 0.13841123952083692 0.14007073587076663 0.14423815481731925 0.13812111085799136 0.13997203715459056 0.14066828578540455 0.14351397101339053 0.13982274870413436 0.13623202930617206 0.13936148970392717 0.14089453654313555 0.13892229869933123 0.13892695707590735 0.14046901149085336 0.14209349872911606 0.14105596748104052 0.1366665513459305 0.13910356371091093 0.1415700543189265 0.13678966539500922 0.1418921377893308 0.13875908606498891 0.13861004417166287 0.14050345321376476 0.14094534249161131 0.14223216547772369 0.13930703719517315 0.13781194062778096 0.14016023716686141 0.13937914504742507 0.13901280248466383 0.13819380063662443 0.13667954957501977 0.13900339039254789 0.13991342388571443 0.13990202291831899 0.14059778672453302 0.13961495820504341 0.14160878818384653 0.13710684164134801 0.13732232651605314 0.14053131281249831 0.13637021295206522 0.13802558881776142 0.14028259069666224 0.13964081927109029 0.13772255813143897
leaf_weight=1455 23 316 329 737 1312 1021 23 36 382 1036 999 247 48 236 1466 27 253 32 727 26 11322 36 20 490 111 291 50 48 3214 60 32 285 354 45 222 604 1437 22 22 64 30 156 1394 325 1965 1172 477 2713 683 147 269 566 37 76 417 331 1861 105 111 1109 78 522
leaf_count=1455 23 316 329 737 1312 1021 23 36 382 1036 999 247 48 236 1466 27 253 32 727 26 11322 36 20 490 111 291 50 48 3214 60 32 285 354 45 222 604 1437 22 22 64 30 156 1394 325 1965 1172 477 2713 683 147 269 566 37 76 417 331 1861 105 111 1109 78 522
internal_value=0.139464 0.140271 0.137311 0.140665 0.139527 0.137972 0.142048 0.136503 0.138493 0.13982 0.139942 0.140556 0.139124 0.137634 0.139784 0.140501 0.139399 0.142226 0.13771 0.137425 0.140621 0.140661 0.142196 0.136683 0.140361 0.140262 0.140384 0.140402 0.1404 0.140499 0.139273 0.136123 0.139574 0.139697 0.137364 0.142178 0.138803 0.140932 0.142048 0.140348 0.140587 0.140005 0.137838 0.140507 0.139255 0.13905 0.138641 0.136753 0.138745 0.139255 0.140654 0.140374 0.138296 0.140675 0.136736 0.137718 0.140435 0.137036 0.137238 0.140173 0.140495 0.137513
internal_weight=44004 32005 11999 20914 11091 6603 1531 5396 2600 6414 4978 19383 4677 4003 3333 158 1436 1373 3551 1099 14523 12289 56 3656 4860 1645 4749 2234 4699 3274 3192 1740 1711 1357 1073 1341 1485 131 45 86 646 1622 2452 616 3160 1195 2218 3166 1704 1183 12233 835 514 11398 3130 1725 2186 452 347 1425 1939 851
internal_count=44004 32005 11999 20914 11091 6603 1531 5396 2600 6414 4978 19383 4677 4003 3333 158 1436 1373 3551 1099 14523 12289 56 3656 4860 1645 4749 2234 4699 3274 3192 1740 1711 1357 1073 1341 1485 131 45 86 646 1622 2452 616 3160 1195 2218 3166 1704 1183 12233 835 514 11398 3130 1725 2186 452 347 1425 1939 851
is_linear=0
shrinkage=1


Tree=1
num_leaves=63
num_cat=0
split_feature=7 7 7 7 7 7 4 2 7 2 2 0 8 7 0 8 2 6 7 7 8 6 2 2 2 7 2 6 5 0 2 4 2 5 5 4 0 8 5 0 0 4 2 2 0 0 0 8 6 5 2 7 7 6 2 7 2 6 0 0 0 0
split_gain=27.5914 3.39252 2.31391 1.14076 0.476125 0.421746 0.152214 0.135381 0.135122 0.131571 0.117253 0.0992077 0.0902952 0.089016 0.0816374 0.0767415 0.0741656 0.0675759 0.0630766 0.057936 0.0623549 0.0567901 0.0533091 0.0762116 0.0518529 0.076528 0.139398 0.111777 0.0757601 0.0758415 0.0478881 0.0478706 0.0478212 0.0466573 0.0459974 0.0412971 0.039902 0.0389939 0.0457265 0.0361798 0.0360852 0.0344932 0.0432961 0.0341612 0.0334973 0.0374348 0.033276 0.0326897 0.0325971 0.0305563 0.0538166 0.0297624 0.0290905 0.028304 0.0274479 0.0274071 0.0261716 0.0253529 0.0246402 0.0404021 0.0245643 0.023825
threshold=0.12507916666666671 0.15216180555555558 0.091884722222222229 0.18202222222222225 0.14052986111111115 0.11491458333333333 0.0090283263009059995 0.0086135850000000017 0.071931944444444451 0.014618490000000001 0.0050618700000000004 16.500000000000004 0.047300070833684531 0.15844097222222225 16.500000000000004 0.055891268287261382 0.040500515000000008 0.08815000000000002 0.13058888888888889 0.099165972222222246 0.047621961801087721 0.11635000000000002 0.0048587250000000012 0.0050506600000000011 0.040500515000000008 0.16976319444444446 0.27136685500000007 0.14005000000000004 0.13749209000000004 19.500000000000004 0.009198760000000002 0.0085630235052133567 0.0025822500000000003 0.0005460825000000001 0.0054834575000000003 6.7741657056509032e-09 11.500000000000002 0.038776962583767886 0.014471046250000003 17.500000000000004 17.500000000000004 6.4473908241833254e-05 0.00051490500000000007 0.00050000500000000009 16.500000000000004 12.500000000000002 16.500000000000004 0.040464409006972527 0.12735000000000005 0.025842525000000002 0.019779505000000003 0.18553055555555559 0.081753472222222234 0.16255000000000003 0.023161680000000004 0.1524305555555556 0.005003355000000001 0.11785000000000002 17.500000000000004 13.500000000000002 16.500000000000004 17.500000000000004
decision_type=2 2 2 2 2 2 2 2 2 2 2 2 2 2 2 2 2 2 2 2 2 2 2 2 2 2 2 2 2 2 2 2 2 2 2 2 2 2 2 2 2 2 2 2 2 2 2 2 2 2 2 2 2 2 2 2 2 2 2 2 2 2
left_child=2 4 8 13 7 15 31 11 -1 -9 14 18 60 16 36 19 22 40 -2 20 46 54 41 -24 28 26 27 -26 37 -30 -8 32 39 -13 57 -19 43 -15 -39 -5 52 -3 -43 -6 45 -21 -4 56 -45 50 -23 -32 -10 -51 -12 -25 -20 -16 59 -17 -7 -14
right_child=1 3 5 6 10 12 30 9 17 -11 21 33 61 24 34 58 -18 35 47 44 -22 49 23 55 25 -27 -28 -29 29 -31 51 -33 -34 -35 -36 -37 -38 38 -40 -41 -42 42 -44 48 -46 -47 -48 -49 -50 53 -52 -53 -54 -55 -56 -57 -58 -59 -60 -61 -62 -63
leaf_value=-0.0033835440824857388 -0.00043052212184420082 0.0028262124616398633 -0.0018529406408725633 0.0028616867177321502 -0.00013896009684651639 -0.00065384023910392377 0.0017621161443747207 0.0048159083642531188 -0.002899132689775364 -0.00016741302237345806 0.00051102640276761075 0.00044275125265196566 -0.0013053607661277057 0.0011889690313697258 -0.00054838429056547604 -0.0024541182400476514 -0.0018108206239188665 -0.00016022995579987765 -2.4955998226140671e-05 -0.0014883321035459056 0.00048293655093472742 0.0011148210614476779 0.00036559247006531754 0.0023222953197546306 -0.0011262014612148051 -0.00040769585920030418 0.0046450486786488911 0.0025277194554089674 0.005078141265160715 0.0012783755993762593 0.00092894803510250475 0.0045357483635598333 0.0019278163477072807 -0.00071779835006017948 0.00081562749572520988 -0.0024485382835053478 0.00075243658596835412 0.00098080157837873369 0.0013962353692790822 0.0021560829171812261 -0.003212921289837307 0.00047594830329394797 0.0010737534762168483 9.406269909856751e-05 -0.0017685537023971118 -0.00088722826821637619 -0.0025403165678663992 -0.00035727319960689586 0.00056112513316293195 0.0011791294711821882 -0.0011607014423201758 -0.0011466333175063014 -0.0025597738249819868 0.0037780455109896142 -0.0010052276258331562 0.00091979435362872064 0.00039354575748939876 -1.6193107138898174e-07 -0.0029221614299616305 -0.0013463537397672286 -0.0010672659455632789 -0.0022898225834512196
leaf_weight=870 1411 26 851 879 319 1536 88 26 1507 27 85 93 132 7020 286 253 26 20 2176 1601 26 690 1013 36 50 137 25 36 24 29 39 32 233 1259 141 1391 800 6464 738 229 521 348 2336 531 849 309 222 618 1260 22 27 31 1087 20 46 1075 451 803 118 122 469 115
leaf_count=870 1411 26 851 879 319 1536 88 26 1507 27 85 93 132 7020 286 253 26 20 2176 1601 26 690 1013 36 50 137 25 36 24 29 39 32 233 1259 141 1391 800 6464 738 229 521 348 2336 531 849 309 222 618 1260 22 27 31 1087 20 46 1075 451 803 118 122 469 115
internal_value=6.63945e-13 0.000766611 -0.00204478 0.00114149 5.97144e-05 -0.00141711 0.00245541 -0.000238726 -0.00281286 0.00227724 0.000419326 -0.00026092 -0.000861671 0.00103771 0.000307396 -0.00170459 0.000852478 -0.00270316 -0.000151434 -0.00162953 -0.00193653 0.000939984 0.000866803 0.00067925 0.00109969 0.000382902 0.00135869 0.000403347 0.00111214 0.00299902 0.000985757 0.00262454 0.00257893 -0.000637968 -3.41174e-05 -0.0024161 0.000451748 0.00110511 0.00102337 0.00271585 -0.00283319 0.0010138 0.000996244 0.000337743 -0.00150724 -0.00139109 -0.00199516 -3.00801e-05 0.000422649 0.00110591 0.00102913 9.76201e-06 -0.00275693 0.00241671 -2.13987e-05 0.00096524 4.68918e-05 -0.00014414 -0.00229201 -0.00209373 -0.000750547 -0.00176371
internal_weight=44004 32005 11999 20914 11091 6603 1531 6061 5396 53 5030 6008 2252 19383 4140 4351 4860 4526 4656 3858 1099 890 4834 2124 14523 248 111 86 14275 53 158 1373 1341 1352 1230 1411 2910 14222 7202 1108 3115 2710 2684 2110 2759 1910 1073 3245 1791 759 717 70 2594 42 131 1111 2627 1089 493 375 2005 247
internal_count=44004 32005 11999 20914 11091 6603 1531 6061 5396 53 5030 6008 2252 19383 4140 4351 4860 4526 4656 3858 1099 890 4834 2124 14523 248 111 86 14275 53 158 1373 1341 1352 1230 1411 2910 14222 7202 1108 3115 2710 2684 2110 2759 1910 1073 3245 1791 759 717 70 2594 42 131 1111 2627 1089 493 375 2005 247
is_linear=0
shrinkage=0.05


Tree=2
num_leaves=63
num_cat=0
split_feature=7 7 7 7 7 7 2 4 7 8 7 0 0 2 6 7 8 2 6 7 2 2 2 7 2 6 8 2 4 2 8 4 6 2 3 0 7 2 2 6 4 2 0 8 8 2 7 8 8 7 8 0 7 7 4 7 3 8 6 8 7 0
split_gain=24.9013 3.06175 2.09077 1.02953 0.431653 0.402896 0.159901 0.137373 0.112883 0.108891 0.080337 0.076043 0.0755061 0.0669345 0.0598694 0.0596455 0.0578321 0.0563913 0.0529511 0.0497929 0.0481114 0.068781 0.0467972 0.0690666 0.125806 0.100879 0.0465817 0.043219 0.0432032 0.0431614 0.0887188 0.0477677 0.0837671 0.0431586 0.0416483 0.0392344 0.0349041 0.0345472 0.0342473 0.0317528 0.0311301 0.0390747 0.0303707 0.0294949 0.028872 0.0314364 0.028453 0.0275794 0.0412584 0.0274094 0.0271055 0.0324648 0.0276549 0.0268606 0.0248263 0.0247349 0.0246522 0.0236384 0.0235344 0.0267812 0.0231327 0.0230503
threshold=0.12507916666666671 0.15216180555555558 0.090607638888888911 0.18202222222222225 0.13757777777777783 0.11304652777777781 0.0050618700000000004 0.0090283263009059995 0.071931944444444451 0.044934866622773087 0.15844097222222225 17.500000000000004 14.500000000000002 0.040500515000000008 0.11635000000000002 0.14406319444444446 0.055891268287261382 0.0075958500000000003 0.089950000000000016 0.099165972222222246 0.0048587250000000012 0.0050506600000000011 0.040500515000000008 0.16976319444444446 0.27136685500000007 0.14005000000000004 0.048340232913720145 0.009198760000000002 0.0085630235052133567 0.006018700000000001 0.067920442367852496 0.21649925816318924 0.11735000000000002 0.0025822500000000003 0.006086734722222222 11.500000000000002 0.17558472222222224 0.00050127000000000017 0.00020001000000000003 0.08815000000000002 6.4473908241833254e-05 0.00051490500000000007 17.500000000000004 0.022814896496525083 0.040177764252579476 0.0049209350000000004 0.1166840277777778 0.043964405761466881 0.04153748276300543 0.13012916666666671 0.040177764252579476 18.500000000000004 0.1200666666666667 0.18553055555555559 0.00067049831212712141 0.1524305555555556 0.010162850069444446 0.035093251554349329 0.12285000000000001 0.038628843180065604 0.081753472222222234 9.5000000000000018
decision_type=2 2 2 2 2 2 2 2 2 2 2 2 2 2 2 2 2 2 2 2 2 2 2 2 2 2 2 2 2 2 2 2 2 2 2 2 2 2 2 2 2 2 2 2 2 2 2 2 2 2 2 2 2 2 2 2 2 2 2 2 2 2
left_child=2 4 8 10 12 16 11 28 -1 46 13 15 17 20 57 47 19 35 42 26 40 -22 29 24 25 -24 39 -9 33 30 36 54 -33 38 -13 49 -12 -14 -5 -4 -3 -42 60 -21 61 -46 -7 48 -6 -2 51 -48 -52 -29 -31 -23 -37 -8 59 -16 -10 -17
right_child=1 3 5 7 6 9 14 27 18 -11 22 34 37 -15 58 44 -18 -19 -20 43 21 55 23 -25 -26 -27 -28 53 -30 31 -32 32 -34 -35 -36 56 -38 -39 -40 -41 41 -43 -44 -45 45 -47 50 -49 -50 -51 52 -53 -54 -55 -56 -57 -58 -59 -60 -61 -62 -63
leaf_value=-0.0032143668938714519 -0.00047780243626198378 0.0026849018324775482 -0.0021840221549719123 0.0017341953643456995 0.0001805915837329549 -0.001046202242050576 0.0014398432309628169 0.0016740103640172908 -0.002753069731196902 -0.0016542386947929891 0.0010348958469822698 -0.00020311724068190946 0.00096173666588064027 -0.0017202796145843772 0.0034911238389776418 0.0004640872390671714 -0.0021818571601044455 0.0017505521787250856 -0.00231152313541302 -0.0012022974551505229 0.00034731284648817883 0.0022061805312761054 -0.0010698913368978539 -0.00038731107007370958 0.0044127962267957628 0.0024013335158744871 0.00047688133837211696 0.00088250062139988395 0.0043089609147955342 0.0026725720918168213 0.00050404365656013203 0.0051730420580133798 0.001520697979698251 0.0018314255253349876 0.00081071777196877924 0.00010212407125714249 0.002172027292502154 -0.00062769475949269664 0.0026714142179531338 -0.0016707284925873596 0.0004521508760440522 0.001020065806338928 -0.0030512932840041224 -0.0015819988527718638 0.00063181847251447235 -1.2511402269820293e-05 -0.00056036444295928225 -0.00027578946670126224 0.0022708501530966413 -0.00014629096803086365 -0.00068804403441026811 -0.0011274095504423441 0.0016410377234793627 -0.0010893016400176192 0.0011517457785881874 0.00087380463512596012 0.0018430371003757631 -0.00035156852947403798 0.0010124612573831479 0.0010214594324402836 -0.0024501163198278322 0.0008741947247422763
leaf_weight=870 1009 26 541 108 1444 566 22 88 1558 382 8878 1159 35 26 21 785 483 38 1223 727 1013 36 50 137 25 36 21 39 32 27 833 20 73 233 111 642 68 1473 1000 680 348 2336 513 1725 330 444 1287 356 24 1632 25 314 26 31 4376 1075 21 113 801 23 1058 608
leaf_count=870 1009 26 541 108 1444 566 22 88 1558 382 8878 1159 35 26 21 785 483 38 1223 727 1013 36 50 137 25 36 21 39 32 27 833 20 73 233 111 642 68 1473 1000 680 348 2336 513 1725 330 444 1287 356 24 1632 25 314 26 31 4376 1075 21 113 801 23 1058 608
internal_value=-8.20067e-14 0.00072828 -0.00194255 0.00108441 5.67287e-05 -0.00136318 0.000331705 0.00233264 -0.00269443 -0.000874538 0.00098582 0.000222474 -0.000297112 0.000809854 0.0009181 0.000329706 -0.00166734 -0.00016459 -0.00259049 -0.00160007 0.000823463 0.000645287 0.00104471 0.000363757 0.00129075 0.00038318 -0.001858 0.000936469 0.00249331 0.00105654 0.000997584 0.00118476 0.00230615 0.00244998 -0.000114506 -0.000186617 0.00104354 -0.000590805 0.00258006 -0.00189816 0.000963111 0.000946432 -0.00269953 -0.00146942 0.000507044 0.000262203 -0.000740253 0.000119021 0.000214765 -0.000272946 -0.00063543 -0.000671578 0.000499331 9.27391e-06 0.00116107 0.000916978 0.000157266 -5.96348e-05 0.00107431 0.00220016 -0.00263054 0.000643086
internal_weight=44004 32005 11999 20914 11091 6777 6241 1531 5222 2600 19383 5261 4850 4860 980 3991 4177 3342 4352 3694 4834 2124 14523 248 111 86 1242 158 1373 14275 9779 4496 93 1341 1270 3304 8946 1508 1108 1221 2710 2684 3129 2452 2167 774 2218 1824 1468 2641 1652 1601 51 70 4403 1111 663 135 845 44 2616 1393
internal_count=44004 32005 11999 20914 11091 6777 6241 1531 5222 2600 19383 5261 4850 4860 980 3991 4177 3342 4352 3694 4834 2124 14523 248 111 86 1242 158 1373 14275 9779 4496 93 1341 1270 3304 8946 1508 1108 1221 2710 2684 3129 2452 2167 774 2218 1824 1468 2641 1652 1601 51 70 4403 1111 663 135 845 44 2616 1393
is_linear=0
shrinkage=0.05


Tree=3
num_leaves=63
num_cat=0
split_feature=7 7 7 7 7 7 8 2 2 7 8 2 6 2 5 7 5 2 2 6 8 7 2 2 6 5 7 2 3 8 2 3 7 8 8 8 6 5 2 8 8 7 1 6 7 8 2 8 2 2 8 7 6 3 8 5 8 6 6 6 5 1
split_gain=22.4734 2.76323 1.88692 0.929155 0.390095 0.363614 0.120674 0.114603 0.118697 0.102805 0.0982739 0.0948449 0.0728964 0.09688 0.0921772 0.0693846 0.0628574 0.144694 0.0594733 0.0522432 0.0521935 0.0511614 0.0508002 0.0849325 0.0460231 0.0459528 0.0449381 0.0430751 0.0426581 0.04204 0.0416898 0.0419472 0.0361877 0.0358023 0.0342239 0.032492 0.0287322 0.0277075 0.0484268 0.0267466 0.0266192 0.0258148 0.0382167 0.0257612 0.0257295 0.046392 0.0254381 0.0253179 0.0239974 0.0236182 0.0225347 0.0221542 0.0220223 0.0214631 0.0204725 0.0236926 0.0199513 0.0194327 0.0263181 0.0188361 0.0170787 0.0168032
threshold=0.12507916666666671 0.15216180555555558 0.090607638888888911 0.18202222222222225 0.14052986111111115 0.11304652777777781 0.12415789516885883 0.0086135850000000017 0.014618490000000001 0.069689583333333346 0.044934866622773087 0.0050618700000000004 0.13885000000000003 0.040500515000000008 0.37542355750000006 0.13012916666666671 0.37542355750000006 0.27136685500000007 0.0034744400000000005 0.08815000000000002 0.055891268287261382 0.15422708333333338 0.00050000500000000009 0.0049769550000000008 0.11635000000000002 0.13749209000000004 0.099165972222222246 0.0020404850000000003 0.093832819097222228 0.048340232913720145 0.005003355000000001 0.010162850069444446 0.16322986111111112 0.083509644094682353 0.041980102373667526 0.039378002505460231 0.086350000000000024 0.025842525000000002 0.019779505000000003 0.029483927480145809 0.022814896496525083 0.17792500000000003 4.5000000000000009 0.15995000000000001 0.1200666666666667 0.040177764252579476 0.00020001000000000003 0.055891268287261382 0.025226215000000003 0.0050069550000000013 0.10705522607606656 0.076286111111111124 0.14045000000000005 0.0053791202083333335 0.031319128029769085 0.0050000800000000014 0.083509644094682353 0.10665000000000001 0.11485000000000002 0.093150000000000024 0.018339463750000003 2.5000000000000004
decision_type=2 2 2 2 2 2 2 2 2 2 2 2 2 2 2 2 2 2 2 2 2 2 2 2 2 2 2 2 2 2 2 2 2 2 2 2 2 2 2 2 2 2 2 2 2 2 2 2 2 2 2 2 2 2 2 2 2 2 2 2 2 2
left_child=2 4 9 12 7 20 18 15 -9 -1 44 22 13 21 32 54 17 -15 46 51 26 -3 -6 39 48 35 29 57 -8 36 31 -29 33 60 -25 -23 -4 38 -26 -24 -28 50 -43 -39 -7 59 -5 52 -13 61 -34 -11 -48 -36 55 -2 -12 -17 -59 -46 -14 -21
right_child=1 3 5 6 11 10 28 8 -10 19 56 24 14 16 -16 27 -18 -19 -20 49 -22 25 23 34 37 -27 40 30 -30 -31 -32 -33 41 -35 53 -37 -38 43 -40 -41 -42 42 -44 -45 45 -47 47 -49 -50 -51 -52 -53 -54 -55 -56 -57 -58 58 -60 -61 -62 -63
leaf_value=-0.0031254403060553037 -0.0004507627811401723 0.00032915134999964208 -0.0020935249401941021 0.0017297938489884311 -0.00015303145366798966 -0.00086809501398416283 -0.0013157415295219316 0.0045098869649406806 -0.00022336832006220465 -0.0028066644780179065 -0.0014003692397706732 0.00047173049889077148 0.00092975449316218749 -0.00093599863673206329 0.0039728031310145391 -0.0005287547563293392 -0.0025317719555459917 0.0028495544417049077 0.0015926069254236759 -0.0020935861137250525 -0.0020727642862871966 0.00098934241681563131 0.00020171652800528162 0.00028785370736175475 0.0010052134701189299 0.0028526691454944428 -0.0011421825940547956 -0.00029651959693438416 0.0011920235473067003 0.00045303721424369586 0.0001688240219253648 0.0018471874792695695 0.0010904498342680826 0.00028765210277352136 -0.00035979652393507426 0.00073294475396532227 -0.0016005831119365263 0.00094649156730156395 -0.0011533561024676872 0.00079508880555754298 -0.0015028988816662553 0.0012317908801809322 0.003269517324004097 0.0034259191460230135 -0.0012706872268204786 0.0015589858535139892 0.0015336760097661205 0.002206805232100107 -0.00095332592913311808 -0.00082566296254905566 0.00054366710579275754 -0.0025054128828644901 0.002770719513009735 0.00025408412613581708 -0.00078357067167811659 0.00050920876164502053 -0.0023344002777178374 0.0012126964765128733 0.00019876753848898764 -0.00051409525550414887 0.0014651221337894521 -0.002454475472994432
leaf_weight=696 1173 483 502 110 585 1145 28 26 27 825 312 86 7466 98 26 77 29 34 239 772 483 2385 234 1687 690 29 727 2913 43 21 629 23 5597 216 407 2564 719 20 27 1008 1725 76 33 22 90 26 38 397 45 30 195 2345 676 219 477 68 70 72 576 957 152 554
leaf_count=696 1173 483 502 110 585 1145 28 26 27 825 312 86 7466 98 26 77 29 34 239 772 483 2385 234 1687 690 29 727 2913 43 21 629 23 5597 216 407 2564 719 20 27 1008 1725 76 33 22 90 26 38 397 45 30 195 2345 676 219 477 68 70 72 576 957 152 554
internal_value=-3.40369e-13 0.000691866 -0.00184542 0.00103019 5.38922e-05 -0.00129502 0.00221601 -0.000216243 0.00209861 -0.00255971 -0.000830811 0.000379398 0.000936529 0.000784827 0.000998506 -0.000236664 -0.000424002 3.90681e-05 0.0023139 -0.00247271 -0.00158398 0.000820465 0.00027873 0.00034978 0.00084767 0.000868136 -0.00152007 -0.000129137 0.000203046 -0.0017651 -0.000200585 -0.000279726 0.000992876 0.000922438 0.000170695 0.000856507 -0.00180325 0.000997044 0.000923928 0.000683294 -0.00139595 0.00108639 0.00184872 0.00224524 -0.00070324 -0.000527323 0.00245509 0.0025269 -1.77927e-05 -0.00221298 0.00107204 -0.00258381 0.00270488 -0.000145036 -0.00050517 -0.000398162 -0.00157153 0.000222193 0.000311426 -0.000579132 0.000940437 -0.00224436
internal_weight=44004 32005 11999 20914 11091 6777 1531 6061 53 5222 2600 5030 19383 5622 13761 6008 161 132 1460 4526 4177 5461 4140 3555 890 4978 3694 4290 71 1242 3565 2936 13735 7834 2313 4949 1221 759 717 1242 2452 5901 109 42 2218 1073 1221 1111 131 1356 5792 3170 714 626 1718 1241 382 725 648 1047 7618 1326
internal_count=44004 32005 11999 20914 11091 6777 1531 6061 53 5222 2600 5030 19383 5622 13761 6008 161 132 1460 4526 4177 5461 4140 3555 890 4978 3694 4290 71 1242 3565 2936 13735 7834 2313 4949 1221 759 717 1242 2452 5901 109 42 2218 1073 1221 1111 131 1356 5792 3170 714 626 1718 1241 382 725 648 1047 7618 1326
is_linear=0
shrinkage=0.05


Tree=4
num_leaves=63
num_cat=0
split_feature=7 7 7 7 7 7 2 8 1 8 7 0 0 2 2 0 0 7 7 2 1 5 2 5 2 2 2 8 3 2 7 2 5 0 8 2 2 0 7 3 5 0 7 7 0 8 1 0 0 8 0 0 7 8 8 2 3 8 8 2 8 0
split_gain=20.2823 2.49382 1.70295 0.838562 0.353007 0.328161 0.130615 0.108908 0.0936141 0.0886922 0.0690375 0.068351 0.0670985 0.0604258 0.0536747 0.050159 0.0599514 0.0489043 0.0487072 0.0474456 0.0449994 0.0673773 0.0430665 0.0457431 0.0599215 0.0424341 0.0618185 0.0406982 0.038499 0.0378286 0.0631888 0.109921 0.0555365 0.0682186 0.0352674 0.0352037 0.0351253 0.0343456 0.0343448 0.0332034 0.0332019 0.0331872 0.0312738 0.0312696 0.0308864 0.0305979 0.0285548 0.0252768 0.0246201 0.0277387 0.0244984 0.026356 0.0226924 0.0219077 0.0215702 0.0213901 0.0292835 0.021217 0.0211366 0.0244711 0.0210973 0.0204922
threshold=0.12507916666666671 0.15216180555555558 0.090607638888888911 0.18202222222222225 0.13757777777777783 0.11304652777777781 0.0050618700000000004 0.12415789516885883 2.5000000000000004 0.044934866622773087 0.15844097222222225 19.500000000000004 15.500000000000002 0.040500515000000008 0.0034744400000000005 16.500000000000004 12.500000000000002 0.14406319444444446 0.069689583333333346 0.0075958500000000003 1.0000000180025095e-35 0.0050077125000000007 0.06334065500000001 0.028335453750000003 0.023161680000000004 0.0049209350000000004 0.0050506600000000011 0.057067635319320041 0.093832819097222228 0.040500515000000008 0.16976319444444446 0.27136685500000007 0.13749209000000004 19.500000000000004 0.040317265792096969 0.0050069550000000013 0.00050390500000000013 18.500000000000004 0.099165972222222246 0.00063194253571428557 0.0054834575000000003 14.500000000000002 0.13012916666666671 0.099165972222222246 6.5000000000000009 0.038910431234297445 4.5000000000000009 21.500000000000004 11.500000000000002 0.020191086243817921 16.500000000000004 6.5000000000000009 0.1524305555555556 0.047933288513211124 0.040177764252579476 0.00051490500000000007 0.00054326625000000012 0.019593872031950572 0.040177764252579476 0.0049769550000000008 0.05443681193411392 16.500000000000004
decision_type=2 2 2 2 2 2 2 2 2 2 2 2 2 2 2 2 2 2 2 2 2 2 2 2 2 2 2 2 2 2 2 2 2 2 2 2 2 2 2 2 2 2 2 2 2 2 2 2 2 2 2 2 2 2 2 2 2 2 2 2 2 2
left_child=2 4 8 10 12 15 11 14 35 50 13 17 19 25 37 16 27 20 -10 42 21 -6 23 24 44 55 -27 43 -9 32 31 46 36 -34 -22 47 -12 -5 -17 -14 -13 60 -2 -4 -8 -38 -31 48 -1 57 51 -7 -28 -40 -52 56 -3 -50 -19 -60 -18 -11
right_child=1 3 5 7 6 9 22 28 18 61 29 40 39 -15 -16 38 41 58 -20 -21 34 -23 -24 -25 -26 26 52 -29 -30 30 -32 -33 33 -35 -36 -37 45 -39 53 -41 -42 -43 -44 -45 -46 -47 -48 -49 49 -51 54 -53 -54 -55 -56 -57 -58 -59 59 -61 -62 -63
leaf_value=-0.0022554357387497728 -0.00037430057513353887 0.0020629717418549783 -0.0017117427555021856 0.0024695957868499183 0.00047086076815380573 -0.0007376448113123054 0.00039562026236147815 -0.0012499545301709856 -0.0029941059385930118 -0.0011050036814251347 0.00039442874152882722 -0.00029068141542311522 0.00079593247531637074 -0.0016773935752168586 0.0015129765933181954 -0.0022540700818802317 -0.00076039840832422254 0.00054394258642946906 -0.0025085318634117107 0.0016028883273975225 0.00014178697932897637 0.0033268360569005985 -0.00077694795210845767 0.0031513136250644249 -0.0012155805957638009 0.00028606574715340686 0.0020627881749684701 -0.002101402766984809 0.001132422379889122 -0.0002459420619327259 -0.00038633817910084192 0.0041370234163478018 0.0045423128874972464 0.00093856366945366417 -0.00039610083590351148 -0.00028984051483954922 0.0010336471007853553 0.0018200042779518096 -0.0015278142412373675 -0.00061643309365634678 0.00068239167532218366 -0.0013359791375807532 -6.1576445775858319e-05 -0.0013047260301391362 0.0010889357980199902 0.0008855004039960082 0.0017171963833755367 -0.0028514042955963582 -0.0014763513163320329 -0.002050437955807899 -0.0010608484337075352 -0.00033638896110704027 0.00078660998078534212 -0.0022720246253588256 0.00019234655664075872 0.00092455617643817125 0.00037899770584200816 0.00031913202588579488 0.0005504580233172292 2.3385758762175368e-06 0.00050717570891326946 -0.0018386455738310711
leaf_weight=1725 1245 28 709 963 148 1021 211 28 672 180 280 831 43 26 239 292 291 1563 2231 38 1369 24 40 22 34 1000 36 262 43 59 137 25 24 29 392 24 7015 258 746 1290 98 315 2234 1411 673 6927 27 146 76 327 477 683 1075 114 37 2364 331 21 351 485 37 202
leaf_count=1725 1245 28 709 963 148 1021 211 28 672 180 280 831 43 26 239 292 291 1563 2231 38 1369 24 40 22 34 1000 36 262 43 59 137 25 24 29 392 24 7015 258 746 1290 98 315 2234 1411 673 6927 27 146 76 327 477 683 1075 114 37 2364 331 21 351 485 37 202
internal_value=8.82479e-13 0.000657273 -0.00175315 0.000978683 5.11976e-05 -0.00123027 0.000299866 0.00210521 -0.00243172 -0.000789271 0.000889702 0.000201143 -0.00026879 0.000726581 0.00219821 -0.00150478 -0.00139785 0.000284601 -0.00262093 -0.000154295 9.74476e-05 0.000869369 0.000829848 0.000898222 0.000844227 0.000739511 0.000571261 -0.0015135 0.000192893 0.00094429 0.00033206 0.00121873 0.000954926 0.00257045 2.20527e-05 -0.00219486 0.000948906 0.00233234 -0.00178555 -0.000570873 -0.000188032 -0.000969431 -0.000173488 -0.00144085 0.00092345 0.000960041 0.000370392 -0.00221478 -0.00217153 -0.00183017 -0.000668078 -0.000576813 0.000827962 -0.00162647 -0.000970638 0.000869946 0.000510338 -0.00108764 0.000435401 0.00023247 -0.00061741 -0.00149295
internal_weight=44004 32005 11999 20914 11091 6777 6241 1531 5222 2600 19383 5261 4850 4860 1460 4177 3025 4332 2903 3517 1933 172 980 940 918 4834 2111 2382 71 14523 248 111 14275 53 1761 2319 14222 1221 1152 1333 929 643 3479 2120 884 13942 86 2295 2149 424 2218 1704 1111 860 514 2723 359 97 2399 836 328 382
internal_count=44004 32005 11999 20914 11091 6777 6241 1531 5222 2600 19383 5261 4850 4860 1460 4177 3025 4332 2903 3517 1933 172 980 940 918 4834 2111 2382 71 14523 248 111 14275 53 1761 2319 14222 1221 1152 1333 929 643 3479 2120 884 13942 86 2295 2149 424 2218 1704 1111 860 514 2723 359 97 2399 836 328 382
is_linear=0
shrinkage=0.05


Tree=5
num_leaves=63
num_cat=0
split_feature=6 2 2 5 5 5 6 2 2 2 3 8 3 3 5 2 3 5 2 3 8 3 8 6 6 8 2 3 6 5 3 3 2 8 0 5 3 8 2 3 6 8 1 6 3 0 6 6 2 5 6 6 2 6 2 5 8 8 3 0 5 3
split_gain=12.9276 1.8459 2.91199 1.36673 0.848327 0.726315 0.557011 0.293667 0.366921 0.141794 0.122159 0.112342 0.0970013 0.0709085 0.0686243 0.104253 0.0598873 0.059014 0.0652852 0.0792296 0.0658311 0.0519911 0.0831568 0.0554834 0.0500119 0.0510814 0.0582107 0.0499724 0.0488259 0.0466736 0.0454857 0.0451707 0.0525563 0.0420414 0.0367845 0.0880153 0.0360175 0.0356956 0.0355004 0.0352052 0.0322555 0.0321205 0.0317027 0.0335161 0.0302169 0.0289266 0.0483121 0.0287612 0.0239078 0.0225199 0.0220173 0.0209359 0.0206373 0.0188529 0.018627 0.0185117 0.0168757 0.0168163 0.0167426 0.0159513 0.0155792 0.0389564
threshold=0.10595 0.0049769550000000008 0.0050069550000000013 0.0050000012500000012 0.0049999750000000011 0.0050000012500000012 0.087250000000000008 0.00049762000000000016 0.00050568000000000011 0.0055300550000000007 0.0050000018750000009 0.020995652454241221 0.0050000018750000009 0.0050703336805555561 0.13749209000000004 0.040500515000000008 0.0049996043055555569 0.0061887962500000006 0.06334065500000001 0.06603945708333335 0.079439182094534141 0.0051874209722222227 0.043964405761466881 0.12235000000000001 0.17025000000000004 0.046410985894398592 0.0010510850000000002 0.0092590102083333348 0.074150000000000008 0.0050060912500000006 0.0050001162500000014 0.012027464930555558 0.0086135850000000017 0.041980102373667526 19.500000000000004 0.04037705375000001 0.0050029679166666676 0.14581532001578681 0.00050033500000000008 0.093832819097222228 0.070050000000000015 0.05443681193411392 1.0000000180025095e-35 0.17525000000000004 0.0050165468750000006 11.500000000000002 0.12235000000000001 0.10665000000000001 0.015095845000000002 0.37542355750000006 0.08345000000000001 0.13805000000000003 0.0050506600000000011 0.12735000000000005 0.0099509750000000025 0.0042401475000000011 0.030273964802980471 0.058619833441784217 0.00083758347222222241 18.500000000000004 0.00051500625000000012 0.00053300729166666668
decision_type=2 2 2 2 2 2 2 2 2 2 2 2 2 2 2 2 2 2 2 2 2 2 2 2 2 2 2 2 2 2 2 2 2 2 2 2 2 2 2 2 2 2 2 2 2 2 2 2 2 2 2 2 2 2 2 2 2 2 2 2 2 2
left_child=3 7 5 4 38 10 11 -2 60 29 16 40 -8 28 15 42 -3 -5 27 20 -20 22 23 -12 -10 -26 -27 -19 -13 30 -4 32 -29 36 35 -33 -32 -16 -1 51 -6 -18 48 -44 -24 -23 -47 -7 -11 -39 -36 -17 -31 -49 55 -40 -30 -14 -28 -21 -9 -62
right_child=1 2 9 17 6 47 12 8 24 14 21 13 57 -15 37 39 41 18 19 59 -22 45 44 -25 25 26 58 31 56 52 33 34 -34 -35 50 -37 -38 49 54 -41 -42 -43 43 -45 -46 46 -48 53 -50 -51 -52 -53 -54 -55 -56 -57 -58 -59 -60 -61 61 -63
leaf_value=-0.0003897895615689937 0.0021235977268251765 0.0011238582106199357 0.00083493499896656524 -0.00014765708273946018 -0.0026311700825101219 0.0016591569100837074 -0.0017197809814562155 6.8454682844873018e-05 0.00089530638621351669 0.00075358691834228014 -0.00080547525034320325 -0.0021678063074416333 -0.0011155085586125979 0.00067228001542389397 0.0036296640177059802 -0.0013538540818564867 -0.001298408776329703 0.0003556412492448894 -0.00049167519383546375 -0.0010946789981971961 0.0029328182724344988 -0.00029762395058794962 -0.0016743797382309238 -0.00045568701781247478 0.0010087035862109985 0.0020472141254950262 0.0020131178146970095 0.0011908477047241335 -0.0019265706661076517 0.00042571385101873187 -0.00075080307547120782 0.0008250504675416802 0.0046469451523576443 -0.0008578188110780167 -0.001326444636360975 0.0043446920589422398 0.00034958391727482054 0.00040077970382602262 0.00046648755350756999 0.0016327420216319815 -0.0022282482116188942 0.00072438132134266208 0.00090946283248713585 0.0011700886468972794 -0.00091633078489394392 0.0029917374168871905 0.00016559500600710783 -3.4278393150505816e-05 -0.00014616724489847335 0.0024556475047332548 0.00088018235043049438 -0.00012465207086643205 0.00080436119571270545 0.00020474012935713318 -0.00087096335330937545 0.0016242432799070884 -0.0015875573964929718 -0.0016394911235671095 0.0011405195158982024 -0.0028436352435330103 0.0025427961652167144 0.00031134955374402073
leaf_weight=159 486 27 227 491 1110 31 1127 919 7263 741 1846 1921 2127 25 33 53 1048 182 36 32 23 162 234 2938 3260 265 59 22 902 569 87 78 22 114 20 23 512 24 301 21 899 20 3694 1852 300 20 62 1200 82 30 26 100 979 2640 23 39 619 165 805 22 20 887
leaf_count=159 486 27 227 491 1110 31 1127 919 7263 741 1846 1921 2127 25 33 53 1048 182 36 32 23 162 234 2938 3260 265 59 22 902 569 87 78 22 114 20 23 512 24 301 21 899 20 3694 1852 300 20 62 1200 82 30 26 100 979 2640 23 39 619 165 805 22 20 887
internal_value=2.43031e-12 0.000476584 0.000164186 -0.00154108 -0.00172576 -0.00040232 -0.00184072 0.000916098 0.000872557 0.000818296 -0.000719008 -0.00215336 -0.00133998 -0.00198097 0.000939083 0.000920533 -0.00120174 0.000238957 0.000629549 -0.00042332 0.000843297 -0.000623972 -0.000656717 -0.00059066 0.000975831 0.00110909 0.00139894 0.000948514 -0.00200024 0.000496426 0.000218517 0.00151345 0.0029189 2.22661e-05 0.00109277 0.00162655 0.000189761 0.0023341 0.000233237 -0.000286965 -0.00245087 -0.00126053 0.000953522 0.000996495 -0.00124851 8.9699e-05 0.000854898 0.000142292 0.000663939 0.00154237 -7.92207e-05 -0.000550454 0.000665181 0.000130047 0.000506132 0.000599289 -0.0017886 -0.00115323 0.00120011 -0.00180722 0.000213545 0.000360555
internal_weight=44004 33610 19646 10394 9417 10528 8895 13964 13478 9118 6657 5476 3419 3467 6630 6543 1095 977 486 113 59 5562 5318 4784 11652 4389 1129 373 3442 2488 940 191 44 713 147 101 599 87 522 174 2009 1068 6369 5546 534 244 82 3871 823 54 46 153 1548 3840 363 340 1521 2292 864 54 1826 907
internal_count=44004 33610 19646 10394 9417 10528 8895 13964 13478 9118 6657 5476 3419 3467 6630 6543 1095 977 486 113 59 5562 5318 4784 11652 4389 1129 373 3442 2488 940 191 44 713 147 101 599 87 522 174 2009 1068 6369 5546 534 244 82 3871 823 54 46 153 1548 3840 363 340 1521 2292 864 54 1826 907
is_linear=0
shrinkage=0.05


Tree=6
num_leaves=63
num_cat=0
split_feature=7 7 7 7 7 7 2 4 7 1 4 6 0 0 5 4 2 6 5 0 7 4 1 2 2 2 5 0 5 6 7 5 2 6 2 2 5 0 7 2 0 1 7 7 2 2 4 7 2 0 0 5 0 6 6 4 0 4 6 0 0 6
split_gain=16.6597 2.28786 1.19767 0.805222 0.234533 0.181469 0.131941 0.101483 0.0988256 0.0787836 0.065882 0.0633524 0.0592206 0.055994 0.053717 0.0476779 0.0449507 0.0430837 0.0507546 0.0427894 0.0406938 0.040042 0.0392368 0.0376461 0.0374893 0.0696918 0.0663482 0.0347153 0.0340076 0.0337761 0.0311575 0.0305293 0.0298599 0.0283345 0.0282485 0.0294264 0.0282001 0.0324743 0.0271448 0.0523001 0.0345753 0.0267818 0.0280798 0.0244897 0.0235657 0.0435529 0.0979729 0.0230516 0.0412592 0.0224232 0.022099 0.0217621 0.0215768 0.0215992 0.0272697 0.0196589 0.0196173 0.0191977 0.0216499 0.0311449 0.0188639 0.0187269
threshold=0.1223277777777778 0.14453125000000003 0.090607638888888911 0.18202222222222225 0.15479513888888893 0.10848333333333335 0.0050745450000000006 0.0090283263009059995 0.13012916666666671 2.5000000000000004 0.018830015253683524 0.15745000000000003 16.500000000000004 17.500000000000004 0.024505112500000006 2.1365716915832394e-05 0.017555700000000004 0.12735000000000005 0.37542355750000006 16.500000000000004 0.069689583333333346 0.0085630235052133567 5.5000000000000009 0.028200825000000002 0.040500515000000008 0.27136685500000007 0.13749209000000004 18.500000000000004 0.0062398475000000004 0.11835000000000002 0.1166840277777778 0.0016048887500000003 0.0050069550000000013 0.10415000000000001 0.0025822500000000003 0.00020001000000000003 0.019485438750000004 19.500000000000004 0.18553055555555559 0.009198760000000002 19.500000000000004 2.5000000000000004 0.17792500000000003 0.14942013888888891 0.032491425000000011 0.010603090000000001 0.0063223798609444723 0.1387791666666667 0.005125745000000001 12.500000000000002 21.500000000000004 0.0005460825000000001 11.500000000000002 0.089950000000000016 0.09395000000000002 5.788819156923118e-05 2.5000000000000004 4.9750687583148793e-05 0.10005000000000001 7.5000000000000009 11.500000000000002 0.084450000000000011
decision_type=2 2 2 2 2 2 2 2 2 2 2 2 2 2 2 2 2 2 2 2 2 2 2 2 2 2 2 2 2 2 2 2 2 2 2 2 2 2 2 2 2 2 2 2 2 2 2 2 2 2 2 2 2 2 2 2 2 2 2 2 2 2
left_child=2 6 9 4 11 15 8 21 19 32 13 23 30 29 16 -4 28 24 41 -2 -11 34 38 36 26 -26 31 57 -13 -10 60 -6 50 -14 35 -5 37 -3 40 -40 -9 55 -43 -25 45 47 -47 -8 -49 -36 52 -15 -1 -54 -55 -19 -37 58 59 -17 -7 -21
right_child=1 3 5 7 17 12 44 22 10 20 -12 14 33 51 -16 27 -18 18 -20 61 -22 -23 -24 43 25 -27 -28 -29 -30 -31 -32 -33 -34 -35 49 56 -38 -39 39 -41 -42 42 -44 -45 -46 46 -48 48 -50 -51 -52 -53 53 54 -56 -57 -58 -59 -60 -61 -62 -63
leaf_value=-0.0020490417274222771 -0.00034455993383383397 0.00039326110313477145 -0.0012873683315435612 0.0013439671938545806 0.00012048615236759642 -0.0010365814669426596 0.00024664238550204098 0.0034346036734464376 -0.00024080066088042677 -0.0027245529325401075 0.0020822904537531679 0.00057230178599956426 -0.0015116490000829875 0.00010103361252513221 0.0027204416650420172 -0.00029029729039928715 -0.001592894517604939 0.0019750612202401765 0.0028821963193495911 -0.0018541068143566094 -0.0022807161382382268 0.0038124794034956723 -0.0010091572057852453 9.2115069492137991e-05 -0.00090377514493314827 0.0016336425847839565 0.0034890305503116302 -0.0021722738983875087 0.0011582246387640269 7.5999340657274391e-05 -0.000504995404771339 0.00071903100210796362 -0.00023810400167955474 -0.00092254171920196158 0.000460923094782984 0.0027020544582731366 0.0015815198125912703 -2.5901424373434541e-05 0.0014659705925233928 -0.0011211455736580926 0.00066202309337148272 0.00090500311204472304 0.0019728253138319198 -0.0018640334008523498 -0.0010837256722152234 0.0042500492748804393 -0.00038252300250210932 0.0030417091639329949 0.00069478631407026521 0.0017490377057811203 -0.002606195062942988 -0.00049942743853411884 -0.0019371835881013466 0.00047792306785205644 -0.0014499141565415656 0.00076938991624279614 0.0021124965184400706 -0.0016774062460857655 -0.0016960231275771984 -0.00192199312704161 -0.00057572099876749823 -0.00075867469947532898
leaf_weight=1725 1753 2688 2136 108 233 789 294 23 1157 672 35 1317 437 179 32 102 22 34 31 42 2231 32 27 32 94 38 21 278 305 3084 860 2487 24 383 41 170 45 558 56 30 22 8779 62 32 20 25 21 21 173 192 146 961 258 21 145 6042 830 642 108 41 309 549
leaf_count=1725 1753 2688 2136 108 233 789 294 23 1157 672 35 1317 437 179 32 102 22 34 31 42 2231 32 27 32 94 38 21 278 305 3084 860 2487 24 383 41 170 45 558 56 30 22 8779 62 32 20 25 21 21 173 192 146 961 258 21 145 6042 830 642 108 41 309 549
internal_value=2.81889e-12 0.000572106 -0.00165439 0.000816332 0.00074196 -0.00117768 -0.000144152 0.00192642 -0.000197372 -0.00220988 -7.99869e-05 0.000440487 -0.000879763 -9.40511e-05 0.000691522 -0.00142794 0.000652029 0.000827069 0.000861151 -0.0004686 -0.00238346 0.00206452 0.000726412 0.000315082 0.000649738 -0.000173306 0.000689374 -0.00168435 0.000682478 -1.04278e-05 -0.000730366 0.000667759 -0.00199259 -0.00123649 0.00202281 0.00212804 0.000338439 0.000321205 0.00108413 0.000563488 0.00207912 0.000856951 0.000912492 -0.000885959 0.000601319 0.000664429 0.00213518 0.000525793 0.000948835 0.00152237 -0.00201094 -0.000405145 -0.00197049 -0.00165093 -0.00120603 0.000776137 0.00221272 -0.00153245 -0.00116168 -0.000758126 -0.000906886 -0.000836523
internal_weight=44004 32697 11307 24383 22852 6085 8314 1531 7760 5222 5416 5031 2778 5381 1676 3307 1644 17821 14948 2344 2903 1373 158 3355 2873 132 2741 1171 1622 4241 1958 2720 2319 820 1341 1108 3291 3246 131 86 45 14917 8841 64 554 534 46 488 194 233 2295 1140 2149 424 166 6076 1000 893 251 143 1098 591
internal_count=44004 32697 11307 24383 22852 6085 8314 1531 7760 5222 5416 5031 2778 5381 1676 3307 1644 17821 14948 2344 2903 1373 158 3355 2873 132 2741 1171 1622 4241 1958 2720 2319 820 1341 1108 3291 3246 131 86 45 14917 8841 64 554 534 46 488 194 233 2295 1140 2149 424 166 6076 1000 893 251 143 1098 591
is_linear=0
shrinkage=0.05


Tree=7
num_leaves=63
num_cat=0
split_feature=7 7 7 7 7 7 2 4 7 8 7 3 6 8 3 8 5 8 3 6 5 8 2 2 6 8 8 8 3 8 8 5 3 2 3 6 8 2 2 8 8 4 6 5 5 6 7 3 2 2 2 4 8 7 6 7 6 2 7 2 8 8
split_gain=15.0353 2.06479 1.0809 0.726713 0.211666 0.163776 0.119076 0.0918602 0.0891901 0.084776 0.0707824 0.0594585 0.0571756 0.0515153 0.0511026 0.0909126 0.0819904 0.0473349 0.0454138 0.038883 0.045806 0.0382749 0.0845878 0.0529885 0.0438619 0.0370082 0.0497071 0.0295538 0.0298363 0.0290466 0.0287011 0.0520235 0.0401475 0.0281221 0.0318725 0.0278158 0.0257122 0.0256431 0.0251361 0.0241902 0.023317 0.0658653 0.0465363 0.0350819 0.0674205 0.0229553 0.022857 0.0222472 0.021909 0.0207777 0.0207165 0.0204893 0.0165546 0.0160336 0.0332645 0.0215289 0.0156834 0.0156714 0.0324224 0.015477 0.0151625 0.0220836
threshold=0.1223277777777778 0.14453125000000003 0.090607638888888911 0.18202222222222225 0.15479513888888893 0.10848333333333335 0.0050745450000000006 0.0095068964330250107 0.13012916666666671 0.043750809829195873 0.076286111111111124 0.012027464930555558 0.15745000000000003 0.056402410702424792 0.0080502148611111112 0.079439182094534141 0.0089853312500000008 0.041980102373667526 0.0050041994444444456 0.12735000000000005 0.37542355750000006 0.13282904309435409 0.27136685500000007 0.040500515000000008 0.10005000000000001 0.046996518990071644 0.048340232913720145 0.04153748276300543 0.002761885694444445 0.043337439077307409 0.083509644094682353 0.0067154975000000014 0.06603945708333335 0.0019729250000000004 0.0067198893750000004 0.12555000000000002 0.058619833441784217 0.10042761000000001 0.025226215000000003 0.046410985894398592 0.029662913593738748 0.00041011782517591533 0.12085000000000001 0.0050032425000000004 0.0050077125000000007 0.08815000000000002 0.1166840277777778 0.053461532499999999 0.00020001000000000003 0.0055300550000000007 0.0050069550000000013 0.00067635202368877855 0.083509644094682353 0.10019652777777778 0.097750000000000017 0.10191666666666668 0.068950000000000025 0.009198760000000002 0.18553055555555559 0.017555700000000004 0.071031756677233285 0.055891268287261382
decision_type=2 2 2 2 2 2 2 2 2 2 2 2 2 2 2 2 2 2 2 2 2 2 2 2 2 2 2 2 2 2 2 2 2 2 2 2 2 2 2 2 2 2 2 2 2 2 2 2 2 2 2 2 2 2 2 2 2 2 2 2 2 2
left_child=2 6 10 4 12 18 8 33 39 29 45 17 13 25 49 16 -16 27 60 21 30 22 23 -6 37 38 -27 28 -10 46 32 -32 -21 34 48 -29 53 -23 -3 -2 41 -8 59 -44 -45 -1 -7 -26 -5 -14 56 -19 -11 -20 55 -55 -12 -9 -59 -42 61 -4
right_child=1 3 5 7 19 9 40 57 11 52 50 -13 14 -15 15 -17 -18 51 36 20 -22 24 -24 -25 47 26 -28 35 -30 -31 31 -33 -34 -35 -36 -37 -38 -39 -40 -41 42 -43 43 44 -46 -47 -48 -49 -50 -51 -52 -53 -54 54 -56 -57 -58 58 -60 -61 -62 -63
leaf_value=-0.0024401690131479383 -0.00040347104926272397 0.00034422381811728101 -0.0012069835929141343 0.0013586258729562609 0.00066395094296228254 -0.00086007182183734862 0.00063056177266564476 0.001113132890242589 0.00019521077314509143 -0.0012378951330310009 -0.0021402130490755385 0.0019781759329738895 0.00047998302717886773 -0.00021649844957274511 0.0034429213489056568 0.0045989262114744635 0.0005872332537077338 -0.00056725298671298798 -0.0016923491781652149 0.00082699533698214495 0.0027380865303829553 -0.00030079121463045128 0.0038126624300188964 -0.00068353288085199902 -0.00054492993170545865 0.003016282554433149 0.00070988547434592349 0.00015798627237717695 -0.00010917847808790977 0.001203498240793124 -2.0783125935363196e-05 0.00082569133233705494 0.0028737368348326227 0.0015441016226170879 0.0040413483022712178 0.0026382222783286127 -0.0021715399068010311 -0.0027434807784051042 -0.0012484345780976584 -0.0010638926812896749 -0.00023571113361797941 0.0035873468013723261 0.00010610906772736569 0.0030348555789788483 0.00064696021400610637 -0.0019494505814049931 -0.00053472953289389281 0.0014974593541895349 0.002104125117613142 0.0010317522900203848 -0.00063845620474051526 -3.9598993641762691e-07 -0.0019029921467981149 0.0002458906652847011 -0.0017526853172438999 -0.0010741745830499428 -0.0019093671089657331 0.00079476125911475185 -0.001572206405841786 -0.0017448650890677844 -0.00042833310696456972 -0.0018792744531170823
leaf_weight=1455 2196 2738 2023 110 2680 1176 104 49 1053 467 1063 35 1274 423 30 20 155 652 530 14106 31 21 21 75 24 28 141 26 3419 20 284 503 24 343 20 20 177 22 25 148 65 23 155 37 147 285 998 30 947 197 29 211 117 38 186 165 2390 39 23 23 58 130
leaf_count=1455 2196 2738 2023 110 2680 1176 104 49 1053 467 1063 35 1274 423 30 20 155 652 530 14106 31 21 21 75 24 28 141 26 3419 20 284 503 24 343 20 20 177 22 25 148 65 23 155 37 147 285 998 30 947 197 29 211 117 38 186 165 2390 39 23 23 58 130
internal_value=-7.91801e-14 0.000543501 -0.00157167 0.000775516 0.000704862 -0.00111879 -0.000136944 0.0018301 -0.000187503 -0.000835775 -0.00209938 -7.59875e-05 0.000418463 0.000299328 0.000656946 0.00139652 0.00105032 -8.93486e-05 -0.00135654 0.000785715 0.000818094 0.000617251 0.000651365 0.000627268 -0.000359049 0.000373746 0.00109201 -2.45357e-05 -3.75054e-05 -0.00069327 0.000814104 0.000520229 0.000830472 0.00193839 0.00206396 0.00123635 -0.00161971 -0.00155054 0.000329813 -0.00044517 0.000571253 0.00116604 0.000394348 0.000660294 0.00112713 -0.00235979 -0.00071072 0.000589731 0.00202654 0.000553877 -0.00196926 -0.000428659 -0.00137114 -0.00151343 -0.00126965 -0.000827069 -0.00198043 0.000444851 -8.33074e-05 -0.000630149 -0.00122609 -0.00124758
internal_weight=44004 32697 11307 24383 22852 6085 8314 1531 7760 2778 5222 5416 5031 3355 1676 205 185 5381 3307 17821 14948 2873 2776 2755 97 2932 169 4518 4472 2194 14917 787 14130 1420 1077 46 1096 43 2763 2344 554 127 427 339 184 1740 2174 54 1057 1471 3482 863 584 919 389 203 3453 111 62 88 2211 2153
internal_count=44004 32697 11307 24383 22852 6085 8314 1531 7760 2778 5222 5416 5031 3355 1676 205 185 5381 3307 17821 14948 2873 2776 2755 97 2932 169 4518 4472 2194 14917 787 14130 1420 1077 46 1096 43 2763 2344 554 127 427 339 184 1740 2174 54 1057 1471 3482 863 584 919 389 203 3453 111 62 88 2211 2153
is_linear=0
shrinkage=0.05


Tree=8
num_leaves=63
num_cat=0
split_feature=4 4 2 4 5 2 4 5 2 3 8 2 2 2 2 2 5 2 0 3 4 8 2 2 2 8 0 0 0 0 3 5 4 2 3 5 4 8 8 0 1 5 2 0 0 5 8 0 8 4 1 8 5 4 4 0 8 5 5 0 1 5
split_gain=10.1172 1.45301 0.841354 0.832734 0.479877 0.316396 0.314899 0.287864 0.154131 0.139548 0.125617 0.10287 0.0976156 0.310447 0.117354 0.0969699 0.10385 0.155066 0.0916231 0.120831 0.0924537 0.0880446 0.0769182 0.0643584 0.0623794 0.0570058 0.0466312 0.0443014 0.0821021 0.0419219 0.0366385 0.0358694 0.0467287 0.0344906 0.0422528 0.0354599 0.0344479 0.0380005 0.0336097 0.0305979 0.0426533 0.0324786 0.0297702 0.0290994 0.0290728 0.0281572 0.0276857 0.0272417 0.0271648 0.0264739 0.0233496 0.0221218 0.0216096 0.0212502 0.0266736 0.0211416 0.0207766 0.0219153 0.0431983 0.0203972 0.020095 0.0363004
threshold=5.788819156923118e-05 0.00044173925024327312 0.0036466250000000001 6.7809765471219388e-09 0.0050000012500000012 0.0020633750000000005 6.7741657056509032e-09 0.0050000012500000012 0.00049762000000000016 0.00051220298611111118 0.042445365047781618 0.00052506500000000012 0.0044332650000000013 0.0050506600000000011 0.00050390500000000013 0.06334065500000001 0.13749209000000004 0.032491425000000011 14.500000000000002 0.0050022475694444452 1.2668725696259405e-05 0.05784718947843337 0.0053851950000000006 0.0049769550000000008 0.0050000050000000009 0.016670767291982514 6.5000000000000009 18.500000000000004 12.500000000000002 11.500000000000002 0.00063194253571428557 0.014642560000000001 0.05217015751382325 0.0014135600000000001 0.00076198548611111129 0.00083630500000000008 2.2743060117954498e-06 0.020995652454241221 0.10949102239465579 16.500000000000004 5.5000000000000009 0.0050902737500000007 0.00025737000000000004 18.500000000000004 2.5000000000000004 0.00083630500000000008 0.025237197688609939 11.500000000000002 0.05443681193411392 0.00037777587299202715 3.5000000000000004 0.039723234795465918 0.005005467500000001 0.0070473175024416074 0.0095068964330250107 19.500000000000004 0.041333516326576066 0.00074398250000000008 0.00095083500000000013 15.500000000000002 2.5000000000000004 0.00052553625000000014
decision_type=2 2 2 2 2 2 2 2 2 2 2 2 2 2 2 2 2 2 2 2 2 2 2 2 2 2 2 2 2 2 2 2 2 2 2 2 2 2 2 2 2 2 2 2 2 2 2 2 2 2 2 2 2 2 2 2 2 2 2 2 2 2
left_child=3 2 9 6 21 42 46 10 30 -2 18 -11 14 23 -10 16 29 -18 19 20 -7 24 39 -14 49 -8 -21 28 -12 -15 -3 -17 -33 34 35 -16 -20 -38 -30 -6 -41 -42 -5 47 -27 -36 -1 -25 -46 -4 -9 -26 -45 -35 -55 -23 -13 -58 -59 -50 61 -44
right_child=1 8 4 5 22 7 25 50 12 11 27 56 13 15 33 31 17 -19 36 26 -22 55 -24 43 51 44 -28 -29 38 -31 -32 32 -34 53 45 -37 37 -39 -40 40 41 -43 60 52 48 -47 -48 -49 59 -51 -52 -53 -54 54 -56 -57 57 58 -60 -61 -62 -63
leaf_value=-0.0009942758792955129 0.0017664504713742757 0.0035784950665071267 -0.00083198823041929267 0.0018548411565091187 0.00021736679312979644 -0.00088114051366078446 -0.0022574577917921497 0.00061260938998644382 8.4353891938969796e-05 0.00022386431402513616 -0.0017000599951504476 0.00078338304296854649 0.00061742690791821643 0.00062658353572264333 0.00099270562801393684 -0.0012583450079259101 0.0012838816871711366 0.006437731487676502 -0.00080965439726418372 -0.00072482810287722308 -0.001710717365734961 -0.0015052989667364912 0.0012081031604416572 0.00010717206063924578 0.00017254184762423394 -0.0013355463699509594 -0.00015150068235746659 -0.0020877867116292047 -0.00043199094169164799 0.00087603512082696567 0.0017677161302804502 0.0017964320137657018 -0.00017420715556427192 0.00078511965063168289 0.00014879994820350678 0.0038173266318626701 -0.0019229243544352298 -0.0012270644532311901 -0.001865024760850154 -0.00034863043020493862 0.00014084557261557549 0.0020480054722804308 0.0025816368885621752 -0.00068821803246579176 -0.0018552406440236033 0.0010562044297214813 -0.0002037293646213902 0.00049995080613174218 0.00037932927419509119 -0.00036328406233705583 -7.6525218735621538e-05 -0.00091900440104501822 -1.2111356453289384e-05 0.001777629988868883 0.00092635524493435938 -0.0027100877209086322 0.00069403881061589354 0.0029710652416131624 0.001009516592502122 -0.0017544361707266599 5.2713900204904016e-05 0.00015747345769728357
leaf_weight=915 262 33 2645 27 1420 2499 791 175 522 1208 550 1046 846 2499 20 57 54 20 392 688 388 134 164 1539 250 327 732 257 248 5166 182 36 183 7203 90 25 233 1242 49 596 69 33 23 143 2663 1707 126 619 24 340 413 57 681 117 431 50 78 46 72 21 531 47
leaf_count=915 262 33 2645 27 1420 2499 791 175 522 1208 550 1046 846 2499 20 57 54 20 392 688 388 134 164 1539 250 327 732 257 248 5166 182 36 183 7203 90 25 233 1242 49 596 69 33 23 143 2663 1707 126 619 24 340 413 57 681 117 431 50 78 46 72 21 531 47
internal_value=-2.50746e-13 0.000500619 -5.64502e-05 -0.00114815 -0.000398451 -0.000849354 -0.00166962 -0.000935579 0.000713417 0.00066967 -0.00102155 0.000552382 0.000700372 0.000602944 0.000814445 0.00077986 0.000812704 0.00267681 -0.000933714 -0.000806898 -0.000992632 -0.000768293 0.000164903 0.00023252 -0.000708801 -0.00187941 -0.000429282 -0.00151278 -0.00133832 0.000794707 0.00204565 -0.000141065 0.000149734 0.000854173 0.00104865 0.00256194 -0.00122627 -0.00133699 -0.000668417 8.41264e-05 -0.000186936 0.000757868 0.000230654 0.000123321 -0.00178088 0.00101076 -0.00089859 0.000219837 -0.00183465 -0.000778601 0.000128574 -3.01231e-05 -0.000129445 0.000807955 0.00110811 -0.00183269 0.000871907 0.00134433 0.00177419 -0.000616428 0.000157687 0.000953984
internal_weight=44004 30643 8470 13361 5758 8494 4867 7866 22173 2712 7278 2450 21958 11843 10115 8015 7739 74 6174 4307 2887 3476 2282 3828 3292 3826 1420 1104 847 7665 215 276 219 9593 1842 45 1867 1475 297 2118 698 102 628 2982 3035 1797 1041 2158 2708 2985 588 307 824 7751 548 184 1242 196 118 45 601 70
internal_count=44004 30643 8470 13361 5758 8494 4867 7866 22173 2712 7278 2450 21958 11843 10115 8015 7739 74 6174 4307 2887 3476 2282 3828 3292 3826 1420 1104 847 7665 215 276 219 9593 1842 45 1867 1475 297 2118 698 102 628 2982 3035 1797 1041 2158 2708 2985 588 307 824 7751 548 184 1242 196 118 45 601 70
is_linear=0
shrinkage=0.05


Tree=9
num_leaves=63
num_cat=0
split_feature=7 7 7 7 7 7 2 4 8 1 0 0 7 3 2 2 4 1 7 8 0 8 2 3 2 2 2 0 8 2 7 8 2 7 2 0 0 3 2 8 0 7 2 0 8 4 7 8 7 4 1 2 2 4 4 3 0 7 4 8 3 1
split_gain=12.3958 1.66325 0.911317 0.547358 0.243242 0.139321 0.0835506 0.0828052 0.072262 0.0636219 0.0608247 0.0524332 0.0469585 0.0432572 0.042041 0.0402221 0.0354915 0.0346291 0.0332803 0.0332144 0.0320312 0.0298013 0.0297807 0.0294507 0.0292703 0.0550694 0.0286499 0.0270595 0.0265211 0.026052 0.0551707 0.048261 0.0469129 0.0288188 0.0258361 0.0250092 0.0239785 0.0277233 0.0238999 0.0236169 0.0231784 0.0231773 0.0414006 0.0303985 0.0231118 0.0228828 0.0213693 0.0207654 0.0198206 0.0194128 0.0191243 0.0190169 0.0201606 0.0183563 0.0365842 0.0175467 0.017059 0.017051 0.0169313 0.0379096 0.0163146 0.0156136
threshold=0.1223277777777778 0.15216180555555558 0.090607638888888911 0.18202222222222225 0.13757777777777783 0.10848333333333335 0.0050263450000000006 0.0090283263009059995 0.043750809829195873 2.5000000000000004 16.500000000000004 19.500000000000004 0.15985833333333335 0.0050041994444444456 0.040500515000000008 0.0086135850000000017 0.0085630235052133567 5.5000000000000009 0.069689583333333346 0.049047105234516344 15.500000000000002 0.040177764252579476 0.00050000500000000009 0.0054317470138888898 0.0043550100000000012 0.0050506600000000011 0.06334065500000001 10.500000000000002 0.043337439077307409 0.0071950600000000005 0.16024791666666668 0.067920442367852496 0.0072963250000000002 0.17558472222222224 0.00068720000000000012 6.5000000000000009 19.500000000000004 0.093832819097222228 0.0050069550000000013 0.042282072005360556 2.5000000000000004 0.18553055555555559 0.009198760000000002 19.500000000000004 0.033678167449837863 0.013941806793261307 0.13058888888888889 0.083509644094682353 0.1166840277777778 6.774165810181565e-09 1.0000000180025095e-35 0.0099509750000000025 0.00020001000000000003 0.0015035301976592155 0.0017237385575961902 0.010162850069444446 21.500000000000004 0.14406319444444446 4.9750687583148793e-05 0.028914852159345198 0.0074489476388888897 5.5000000000000009
decision_type=2 2 2 2 2 2 2 2 2 2 2 2 2 2 2 2 2 2 2 2 2 2 2 2 2 2 2 2 2 2 2 2 2 2 2 2 2 2 2 2 2 2 2 2 2 2 2 2 2 2 2 2 2 2 2 2 2 2 2 2 2 2
left_child=2 4 9 12 10 13 11 16 28 38 15 19 14 -4 24 46 40 41 -11 53 58 -14 -12 -21 34 61 35 -27 48 31 -31 33 -32 -23 44 39 37 -37 49 -8 -5 43 -43 -9 -3 -13 -2 -24 -7 -1 -36 52 -42 57 -55 -48 -51 -6 59 -15 -33 -26
right_child=1 3 5 7 6 8 26 17 -10 18 22 45 21 20 -16 -17 -18 -19 -20 23 -22 29 47 -25 25 27 -28 -29 -30 30 32 60 -34 -35 50 36 -38 -39 -40 -41 51 42 -44 -45 -46 -47 55 -49 -50 56 -52 -53 -54 54 -56 -57 -58 -59 -60 -61 -62 -63
leaf_value=-0.00044731597279615959 -0.0002652102005745002 0.00070691046323717241 -0.0011031848399881195 0.0022830239708730902 0.00012258862258401811 -0.00077437496941175897 0.00063584357335834299 0.0031137745017590732 -0.0012444673626953162 -0.002376061853472796 0.0010693074557287941 -0.00024947414536156492 0.00082001933052446095 0.00039847935801266105 -0.0012559717699919166 0.0016653675810366329 0.0034416965062064268 -0.0010431421565958434 -0.0019746848298787464 -0.00038079167012298521 -0.0018738391174459444 0.00065818327097979818 -0.00051672393133686621 0.00037146936849648211 0.00019188058735477567 0.00037971560476465034 -0.00068024170090211558 0.0008146869553731402 0.0011938125561573544 0.0031996144738513977 0.0028974905529489314 2.8759537604722628e-05 0.00075940527779037566 0.0016760246342041492 0.0005170572672885766 0.00088070451426796887 0.00015706549757970093 0.0027266942208544129 -0.00014669356072166315 -0.00035028679297954455 0.0010558486845044311 0.0012452598688209296 -0.0010565415148933728 0.00051405354103983641 7.9031762592613212e-05 0.00095923380853846761 -5.3385118062897395e-05 -0.0017182716067779711 -0.00047141243517308072 -0.0017132099753657372 0.00081388109095440809 0.0007401684681378986 0.0017871691645876425 0.002602066730667668 0.00049268176977528325 0.0012289535323226895 -0.0022719787181776068 0.0003492079265881823 -0.001435256594902 -0.0012884510643644273 0.00047730252676650111 0.00087007663422520014
leaf_weight=29 1914 283 2211 181 1563 1176 157 23 584 672 29 871 6521 44 31 31 32 27 2231 387 360 3390 1277 196 1259 535 40 1078 20 24 26 410 1937 71 709 646 115 21 24 99 104 56 30 22 304 41 2227 37 998 2120 2313 52 1004 22 313 27 146 1770 555 137 401 91
leaf_count=29 1914 283 2211 181 1563 1176 157 23 584 672 29 871 6521 44 31 31 32 27 2231 387 360 3390 1277 196 1259 535 40 1078 20 24 26 410 1937 71 709 646 115 21 24 99 104 56 30 22 304 41 2227 37 998 2120 2313 52 1004 22 313 27 146 1770 555 137 401 91
internal_value=-7.65803e-13 0.000493493 -0.00142706 0.000761166 1.83925e-05 -0.00101122 0.000232468 0.00167131 -0.00075019 -0.00191161 -0.000222684 0.000148874 0.000689277 -0.0012305 0.000581006 -0.000129005 0.00179605 0.000587338 -0.0020676 0.000222677 -0.00148735 0.000745217 -0.000515579 -0.000127887 0.000589671 0.000473215 0.000632836 0.000670416 -0.000618623 0.000667283 0.000816856 0.000597713 0.000787724 0.000679064 0.000685282 0.000683437 0.00082386 0.000938824 -0.00171635 0.000254488 0.00175678 0.000923392 0.000442306 0.0018428 0.00038174 -0.000195135 -0.000142351 -0.000550557 -0.000635296 -0.00173276 0.000744242 0.00167467 0.00171853 0.000278397 0.000631209 -3.80244e-05 -0.00174921 0.000242936 -0.0012983 -0.000878369 0.000250542 0.000237596
internal_weight=44004 32697 11307 20914 11783 6085 6241 1531 2778 5222 5542 5163 19383 3307 6603 4199 1373 158 2903 4251 1096 12780 1343 583 6572 2963 1078 1613 2194 6259 1987 4272 1963 3461 3609 1038 782 667 2319 256 1341 131 86 45 587 912 4168 1314 2174 2295 3022 1160 1108 3668 335 2254 2266 3333 736 181 811 1350
internal_count=44004 32697 11307 20914 11783 6085 6241 1531 2778 5222 5542 5163 19383 3307 6603 4199 1373 158 2903 4251 1096 12780 1343 583 6572 2963 1078 1613 2194 6259 1987 4272 1963 3461 3609 1038 782 667 2319 256 1341 131 86 45 587 912 4168 1314 2174 2295 3022 1160 1108 3668 335 2254 2266 3333 736 181 811 1350
is_linear=0
shrinkage=0.05


Tree=10
num_leaves=63
num_cat=0
split_feature=7 7 7 7 7 7 2 4 1 0 0 7 8 2 4 2 4 8 1 7 8 2 3 2 2 0 7 2 2 8 1 8 2 7 4 3 0 4 3 0 0 2 0 7 2 0 2 4 8 8 8 8 4 0 0 0 7 2 8 0 2 7
split_gain=11.1872 1.50108 0.822464 0.493991 0.219526 0.126059 0.0754338 0.0747317 0.0574188 0.0550765 0.0476103 0.04238 0.039296 0.037942 0.0376457 0.0359244 0.0320311 0.0312906 0.0312527 0.0300354 0.027112 0.0268976 0.026597 0.0264165 0.0497001 0.0258102 0.0297565 0.0659979 0.0251335 0.0442538 0.0434184 0.0683968 0.063384 0.0259705 0.0245331 0.0438241 0.0244212 0.0237567 0.0237058 0.0231856 0.0226482 0.0215697 0.0209185 0.0209175 0.037364 0.0274346 0.020455 0.0196164 0.0195351 0.0190716 0.0177123 0.0185179 0.01752 0.0175191 0.0243848 0.0303063 0.0278083 0.0169295 0.0169041 0.0192232 0.0288048 0.0162769
threshold=0.1223277777777778 0.15216180555555558 0.090607638888888911 0.18202222222222225 0.13757777777777783 0.11304652777777781 0.0050618700000000004 0.0090283263009059995 2.5000000000000004 15.500000000000002 19.500000000000004 0.15985833333333335 0.047300070833684531 0.040500515000000008 2.7536209399573133e-05 0.0086135850000000017 0.0085630235052133567 0.049047105234516344 5.5000000000000009 0.069689583333333346 0.038776962583767886 0.06334065500000001 0.0054317470138888898 0.0043550100000000012 0.0050506600000000011 6.5000000000000009 0.14756041666666669 0.0083751000000000016 0.0071950600000000005 0.067920442367852496 4.5000000000000009 0.072524993230868126 0.019779505000000003 0.17558472222222224 0.018830015253683524 0.018339807222222223 10.500000000000002 6.1013684521151174e-05 0.00063194253571428557 15.500000000000002 10.500000000000002 0.0050069550000000013 2.5000000000000004 0.18553055555555559 0.009198760000000002 19.500000000000004 0.0050506600000000011 0.013941806793261307 0.083509644094682353 0.042282072005360556 0.054022258622584564 0.052142737472043531 6.774165810181565e-09 20.500000000000004 12.500000000000002 14.500000000000002 0.097186111111111126 0.021259545000000001 0.038482180777165802 11.500000000000002 0.0060947050000000015 0.14406319444444446
decision_type=2 2 2 2 2 2 2 2 2 2 2 2 2 2 2 2 2 2 2 2 2 2 2 2 2 2 2 2 2 2 2 2 2 2 2 2 2 2 2 2 2 2 2 2 2 2 2 2 2 2 2 2 2 2 2 2 2 2 2 2 2 2
left_child=2 4 8 11 9 14 10 16 41 15 17 13 -7 23 46 40 42 61 43 -10 58 25 -19 34 -25 49 27 -27 29 33 32 -32 -30 -22 37 -36 -26 -3 -11 -16 -2 52 -5 45 -45 -9 53 -12 -40 -8 51 -44 -1 54 56 -56 -4 -28 -13 -60 -61 -6
right_child=1 3 5 7 6 12 21 18 19 38 47 20 -14 -15 39 -17 -18 22 -20 -21 28 -23 -24 24 36 26 57 -29 30 -31 31 -33 -34 -35 35 -37 -38 -39 48 -41 -42 -43 50 44 -46 -47 -48 -49 -50 -51 -52 -53 -54 -55 55 -57 -58 -59 59 60 -62 -63
leaf_value=-0.00042495025474385459 -0.00020398146307929409 0.0023109503730665893 -0.0014396245707543774 0.0021688727836670658 0.00015084034635767975 -0.00053381435047211809 0.00058994151545652032 0.0029580858617049201 -0.0022572587299128782 0.00069295640696086496 -0.00022898075394335362 0.00077339139380003979 -0.0011952200451140437 -0.0011931731564653737 -0.0011751050744086857 0.0015820991226064508 0.0032696116919396449 -0.00036083376796940716 -0.00099098507220063501 -0.0018759505933692762 0.00062687157032652134 -0.00064622961202985606 0.00034744248943025012 0.00022571622446041688 0.00036072982676380884 0.00079446749007196368 0.00060646650557884306 0.0024861591309525317 0.00082524193939193836 0.00023801508969185562 0.00081761103549635086 0.0020468918836484547 9.9097870209256667e-05 0.0015922234060806813 0.0031974478768041501 0.00045265820517670363 0.00077395260960987479 0.00062423391180823349 -0.00046909383529440148 -0.0015929146082231693 5.8138980445463401e-05 -0.00013935891232298066 0.0016877371764760795 0.0011829968685300887 -0.0010037144591721395 0.00048835085439019501 0.00044991338509134952 0.00087688178987480655 -0.0016323580173775555 -0.00034801297778568161 0.0013537802750069028 0.0027961066224088428 -0.0016617512458284769 -0.0013407868433346773 -0.00033854389553401572 -0.0009691153262601671 -0.00095397450206339933 -0.00079307410531960758 0.00079420529477082806 0.0033587960359000137 0.0010673192264221143 0.00036110383960377912
leaf_weight=29 2793 21 408 181 1638 1648 134 23 672 43 887 5861 260 31 977 31 32 393 27 2231 3721 40 200 1350 535 261 357 74 1227 811 412 156 398 71 26 33 1078 3529 1469 503 1169 24 651 56 30 22 24 42 37 91 469 40 2266 360 291 552 1062 23 67 24 32 2101
leaf_count=29 2793 21 408 181 1638 1648 134 23 672 43 887 5861 260 31 977 31 32 393 27 2231 3721 40 200 1350 535 261 357 74 1227 811 412 156 398 71 26 33 1078 3529 1469 503 1169 24 651 56 30 22 24 42 37 91 469 40 2266 360 291 552 1062 23 67 24 32 2101
internal_value=7.73183e-13 0.000468818 -0.00135571 0.000723108 1.74729e-05 -0.000960664 0.000220845 0.00158774 -0.00181603 -0.00021155 0.00014582 0.000654813 -0.000623943 0.000551956 -0.00111447 -0.000113376 0.00170625 0.000215475 0.000557971 -0.00196422 0.000707956 0.000623606 -0.000121955 0.000560187 0.000449554 0.000677641 0.000824615 0.00116815 0.000639619 0.000573249 0.000778926 0.00115523 0.000647392 0.000644946 0.000651018 0.00166223 0.000636895 0.000634212 -0.000464622 -0.0013171 -0.000126642 -0.00163053 0.00166894 0.000877222 0.000420191 0.00175066 -0.00100328 -0.000178985 -0.000497673 0.000210591 0.00159093 0.0017519 -0.00164612 -0.00101633 -0.000965826 -0.000751445 -0.00108877 0.000521757 0.000785566 0.00136567 0.00204938 0.000268991
internal_weight=44004 32697 11307 20914 11783 6085 6241 1531 5222 5542 5261 19383 1908 6603 4177 3993 1373 4332 158 2903 12780 980 593 6572 2963 940 715 335 6796 4603 2193 568 1625 3792 3609 59 1613 3550 1549 1480 3962 2319 1341 131 86 45 2697 929 1506 225 1160 691 2295 2673 2313 843 1470 380 5984 123 56 3739
internal_count=44004 32697 11307 20914 11783 6085 6241 1531 5222 5542 5261 19383 1908 6603 4177 3993 1373 4332 158 2903 12780 980 593 6572 2963 940 715 335 6796 4603 2193 568 1625 3792 3609 59 1613 3550 1549 1480 3962 2319 1341 131 86 45 2697 929 1506 225 1160 691 2295 2673 2313 843 1470 380 5984 123 56 3739
is_linear=0
shrinkage=0.05


Tree=11
num_leaves=63
num_cat=0
split_feature=4 4 2 4 5 2 4 5 2 0 3 2 2 2 2 2 5 2 8 2 2 2 2 8 8 0 3 8 5 4 2 3 2 3 5 8 0 0 0 1 5 1 8 8 0 5 2 0 8 1 0 0 8 3 0 8 1 8 5 4 8 1
split_gain=7.43726 1.06948 0.627073 0.606445 0.366126 0.23611 0.230167 0.215798 0.118082 0.101017 0.1007 0.0822334 0.0738236 0.234959 0.093842 0.0768482 0.0937423 0.136798 0.0689107 0.0638999 0.0572837 0.0489152 0.0483751 0.0447245 0.0424755 0.0738641 0.0589839 0.0422631 0.0338471 0.0426837 0.0336074 0.0331426 0.0286176 0.0341529 0.0292191 0.0279001 0.0252292 0.024523 0.0243864 0.0362396 0.0280893 0.0227306 0.022465 0.0221885 0.0220488 0.0220177 0.0219272 0.0219176 0.0214506 0.0207439 0.0197011 0.0299493 0.0282087 0.0192848 0.018672 0.0184291 0.0181736 0.0322711 0.018146 0.0179837 0.0251133 0.017071
threshold=5.788819156923118e-05 0.00044173925024327312 0.0036466250000000001 6.7809765471219388e-09 0.0050000012500000012 0.0020404850000000003 6.7741657056509032e-09 0.0050000012500000012 0.00049762000000000016 18.500000000000004 0.00051220298611111118 0.00050568000000000011 0.0044332650000000013 0.0050506600000000011 0.00050390500000000013 0.06334065500000001 0.13749209000000004 0.032491425000000011 0.058619833441784217 0.0053851950000000006 0.0050000050000000009 0.0049769550000000008 0.0050000050000000009 0.047933288513211124 0.043000614543624339 12.500000000000002 0.0050022475694444452 0.016670767291982514 0.014642560000000001 0.05217015751382325 0.040500515000000008 0.00063194253571428557 0.0014135600000000001 0.00076198548611111129 0.00083630500000000008 0.035801917411822197 2.5000000000000004 18.500000000000004 16.500000000000004 5.5000000000000009 0.0050902737500000007 4.5000000000000009 0.05443681193411392 0.025237197688609939 9.5000000000000018 0.00083630500000000008 0.00025737000000000004 11.500000000000002 0.039723234795465918 3.5000000000000004 6.5000000000000009 18.500000000000004 0.032641292960667131 0.0050330122222222232 15.500000000000002 0.041333516326576066 2.5000000000000004 0.031188639825825756 0.0050028975000000015 0.0070473175024416074 0.039049666508447746 4.5000000000000009
decision_type=2 2 2 2 2 2 2 2 2 2 2 2 2 2 2 2 2 2 2 2 2 2 2 2 2 2 2 2 2 2 2 2 2 2 2 2 2 2 2 2 2 2 2 2 2 2 2 2 2 2 2 2 2 2 2 2 2 2 2 2 2 2
left_child=3 2 10 6 18 46 43 9 31 20 -2 -12 14 21 -10 16 30 -18 22 38 24 -14 50 41 26 -26 -7 -8 -17 -30 -15 -3 33 34 -16 44 -29 47 -6 -40 -41 -11 -38 -1 -22 -35 -5 -23 -24 58 52 -52 -4 -21 -44 61 57 -48 -9 -34 -61 -13
right_child=1 8 4 5 19 7 27 49 12 23 11 55 13 15 32 28 17 -19 -20 53 35 37 48 -25 25 -27 -28 36 29 -31 -32 -33 59 45 -36 -37 42 -39 39 40 -42 -43 54 -45 -46 -47 56 -49 -50 -51 51 -53 -54 -55 -56 -57 -58 -59 -60 60 -62 -63
leaf_value=-0.0008558976401346612 0.001509860739802311 0.0032357489771322545 -0.0011406523605285493 0.0015982174659492792 0.00019344412219500325 -0.00089461458732428107 -0.0019342921017630875 0.00034216899660632726 4.6703007969263057e-05 -0.0012933703991574825 0.00014819514909677971 0.00047714453162486819 0.00052895299212377502 0.00069231152491271641 0.00084831140833557589 -0.0012355996778831214 0.0011615510003240262 0.0060023087952868082 -0.001664270741232692 0.0024764390239645517 -0.00031518937376353684 8.5733953810342069e-05 0.00018077207786263899 -0.0019541979153740187 -0.0015190991550132022 -0.00047547906064202916 -0.0005173052458929112 -0.0011090893788925026 0.0017060231576680155 -0.00017739198736139051 -0.00035087374018099259 0.0015135235342313537 0.00067199393244961542 0.00011596708269482608 0.0034123492930084468 -0.00099520669435150923 -0.0015927564724282951 -0.00013385145991722894 -0.00031653838252546947 0.0001295660294788937 0.001903179375354243 -0.00081494670972948654 0.0004865219988156848 -0.0001481739715104812 0.00056649105121261186 0.00091836838403117874 0.00021417550897054679 0.00043804636430761802 -0.00087914735579989469 -7.5787462009106168e-05 -0.00047217938552572065 -0.00086210803035983411 -0.0005309316779669738 0.00088553549360601133 -0.001555010760646491 0.0011627708513648868 4.2431684152394236e-05 0.0025975278168334625 0.0016931037029886892 0.0019344279200110275 0.00085043552883272238 0.00085935838347636444
leaf_weight=915 262 33 468 27 1420 3238 791 145 522 810 1065 627 846 7587 20 57 54 20 165 22 180 1539 250 201 514 253 1523 327 36 183 78 182 7203 90 25 85 2663 824 596 69 33 358 24 126 117 1707 49 619 59 413 1476 739 319 142 21 211 531 20 30 60 488 547
leaf_count=915 262 33 468 27 1420 3238 791 145 522 810 1065 627 846 7587 20 57 54 20 165 22 180 1539 250 201 514 253 1523 327 36 183 78 182 7203 90 25 85 2663 824 596 69 33 358 24 126 117 1707 49 619 59 413 1476 739 319 142 21 211 531 20 30 60 488 547
internal_value=-7.12936e-13 0.000429224 -4.87022e-05 -0.000984411 -0.000343957 -0.000729423 -0.00142942 -0.000803845 0.00061179 -0.000878274 0.000578169 0.000478535 0.000600373 0.000515646 0.000699575 0.000669556 0.000698794 0.00246986 -0.000667005 0.000148119 -0.000788626 0.00019339 -0.000617307 -0.00126528 -0.000829546 -0.00117485 -0.000773917 -0.00160878 -0.000150272 0.000132211 0.000681696 0.00177787 0.0007351 0.000912251 0.00227278 -0.000196459 -0.00152394 9.81897e-05 7.44942e-05 -0.000167496 0.000703382 -0.00114673 -0.00157404 -0.000770237 3.21393e-05 0.000878181 0.000204351 0.000186791 -2.16074e-05 0.00011753 -0.000678623 -0.000602273 -0.00089351 0.00109895 -0.000466193 0.000732551 0.000141627 0.000905002 0.000573758 0.000693001 0.000969121 0.000655229
internal_weight=44004 30643 8470 13361 5758 8494 4867 7867 22173 7279 2712 2450 21958 11843 10115 8015 7739 74 3476 2282 5910 3828 3311 1369 5528 767 4761 3826 276 219 7665 215 9593 1842 45 382 3035 2982 2118 698 102 1168 2708 1041 297 1797 627 2158 309 588 3002 2215 787 164 45 1385 600 69 175 7751 548 1174
internal_count=44004 30643 8470 13361 5758 8494 4867 7867 22173 7279 2712 2450 21958 11843 10115 8015 7739 74 3476 2282 5910 3828 3311 1369 5528 767 4761 3826 276 219 7665 215 9593 1842 45 382 3035 2982 2118 698 102 1168 2708 1041 297 1797 627 2158 309 588 3002 2215 787 164 45 1385 600 69 175 7751 548 1174
is_linear=0
shrinkage=0.05


Tree=12
num_leaves=63
num_cat=0
split_feature=7 7 7 7 7 0 7 4 2 4 7 6 5 8 2 8 7 4 6 8 8 8 6 5 8 2 2 2 4 6 5 8 2 6 0 0 0 8 5 4 4 6 0 8 0 2 4 2 7 4 8 7 2 5 6 6 4 8 0 8 5 7
split_gain=9.24373 1.31966 0.597145 0.473129 0.131006 0.0848126 0.0744122 0.0655461 0.0594526 0.0523777 0.0490843 0.0430681 0.0448152 0.0410719 0.0403507 0.0399833 0.0390594 0.0363562 0.0349601 0.0342218 0.033068 0.0426956 0.0302237 0.0396595 0.0376213 0.0573936 0.0505893 0.0431779 0.0293302 0.0261682 0.0260306 0.0259836 0.139073 0.0272257 0.0253784 0.0222908 0.0219173 0.0215911 0.0407069 0.0371218 0.0212377 0.0314459 0.0839367 0.020333 0.0193622 0.023761 0.0190432 0.0180625 0.0197888 0.0180173 0.0179664 0.0178043 0.0173956 0.0169531 0.0169212 0.0166002 0.024022 0.0491163 0.0159614 0.0157816 0.0151549 0.0141997
threshold=0.1200666666666667 0.14453125000000003 0.090607638888888911 0.18202222222222225 0.15479513888888893 17.500000000000004 0.10848333333333335 0.0090283263009059995 0.0050402500000000005 0.018830015253683524 0.071931944444444451 0.15745000000000003 0.024505112500000006 0.056402410702424792 0.017555700000000004 0.043964405761466881 0.13327291666666671 2.1365716915832394e-05 0.084450000000000011 0.043750809829195873 0.046996518990071644 0.048340232913720145 0.12735000000000005 0.37542355750000006 0.14581532001578681 0.27136685500000007 0.040500515000000008 0.028200825000000002 0.0085630235052133567 0.089950000000000016 0.0062398475000000004 0.032744219988846315 0.0076800800000000015 0.12135000000000001 17.500000000000004 15.500000000000002 17.500000000000004 0.083509644094682353 0.0067154975000000014 0.21649925816318924 6.7741721992981665e-09 0.093150000000000024 12.500000000000002 0.04153748276300543 17.500000000000004 0.0022214700000000006 0.0003318587937310848 0.009198760000000002 0.18553055555555559 0.0009692718456393313 0.05784718947843337 0.13681805555555557 0.00020001000000000003 0.0050001262500000013 0.14725000000000002 0.099250000000000019 4.9750687583148793e-05 0.029013943107417211 11.500000000000002 0.027635379655844287 0.0050008975000000013 0.12813680555555559
decision_type=2 2 2 2 2 2 2 2 2 2 2 2 2 2 2 2 2 2 2 2 2 2 2 2 2 2 2 2 2 2 2 2 2 2 2 2 2 2 2 2 2 2 2 2 2 2 2 2 2 2 2 2 2 2 2 2 2 2 2 2 2 2
left_child=2 5 10 4 11 8 17 28 9 15 -1 13 14 20 30 16 60 -4 -7 -8 34 -22 24 37 25 26 -6 -26 44 36 -13 32 51 -33 -3 55 -12 39 -39 -24 41 42 -31 -18 45 49 -21 -9 -49 -5 61 -10 -46 -35 -55 56 57 -19 -47 -43 -2 -20
right_child=1 3 6 7 22 18 19 47 31 -11 29 12 -14 -15 -16 -17 43 35 50 46 21 -23 23 -25 27 -27 -28 -29 -30 40 -32 33 -34 53 -36 -37 -38 38 -40 -41 -42 59 -44 -45 52 58 -48 48 -50 -51 -52 -53 -54 54 -56 -57 -58 -59 -60 -61 -62 -63
leaf_value=-0.0019985076184662184 -0.00019384396719185169 0.00033217586145509854 -0.00093963179922048527 0.0016713174880770337 0.00049620897178212346 -0.0013803402384258913 -0.00058752900591073278 0.00096599617807607342 0.00013362723454725961 0.0022592274889272328 -0.00160516723498159 0.00042372222699433296 0.0023805352844647135 -0.00024362389402249091 -0.0016356921585446054 -0.00042757661959072995 7.2826070007782798e-05 0.0016783662504167296 -0.00057472074113442643 -0.0011344863484392309 0.0027457601658950029 0.00060820907572323982 0.00064496899629143249 0.002424365952197883 0.00061967145877133594 0.0026221169006725355 -0.00074965791460445395 -0.0026264736229287731 0.0030605860516516262 -0.0014395643949093348 0.00093634129972013428 -0.0007119998627720212 0.0047446847635520886 -0.00039923039778154727 -1.2423399142305107e-05 -0.0015967836403894089 -0.001962595593708896 -9.9339084772669643e-05 0.00064943050533268043 0.0026130735728656877 -0.0015290287365753424 -0.0013656176140303014 0.0025181943462008523 0.00083681191763591628 0.00031086254029479975 0.0004200068038985423 0.00023148005617528084 0.00063929882397552817 -0.001053149832483952 0.0024779422454134638 -0.00124135269974691 0.0010450536182113202 0.0013432912679936814 0.0012485270389859093 0.00024917653146465976 -0.0014213462767943162 -0.0011609738431933186 -0.00083561689591756568 0.0014007598143365226 8.5741428483743229e-05 0.0003055434774351451 -0.00024813119032839433
leaf_weight=870 2694 2039 2136 777 2717 88 1768 88 137 24 2616 1317 32 423 22 736 2694 24 447 464 28 141 14106 31 20 31 84 21 32 37 305 69 21 49 724 387 513 284 503 24 850 295 21 90 51 54 27 39 31 76 56 88 204 71 105 305 353 102 179 20 161 1303
leaf_count=870 2694 2039 2136 777 2717 88 1768 88 137 24 2616 1317 32 423 22 736 2694 24 447 464 28 141 14106 31 20 31 84 21 32 37 305 69 21 49 724 387 513 284 503 24 850 295 21 90 51 54 27 39 31 76 56 88 204 71 105 305 353 102 179 20 161 1303
internal_value=-1.2188e-13 0.000412995 -0.0012716 0.000602682 0.000545673 -0.000110626 -0.000911282 0.00145361 -2.96819e-05 -7.21975e-05 -0.00165565 0.000320357 0.000527338 0.000216959 0.000491266 -8.09746e-05 -3.57362e-05 -0.00106238 -0.000407181 -0.000690085 0.000283408 0.00096236 0.000609281 0.000637828 0.000460756 0.000482526 0.000458846 -0.00104299 0.00156459 -0.00158712 0.000520115 0.000474127 0.000853293 0.000156866 0.000241879 -0.00128629 -0.00166377 0.000634115 0.000379226 0.000648312 -0.001391 -0.00107647 -6.58278e-06 9.75239e-05 0.00152889 0.00162095 -0.00105937 0.000489194 -0.000110214 0.00174319 -0.000359762 0.000490096 0.00113681 0.000423319 0.000652324 -0.00113302 -0.000949428 -0.000356763 0.00117346 -0.00127347 -0.000165682 -0.000331551
internal_weight=44004 33216 10788 24383 22852 8833 5566 1531 6939 6399 5222 5031 1676 3355 1644 6375 5639 3307 1894 2259 2932 169 17821 14948 2873 2832 2801 41 1373 4352 1622 540 246 294 2763 1171 3129 14917 787 14130 1223 373 58 2784 1341 1086 491 158 70 853 1806 225 255 225 176 784 479 126 233 315 2855 1750
internal_count=44004 33216 10788 24383 22852 8833 5566 1531 6939 6399 5222 5031 1676 3355 1644 6375 5639 3307 1894 2259 2932 169 17821 14948 2873 2832 2801 41 1373 4352 1622 540 246 294 2763 1171 3129 14917 787 14130 1223 373 58 2784 1341 1086 491 158 70 853 1806 225 255 225 176 784 479 126 233 315 2855 1750
is_linear=0
shrinkage=0.05


Tree=13
num_leaves=63
num_cat=0
split_feature=7 7 7 7 7 0 7 4 2 3 7 6 5 2 3 3 7 0 6 6 4 2 2 7 0 5 0 5 7 7 0 2 3 7 4 7 2 2 0 6 5 0 6 0 2 3 0 6 6 3 0 2 4 0 6 0 0 0 2 2 4 6
split_gain=8.34247 1.19099 0.538923 0.426999 0.118233 0.0768727 0.067157 0.0592659 0.0550516 0.0470518 0.0450229 0.038869 0.0404457 0.0364165 0.0393005 0.0342798 0.0342577 0.0308697 0.0301343 0.0275253 0.0295905 0.0326587 0.0275068 0.0244174 0.02352 0.0226748 0.0222236 0.0206415 0.0201703 0.0195846 0.0195597 0.0293666 0.124914 0.0260962 0.0314997 0.0254643 0.0195403 0.0208199 0.0193206 0.0189189 0.0178356 0.0178222 0.0176907 0.0174393 0.0165751 0.028261 0.0200091 0.0169216 0.016487 0.0227745 0.0158859 0.0153148 0.0146348 0.0183913 0.0144932 0.0217667 0.0143472 0.0141445 0.0139862 0.0136369 0.0133962 0.0227455
threshold=0.1200666666666667 0.14453125000000003 0.090607638888888911 0.18202222222222225 0.15479513888888893 16.500000000000004 0.10848333333333335 0.0095068964330250107 0.0050402500000000005 0.012027464930555558 0.076286111111111124 0.15745000000000003 0.024505112500000006 0.017555700000000004 0.0081789114583333353 0.0050041994444444456 0.12813680555555559 16.500000000000004 0.11835000000000002 0.17025000000000004 0.14709820443494329 0.06334065500000001 0.028200825000000002 0.17146319444444449 15.500000000000002 0.019485438750000004 18.500000000000004 0.00052553625000000014 0.13012916666666671 0.14942013888888891 6.5000000000000009 0.0083751000000000016 0.0055485631250000002 0.1395805555555556 6.1013684521151174e-05 0.14140069444444447 0.00050390500000000013 0.0033025250000000002 19.500000000000004 0.081550000000000025 0.04037705375000001 11.500000000000002 0.08815000000000002 2.5000000000000004 0.0019729250000000004 0.0067198893750000004 17.500000000000004 0.14045000000000005 0.10415000000000001 0.0050303812500000012 12.500000000000002 0.0052698350000000014 6.7741721992981665e-09 1.0000000180025095e-35 0.093150000000000024 11.500000000000002 3.5000000000000004 8.5000000000000018 0.0050069550000000013 0.0050108700000000006 4.9750687583148793e-05 0.10005000000000001
decision_type=2 2 2 2 2 2 2 2 2 2 2 2 2 2 2 2 2 2 2 2 2 2 2 2 2 2 2 2 2 2 2 2 2 2 2 2 2 2 2 2 2 2 2 2 2 2 2 2 2 2 2 2 2 2 2 2 2 2 2 2 2 2
left_child=2 5 10 4 11 8 15 44 9 18 42 22 13 14 -13 -4 39 41 -2 27 21 40 25 -22 60 38 52 -6 -20 -24 -10 33 -33 34 -32 -35 57 -38 -3 -7 -21 56 43 -1 45 46 47 -5 -19 -50 -27 -18 53 -12 55 -44 -8 -29 -54 -41 61 -17
right_child=1 3 6 7 19 16 17 -9 30 -11 26 12 -14 -15 -16 24 51 48 28 20 23 -23 29 -25 -26 50 -28 36 -30 -31 31 32 -34 35 -36 -37 37 -39 -40 59 -42 -43 54 -45 -46 -47 -48 -49 49 -51 -52 -53 58 -55 -56 -57 -58 -59 -60 -61 -62 -63
leaf_value=-0.0014084751856781137 -0.00023503720291055119 0.00026620206933118527 -0.00089592247037465476 0.00074222858167224926 0.0019149616910403386 -0.001601931198316519 -0.00042046179623015474 0.00026825275584145005 3.0369004553516107e-07 0.002146266183505456 0.00012200069516741981 0.00041583187960854829 0.0022615084840253985 -0.0015539075470190834 0.0012679503446231181 -0.00020353903920196072 -0.00026899885019805752 -0.00116685251374114 -0.00016529150110045705 0.00066816841175050925 0.0025192679577650361 -0.0009157360536681319 5.4127638941281481e-05 0.00070011411926576073 -0.0015690922261142584 0.00038019030286126176 -0.0018182408595739685 0.0006842874284895674 7.4969171821330852e-05 -0.0016951828099990964 0.0012644035544932802 0.0048012759761020011 9.6690176368885965e-05 0.0022124101705516554 -0.00019706353506200754 0.0005440482128699042 0.00062922532334647001 0.00048952975455587183 -5.7110970167197074e-05 -0.00066784022638460166 -0.00046385311241985095 -0.00025378571419458999 -0.0016017226717806245 -0.0019188126060171143 0.0011652003307378381 0.0034263014455791566 0.0011154138807713296 0.0017001697057393253 -0.00083188043730763684 0.00049622301444902114 0.0022595367951156651 0.00069873352823335505 -0.0015021267387306189 -0.0012829771359776968 -0.0016372726949507176 8.6591090075671678e-05 -0.00077561209234292819 -4.2824649423093842e-05 -0.00033574629857097398 0.00038170917912132361 -0.0011977329398733501 -0.0013321690711018165
leaf_weight=193 1936 2688 2211 49 27 52 470 111 157 24 24 1473 32 22 149 101 1537 367 1243 5943 39 33 32 35 360 22 403 92 2939 32 48 21 43 35 159 66 4272 7100 558 498 35 412 42 1262 343 20 229 779 253 37 23 42 2239 790 208 35 720 245 26 33 555 80
leaf_count=193 1936 2688 2211 49 27 52 470 111 157 24 24 1473 32 22 149 101 1537 367 1243 5943 39 33 32 35 360 22 403 92 2939 32 48 21 43 35 159 66 4272 7100 558 498 35 412 42 1262 343 20 229 779 253 37 23 42 2239 790 208 35 720 245 26 33 555 80
internal_value=4.09759e-15 0.000392345 -0.00120802 0.000572548 0.000518389 -0.000105095 -0.000865718 0.00138093 -2.11232e-05 -6.32766e-05 -0.00157287 0.000304339 0.000500971 0.000466703 0.000494109 -0.00100926 -0.000364197 -0.000655581 -7.19443e-05 0.000578817 0.000665115 0.000652882 0.000206111 0.00165886 -0.00123791 0.000226076 -0.00146909 0.000534073 3.5574e-06 -0.000820528 0.000468302 0.000665818 0.00164038 0.000463311 0.000141827 0.00112219 0.000530889 0.000542008 0.000210623 -0.000691747 0.000661541 -0.000537214 -0.00178056 -0.00185112 0.0014679 0.00156431 0.00152907 0.00164348 -0.000944201 -0.000662433 0.00134075 -0.000243258 -0.00142339 -0.00124155 -0.00142033 -0.000834307 -0.000635343 0.000155675 -0.00148874 -0.000602614 -0.00107591 -0.000702381
internal_weight=44004 33216 10788 24383 22852 8833 5566 1531 6671 6142 5222 5031 1676 1644 1622 3307 2162 2259 6118 17821 6085 6011 3355 74 1096 3291 3482 11736 4182 64 529 372 64 308 207 101 11709 11372 3246 583 5978 1602 1740 1455 1420 1077 1057 828 657 290 45 1579 3079 814 285 77 1190 337 2265 531 736 181
internal_count=44004 33216 10788 24383 22852 8833 5566 1531 6671 6142 5222 5031 1676 1644 1622 3307 2162 2259 6118 17821 6085 6011 3355 74 1096 3291 3482 11736 4182 64 529 372 64 308 207 101 11709 11372 3246 583 5978 1602 1740 1455 1420 1077 1057 828 657 290 45 1579 3079 814 285 77 1190 337 2265 531 736 181
is_linear=0
shrinkage=0.05


Tree=14
num_leaves=63
num_cat=0
split_feature=4 6 6 6 4 2 4 2 5 2 6 2 6 5 0 3 2 2 4 8 2 5 4 6 6 4 8 5 8 8 2 2 2 2 6 6 0 2 4 3 3 2 2 5 5 8 5 8 0 0 3 6 0 0 6 2 5 8 8 8 4 8
split_gain=5.47194 1.32688 0.562792 0.224054 0.197254 0.182226 0.175028 0.161023 0.125682 0.0846907 0.0790471 0.0595393 0.0557929 0.0532391 0.107795 0.0492894 0.0544823 0.049144 0.0482719 0.0669 0.0478536 0.0463237 0.0447394 0.0425902 0.0379013 0.0346421 0.0365139 0.0344849 0.0479234 0.0592653 0.0371891 0.0365455 0.0597142 0.0332153 0.0315122 0.0496325 0.0307033 0.0301966 0.0285832 0.0285727 0.0282421 0.0267336 0.0894257 0.0317072 0.0254863 0.0240851 0.0227807 0.0220894 0.0216392 0.043313 0.0190953 0.0188641 0.0185328 0.0183128 0.0181428 0.0178765 0.0176458 0.0226783 0.0375807 0.0174809 0.0165862 0.0165429
threshold=0.00010142721874126631 0.10415000000000001 0.11385000000000002 0.085450000000000012 0.00037777587299202715 0.0049769550000000008 0.00044173925024327312 0.0036466250000000001 0.0050000012500000012 0.00049762000000000016 0.092250000000000013 0.00035686000000000002 0.15795000000000003 0.13749209000000004 18.500000000000004 0.00053300729166666668 0.00052506500000000012 0.06334065500000001 6.7741741531453916e-09 0.043750809829195873 0.0050005150000000005 0.005128198750000001 6.7809765471219388e-09 0.070050000000000015 0.12135000000000001 6.7741657056509032e-09 0.05443681193411392 0.0080410662500000011 0.13282904309435409 0.12415789516885883 0.0048006500000000009 0.06334065500000001 0.0062418050000000004 0.0005976550000000001 0.066850000000000007 0.077350000000000016 20.500000000000004 0.0014135600000000001 6.7741657056509032e-09 0.00063194253571428557 0.0050158947222222238 0.0049209350000000004 0.0050151450000000012 0.0024329012500000002 0.0050001262500000013 0.043181533454684708 0.0050000012500000012 0.028636671080479553 16.500000000000004 12.500000000000002 0.00059258437500000008 0.15895000000000004 17.500000000000004 9.5000000000000018 0.21815000000000004 0.0053851950000000006 0.0050443750000000011 0.027503608720975629 0.025237197688609939 0.057067635319320041 0.00039838573220063732 0.020995652454241221
decision_type=2 2 2 2 2 2 2 2 2 2 2 2 2 2 2 2 2 2 2 2 2 2 2 2 2 2 2 2 2 2 2 2 2 2 2 2 2 2 2 2 2 2 2 2 2 2 2 2 2 2 2 2 2 2 2 2 2 2 2 2 2 2
left_child=1 3 4 23 10 11 7 15 18 39 40 -3 41 17 -15 36 -17 37 25 24 21 -9 38 61 -20 -7 -27 30 29 34 33 32 -30 53 -29 -36 54 -14 -5 -8 -2 43 52 -11 50 -26 -42 -25 49 -46 -12 -41 -43 -6 -4 -22 57 58 -32 -53 -57 -1
right_child=2 5 6 22 27 8 9 20 -10 12 44 -13 13 14 -16 16 -18 -19 19 -21 55 -23 -24 47 45 26 -28 28 31 -31 56 -33 -34 -35 35 -37 -38 -39 -40 51 46 42 -44 -45 48 -47 -48 -49 -50 -51 -52 59 -54 -55 -56 60 -58 -59 -60 -61 -62 -63
leaf_value=-0.0017182107264027968 0.00038498779345724375 0.0013136915498173896 0.00079499038199218547 -0.00073258511821326807 0.00058668654330956216 -0.00051852903278287201 0.0029053871540148097 -0.00021409437487570791 0.00011713043191955622 0.00034525541738320204 0.0001892904097725737 0.00018711378618868017 0.00087683745876973205 0.0047641827724874027 2.1147429011762143e-05 0.00015992688184291175 0.0007056924837662205 -0.00079018567072334481 -0.00054393456121106692 -0.0010809531217561134 0.0001482867554325219 0.0015972423089099014 -0.00072174380710610868 -0.001378195626910102 -0.00025010895356415946 -0.0011758694367890712 0.00095463878408606577 -0.00098548991809366271 -0.0019769387564156204 0.0028975057311721947 -0.00035248976723195461 -0.001921048008124203 0.0014661744072595063 0.00052916006418513223 0.0027159137114520292 0.00049976105425929241 0.0029305327267278563 0.0006019350279955339 -0.0012762248956752101 0.00041850200741060291 -0.0012429560575756536 0.0002009844500617939 0.00052662691552909783 0.0006302393563976308 4.7554009280906155e-05 0.0014499550632622448 0.00024763853375420528 -0.0010445859305063547 -0.0003543027083681967 0.0022788096883671421 -0.00058903054130149987 0.0020930469837402562 -0.00015512169023263318 -0.00063042085613956151 0.0021325943216652377 0.00054627013363967795 6.584100776035484e-05 -0.00048819784737057296 0.002313332459270896 0.00093794115101653074 0.0020644666359294207 -0.0014567043374632529
leaf_weight=1107 31 136 122 341 42 589 33 1809 1052 1356 91 852 1128 23 25 792 1082 61 1616 341 569 36 1815 1637 2625 475 21 32 20 28 39 33 34 461 27 393 26 8731 831 45 506 1073 3588 3483 87 21 27 712 119 29 588 77 554 117 32 179 400 475 20 57 20 1333
leaf_count=1107 31 136 122 341 42 589 33 1809 1052 1356 91 852 1128 23 25 792 1082 61 1616 341 569 36 1815 1637 2625 475 21 32 20 28 39 33 34 461 27 393 26 8731 831 45 506 1073 3588 3483 87 21 27 712 119 29 588 77 554 117 32 179 400 475 20 57 20 1333
internal_value=4.22623e-14 -0.000755954 0.000411239 -0.00121708 -0.0001732 -0.000291963 0.000495709 0.000219691 -0.000384922 0.000559373 -0.00061663 0.000342189 0.000548847 0.000632672 0.00229385 0.000550948 0.000475038 0.000624634 -0.000477777 -0.000407058 -4.07e-05 -0.000178751 -0.000877241 -0.00142905 -0.000353141 -0.000777792 -0.00108567 0.000135801 0.000469571 0.000665271 1.40195e-05 -0.000610154 0.000190947 0.000314233 0.000526991 0.000642228 0.00134125 0.000633388 -0.00111805 0.00155348 -0.00108212 0.00046574 0.000387202 0.00055038 -0.000329392 -0.000236616 -0.00116745 -0.00127708 0.000119407 0.000605368 -0.000484719 0.00130424 7.97289e-05 -0.000308921 0.00107293 0.000290946 -0.000185266 -0.00037336 0.000551179 0.0016017 0.000698853 -0.00157535
internal_weight=44004 15504 28500 7776 3599 7728 24901 4667 6740 20234 1478 988 20022 9968 48 2054 1874 9920 5688 4603 2613 1845 2987 4789 4262 1085 496 2121 567 480 1554 87 54 620 452 420 180 9859 1172 212 564 10054 5215 4839 914 2646 533 2349 235 116 679 179 1627 159 154 768 934 534 59 134 199 2440
internal_count=44004 15504 28500 7776 3599 7728 24901 4667 6740 20234 1478 988 20022 9968 48 2054 1874 9920 5688 4603 2613 1845 2987 4789 4262 1085 496 2121 567 480 1554 87 54 620 452 420 180 9859 1172 212 564 10054 5215 4839 914 2646 533 2349 235 116 679 179 1627 159 154 768 934 534 59 134 199 2440
is_linear=0
shrinkage=0.05


Tree=15
num_leaves=63
num_cat=0
split_feature=7 7 7 7 7 7 3 0 0 0 1 2 7 6 6 2 4 2 7 7 3 2 0 1 6 7 0 2 7 2 7 6 6 2 6 2 0 7 2 2 6 0 0 3 2 0 6 6 2 0 3 6 4 6 4 6 6 3 1 2 0 3
split_gain=6.86285 0.968616 0.44623 0.327571 0.142792 0.0557147 0.0532878 0.0530168 0.0512253 0.0455372 0.0420945 0.0392977 0.0599728 0.0593904 0.0318794 0.0498027 0.046713 0.0395022 0.0456449 0.0339581 0.0307538 0.0282446 0.0263723 0.0263571 0.0239175 0.0237671 0.043075 0.0254486 0.0230777 0.0278085 0.0212855 0.0220817 0.0210406 0.0223831 0.0207653 0.0206248 0.0204782 0.020088 0.0198502 0.0197358 0.0181616 0.0190204 0.0244107 0.0178316 0.0198803 0.0188192 0.0175992 0.0237315 0.0171455 0.0163092 0.0152458 0.0142726 0.0214335 0.0303628 0.0136521 0.01365 0.0135794 0.0199785 0.0126343 0.0122595 0.0121359 0.0117272
threshold=0.1200666666666667 0.15216180555555558 0.090607638888888911 0.18202222222222225 0.13757777777777783 0.10848333333333335 0.0078205986111111129 17.500000000000004 11.500000000000002 16.500000000000004 2.5000000000000004 0.0053497650000000002 0.14756041666666669 0.19745000000000004 0.13885000000000003 0.040500515000000008 0.40740771382787555 0.27136685500000007 0.16949236111111113 0.17146319444444449 0.0050041994444444456 0.0086135850000000017 16.500000000000004 5.5000000000000009 0.084450000000000011 0.17792500000000003 9.5000000000000018 0.10042761000000001 0.15422708333333338 0.032491425000000011 0.18553055555555559 0.15295000000000003 0.12605000000000002 0.00050033500000000008 0.11785000000000002 0.00050000500000000009 15.500000000000002 0.069689583333333346 0.0055746100000000015 0.023161680000000004 0.10595 11.500000000000002 13.500000000000002 0.0068080327083333341 0.0099509750000000025 17.500000000000004 0.089950000000000016 0.090750000000000011 0.0031755050000000003 11.500000000000002 0.0050001162500000014 0.099250000000000019 4.9750687583148793e-05 0.08815000000000002 0.21649925816318924 0.32695000000000002 0.10415000000000001 0.0050303812500000012 5.5000000000000009 0.0098165950000000026 3.5000000000000004 0.0050099313194444462
decision_type=2 2 2 2 2 2 2 2 2 2 2 2 2 2 2 2 2 2 2 2 2 2 2 2 2 2 2 2 2 2 2 2 2 2 2 2 2 2 2 2 2 2 2 2 2 2 2 2 2 2 2 2 2 2 2 2 2 2 2 2 2 2
left_child=2 4 10 14 9 20 43 8 32 21 46 -10 13 -13 15 28 25 -17 -19 -18 -4 40 49 30 -11 27 -27 38 -3 48 -8 -32 -6 -34 -9 -26 51 -12 -16 -14 -2 -42 -43 44 45 55 -1 -48 -30 60 -39 52 53 -22 58 -5 -24 -58 -36 -35 -7 -52
right_child=1 3 5 6 7 22 23 34 11 24 37 12 39 -15 16 17 19 18 -20 -21 36 -23 56 -25 35 26 -28 -29 29 -31 31 -33 33 59 54 -37 -38 50 -40 -41 41 42 -44 -45 -46 -47 47 -49 -50 -51 61 -53 -54 -55 -56 -57 57 -59 -60 -61 -62 -63
leaf_value=-0.0013631280392820029 -0.0003337207650443777 0.00010257656522044724 -0.00080758392504770614 0.0014303593984071193 -5.8570840942953968e-05 -0.00037962912656168673 0.0016419079890457558 -0.00041709950446431628 0.00035381963101191065 -0.001197761393927471 -0.0017941948876211559 0.001344770127083653 0.00063765742064182023 0.0043027230235747988 0.00050068749233065008 -0.00097774184061855921 0.00343966285957625 0.0025619696546345951 -0.00054294963102338137 0.00072007265301759951 -0.00075780594599885213 0.0014138431774852272 -0.0010616261435755056 -0.0010993714712510285 0.00096252614889165465 -5.3282983795865081e-05 0.0020202674591564573 -0.00091757920493061346 0.00057905078123499109 0.0019574391520431928 -0.0011289694225010665 0.00091577180916623728 -0.00016880379534409573 0.00030173019652141991 -7.5005551806302302e-05 -0.00038475843416140352 -0.0014405312648401985 -0.0013868098073232884 0.00063258260804868651 -0.00071342303272103891 -0.00012469094713177215 0.00039303312824040017 -9.8659161665597107e-05 0.0024500287102354277 0.00043269208474763825 0.00099102986415447155 0.00036020743095182948 -0.0011237774711708992 0.00038524677053937547 -0.00021225539072139391 -0.0017198494325548178 -0.0012589208652153171 -0.0009893714806409428 0.0011099129740614444 0.0011270470917224885 0.0025904710507557659 -0.00076254813560549725 0.00048136400291696194 0.00047924319467021074 -0.00060531439651784148 -0.00070626515006349828 -0.0010182638027338097
leaf_weight=1579 705 483 2211 1023 971 470 34 373 1261 90 672 112 174 20 9499 112 24 20 29 22 68 31 367 28 29 39 70 30 1786 31 23 31 318 1894 905 1387 360 1454 4077 32 2803 468 548 36 60 270 28 712 3161 412 712 283 353 32 27 26 253 37 116 38 720 65
leaf_count=1579 705 483 2211 1023 971 470 34 373 1261 90 672 112 174 20 9499 112 24 20 29 22 68 31 367 28 29 39 70 30 1786 31 23 31 318 1894 905 1387 360 1454 4077 32 2803 468 548 36 60 270 28 712 3161 412 712 283 353 32 27 26 253 37 116 38 720 65
internal_value=8.14027e-13 0.000355855 -0.00109567 0.000562936 3.80604e-06 -0.000784192 0.00126703 0.000171679 0.000250805 -0.000169052 -0.00142766 0.00048215 0.000960922 0.00179294 0.000507323 0.000407001 0.000548309 -0.00045971 0.000724364 0.00213899 -0.000914937 -9.02477e-05 -0.000592792 0.000236768 -0.000407401 0.000542974 0.00127835 0.000537082 0.000432554 0.00046457 0.000661903 4.48635e-05 0.000135959 0.000219909 -9.67176e-05 -0.000357166 -0.0011315 -0.00155454 0.000540297 0.000427781 -0.000100554 -5.7511e-05 0.000127829 0.00135148 0.00132281 0.0013633 -0.00126883 -0.00106763 0.000455215 -0.000483387 -0.00148236 -0.000980348 -0.000806317 -0.000160136 1.73115e-05 0.00145911 -0.00085956 -0.000603842 -1.20351e-05 0.00028389 -0.000577258 -0.00166116
internal_weight=44004 33216 10788 20914 12302 5566 1531 6241 4820 6061 5222 1599 338 132 19383 5622 13761 161 49 46 3307 4555 2259 116 1506 13715 109 13606 5461 4978 88 54 3221 2250 1421 1416 1096 2903 13576 206 4524 3819 1016 1415 1379 1319 2319 740 4947 1602 2231 736 453 100 1048 1049 657 290 1021 1932 1190 777
internal_count=44004 33216 10788 20914 12302 5566 1531 6241 4820 6061 5222 1599 338 132 19383 5622 13761 161 49 46 3307 4555 2259 116 1506 13715 109 13606 5461 4978 88 54 3221 2250 1421 1416 1096 2903 13576 206 4524 3819 1016 1415 1379 1319 2319 740 4947 1602 2231 736 453 100 1048 1049 657 290 1021 1932 1190 777
is_linear=0
shrinkage=0.05


Tree=16
num_leaves=63
num_cat=0
split_feature=7 7 7 7 7 0 7 3 2 3 1 8 6 8 8 3 7 8 8 6 6 6 7 8 2 6 1 6 2 3 8 6 2 7 6 0 1 6 6 7 2 8 2 8 3 7 6 6 6 8 8 8 0 0 7 3 1 2 3 8 6 8
split_gain=6.19372 0.874788 0.402723 0.330482 0.0875374 0.0604516 0.0502825 0.0480923 0.0403037 0.0411823 0.0379903 0.0355466 0.0352376 0.0350607 0.028091 0.0277553 0.0271456 0.0334987 0.0250624 0.0274145 0.0292241 0.0282521 0.0248132 0.0245383 0.115447 0.0244544 0.0237872 0.0232873 0.0221845 0.0198289 0.0699276 0.0515775 0.0195153 0.0192102 0.0199287 0.0184815 0.0181414 0.0191972 0.0196601 0.0181294 0.0166788 0.016346 0.0283019 0.0215447 0.0359819 0.0227133 0.0158832 0.0214177 0.0158222 0.0154055 0.01527 0.0141095 0.0140902 0.0204076 0.0140233 0.0148897 0.0140508 0.0138533 0.0137594 0.0130349 0.0188258 0.0262656
threshold=0.1200666666666667 0.14453125000000003 0.090607638888888911 0.18202222222222225 0.15639236111111116 17.500000000000004 0.10848333333333335 0.0078205986111111129 0.0050402500000000005 0.012027464930555558 2.5000000000000004 0.043964405761466881 0.15695000000000003 0.06653843984013455 0.083509644094682353 0.0050041994444444456 0.13681805555555557 0.041823850630717217 0.038776962583767886 0.070050000000000015 0.063250000000000015 0.076250000000000026 0.16703402777777782 0.032641292960667131 0.0076800800000000015 0.084450000000000011 5.5000000000000009 0.12135000000000001 0.0062418050000000004 0.0080502148611111112 0.079439182094534141 0.16095000000000001 0.0055746100000000015 0.18553055555555559 0.15295000000000003 15.500000000000002 1.0000000180025095e-35 0.08815000000000002 0.097750000000000017 0.069689583333333346 0.028200825000000002 0.055891268287261382 0.012166220000000002 0.053622524772004451 0.001445362152777778 0.18553055555555559 0.089950000000000016 0.090750000000000011 0.11785000000000002 0.041142399646596044 0.05784718947843337 0.043535814421644593 16.500000000000004 11.500000000000002 0.1395805555555556 0.0050173333333333346 4.5000000000000009 0.00050568000000000011 0.0050001162500000014 0.071031756677233285 0.099250000000000019 0.025942817350854869
decision_type=2 2 2 2 2 2 2 2 2 2 2 2 2 2 2 2 2 2 2 2 2 2 2 2 2 2 2 2 2 2 2 2 2 2 2 2 2 2 2 2 2 2 2 2 2 2 2 2 2 2 2 2 2 2 2 2 2 2 2 2 2 2
