tree
version=v4
num_class=1
num_tree_per_iteration=1
label_index=0
max_feature_idx=17
objective=quantile
feature_names=hour day_of_week minute fee_lag_1 fee_lag_2 fee_lag_3 fee_rolling_mean fee_rolling_std fee_rolling_p25 fee_rolling_p75 fee_rolling_p90 fee_diff_1 fee_diff_2 fee_zscore ratio_lag_1 ratio_rolling_mean ratio_rolling_std ratio_diff_1
feature_infos=[0:23] [0:6] [0:55] [0.002:0.10757177] [0.002:0.10757177] [0.002:0.10757177] [0.0020689713888888892:0.024862886388888887] [0:0.021532387530403131] [0.002:0.020816599999999998] [0.0020940925000000003:0.028429252500000002] [0.002219033:0.033301736999999998] [-0.041096589999999995:0.055417869999999994] [-0.041096589999999995:0.055417869999999994] [-2.5917331067890088:8.3674293521292888] [0.0001:1] [0.057709722222222225:0.19533333333333333] [0.010796634481108467:0.12506600995728309] [-0.88289999999999991:0.88459999999999994]
tree_sizes=5825 5161

Tree=0
num_leaves=63
num_cat=0
split_feature=4 9 4 11 11 4 15 15 13 15 5 11 13 4 13 6 6 5 8 13 8 13 11 4 11 4 13 7 16 15 4 11 9 0 6 12 9 11 15 15 9 11 4 2 17 9 16 17 11 5 0 11 15 15 11 17 15 2 9 16 7 16
split_gain=15699.8 2232.77 750.918 387.565 359.409 229.425 201.045 181.664 142.504 141.025 135.618 78.5681 74.8583 74.0281 92.9293 69.956 67.2142 61.7055 61.2908 56.3689 42.4464 42.1983 37.8184 36.6355 186.598 33.4637 30.4091 30 26.9596 24.4142 23.2714 27.7657 22.8157 22.0348 21.2673 21.2485 21.2305 20.9992 20.0616 20.9479 19.9822 27.756 19.6746 27.1601 19.5085 20.3202 18.1254 17.9638 17.9234 17.837 17.3169 16.9407 16.7356 15.5429 15.3361 15.3049 15.1787 14.9113 12.489 15.7159 11.8071 11.6218
threshold=0.0051176400000000006 0.0050000212500000011 0.0058570000000000002 -0.00012020999999999992 1.0994999999999757e-05 0.004336790000000001 0.11946388888888891 0.13826250000000004 1.2614535339254966 0.13633125000000004 0.0050022150000000008 0.00033489500000000004 -0.0800303069811059 0.004828970000000001 -0.43754684243506275 0.0050192882638888901 0.0050016619444444464 0.0050001550000000009 0.0050000075000000014 -0.06541109348175296 0.0050672437500000013 -0.16163052079196485 0.00037555500000000013 0.0068459950000000006 -0.00075343500000000011 0.0050186150000000006 -1.3801516859963889 0.0010137237105783689 0.029798853281060616 0.1532604166666667 0.0054342550000000007 0.00034814000000000031 0.0091852312500000036 18.500000000000004 0.0050328907638888896 5.9800000000000486e-06 0.0052003962500000002 1.0994999999999757e-05 0.14326736111111113 0.16330416666666669 0.005325907500000001 0.00094934500000000042 0.0050000050000000009 37.500000000000007 -0.011899999999999996 0.0065894562500000012 0.047786140156958958 -0.028399999999999998 -0.00045045500000000016 0.0050000050000000009 8.5000000000000018 7.6580000000000151e-05 0.15146319444444448 0.12991736111111116 -0.00035310499999999977 -0.046699999999999992 0.15564027777777781 27.500000000000004 0.0050020700000000008 0.034920672564749053 4.9708734735162935e-05 0.072579683487979912
decision_type=2 2 2 2 2 2 2 2 2 2 2 2 2 2 2 2 2 2 2 2 2 2 2 2 2 2 2 2 2 2 2 2 2 2 2 2 2 2 2 2 2 2 2 2 2 2 2 2 2 2 2 2 2 2 2 2 2 2 2 2 2 2
left_child=1 6 3 9 10 -6 22 12 16 -2 13 17 -4 -3 42 37 -8 29 35 21 34 28 -1 24 52 32 -22 -14 -18 33 31 47 -20 -7 -11 58 -31 -10 -16 -40 41 50 55 -44 51 -46 56 57 -26 -39 -13 -19 -9 -21 -28 -15 -36 -5 -12 -60 -55 -25
right_child=2 4 7 30 5 11 8 23 15 20 18 40 27 14 38 -17 19 44 25 53 26 -23 -24 61 48 -27 54 -29 -30 36 -32 -33 -34 -35 46 -37 -38 49 39 -41 -42 -43 43 -45 45 -47 -48 -49 -50 -51 -52 -53 -54 60 -56 -57 -58 -59 59 -61 -62 -63
leaf_value=0.004999999888241291 0.004999999888241291 0.0049079575150972228 0.004999999888241291 0.004999999888241291 0.0049249255401082334 0.004999999888241291 0.004999999888241291 0.004999999888241291 0.0049753919243812565 0.004999999888241291 0.004999999888241291 0.004999999888241291 0.0049997198861092326 0.004999999888241291 0.004999999888241291 0.0050096006365492936 0.004999999888241291 0.004999999888241291 0.0050001158844679592 0.004999999888241291 0.004999999888241291 0.004999999888241291 0.004999999888241291 0.0051935504190623758 0.0050106753828003999 0.0050011313753202556 0.0050000644056126479 0.0052830068860203029 0.004999999888241291 0.0050012709107249975 0.0050452048890292645 0.0050501199206337329 0.004999999888241291 0.004999999888241291 0.004999999888241291 0.005000089900568128 0.004999999888241291 0.004999999888241291 0.004999999888241291 0.004999999888241291 0.0050255558686330918 0.0050530549022369088 0.0050000276532955468 0.004999999888241291 0.0050003064097836614 0.0050032189115881923 0.004999999888241291 0.0050072716432623563 0.0050669008865952495 0.0050003571435809132 0.005005022895056754 0.0050005026510916654 0.004999999888241291 0.004999999888241291 0.0050054431427270177 0.004999999888241291 0.0050002098781988021 0.0050005283905193206 0.004999999888241291 0.004999999888241291 0.004999999888241291 0.0053101674187928435
leaf_weight=74800 920 1381 260 200 882 1260 18709 200 440 360 640 200 300 300 4810 330 11280 320 860 390 240 13460 200 18280 700 400 230 200 12290 220 1320 660 210 370 1360 380 990 1441 8430 510 820 270 1230 680 960 580 390 810 3640 250 310 330 320 430 550 4010 910 220 2620 2300 650 500
leaf_count=7480 92 220 26 20 108 126 2167 20 44 36 64 20 30 30 481 33 1128 32 86 39 24 1346 20 1828 70 40 23 20 1229 22 132 66 21 37 136 38 99 145 843 51 82 27 123 68 96 58 39 81 364 25 31 33 32 43 55 401 91 22 262 230 65 50
internal_value=-0.00846265 -0.0145245 0.0233528 0.0102326 -0.00351391 0.00622471 -0.0174902 0.0277459 -0.0153243 0.00147177 -0.00605751 0.00941176 0.00368421 -0.00808018 -0.00730596 -0.00354328 -0.0158311 0.00634195 -0.00022942 -0.0146364 0.00549505 -0.0150176 -0.0192133 0.0285195 0.0246502 0.00891156 0.0143137 0.015 -0.013742 0.00147887 0.0237695 0.0202116 0.00429907 -0.00251534 0.00251656 -0.00249158 0.0068595 -0.00686063 -0.0096 -0.00819911 0.0190625 0.0133333 -0.00223473 0.00198953 0.0126484 0.0157143 0.00406015 0.0157724 0.0280415 -0.0043288 0.00647059 0.00538462 -0.00365385 -0.00503401 0.0191026 -0.00410673 0.00577092 0.00738095 -0.00327338 -0.0024187 -0.00194444 0.0295208
internal_weight=203513 170943 32570 8170 36273 7512 134670 24400 59670 4960 28761 6630 760 21351 19970 2461 57209 5030 7410 38500 4040 37030 75000 23640 4860 1470 1020 500 23570 2840 3210 1890 1070 1630 3020 5940 1210 2131 13750 8940 1600 780 6220 1910 2190 1540 2660 1230 4340 1691 510 650 520 1470 780 4310 2270 420 5560 4920 1080 18780
internal_count=20750 17493 3257 817 3729 771 13764 2440 6264 496 2958 663 76 2217 1997 247 6017 503 741 3850 404 3703 7500 2364 486 147 102 50 2357 284 321 189 107 163 302 594 121 214 1375 894 160 78 622 191 219 154 266 123 434 170 51 65 52 147 78 431 227 42 556 492 108 1878
is_linear=0
shrinkage=1


Tree=1
num_leaves=63
num_cat=0
split_feature=3 9 3 10 3 3 9 5 3 3 9 5 14 7 14 6 12 2 14 8 11 16 7 3 14 17 3 11 14 14 5 14 9 12 2 12 16 14 14 12 14 5 10 10 6 7 7 17 2 14 8 16 7 7 14 11 7 1 16 14 2 9
split_gain=17508.5 1874.23 720.772 291.896 235.377 156.314 147.95 100.359 65.2362 63.3989 54.2541 52.4825 46.0971 45.414 45.0135 44.9477 43.2555 36.5251 32.1129 31.3729 31.1649 30.7545 30.321 28.3078 27.555 27.62 29.4887 24.3832 23.1389 19.965 19.6334 19.3619 18.8921 18.3462 17.838 17.7806 17.1905 16.6176 16.4513 15.5995 14.9854 13.676 13.6715 13.4364 18.8149 13.3333 13.2833 13.1946 18.3248 15.5382 12.3023 12.0477 10.9046 10.5964 12.8308 10.4555 9.99479 9.66132 9.95222 12.1803 9.44239 9.24894
threshold=0.0051111750000000008 0.0050002412500000006 0.0058570000000000002 0.0050004595000000011 0.0050031050000000007 0.0046961600000000004 0.0051925137500000015 0.0050036650000000009 0.0050005950000000009 0.0050112050000000003 0.0050710825000000008 0.0050008150000000005 0.11005000000000002 0.00017720700230676109 0.12795000000000004 0.0050003711805555575 0.00022755 42.500000000000007 0.14215000000000003 0.0050034612500000014 -0.00014239499999999978 0.029297939711194262 0.0043748204845118531 0.0054342550000000007 0.14255000000000004 0.057000000000000009 0.0053382900000000007 -2.8900000000001837e-06 0.14445000000000002 0.14635000000000004 0.0050056050000000006 0.20005000000000003 0.006847752500000001 1.0000000180025095e-35 27.500000000000004 5.9800000000000486e-06 0.033088153510594645 0.18235000000000004 0.11965000000000002 -4.8100000000000564e-06 0.12535000000000004 0.0050042150000000011 0.016150460000000002 0.0050068475000000006 0.0050225795138888899 0.0021321065990581273 0.0036024593139269367 0.072850000000000026 12.500000000000002 0.13695000000000004 0.0050113737500000009 0.052536281010549628 5.5072076990541042e-05 0.00025442519665718112 0.16525000000000004 -0.00041517999999999975 0.00042799396738376635 4.5000000000000009 0.032492930943760483 0.13495000000000004 22.500000000000004 0.0050000212500000011
decision_type=2 2 2 2 2 2 2 2 2 2 2 2 2 2 2 2 2 2 2 2 2 2 2 2 2 2 2 2 2 2 2 2 2 2 2 2 2 2 2 2 2 2 2 2 2 2 2 2 2 2 2 2 2 2 2 2 2 2 2 2 2 2
left_child=1 3 6 8 5 -3 16 10 38 21 29 47 -12 -4 46 -10 24 18 27 35 -20 40 23 31 -2 37 -27 -13 45 -7 43 32 -16 -14 -30 51 -18 41 -1 -22 60 -26 -24 -11 -45 -21 -8 48 49 -6 -50 -9 -31 54 -23 -25 -37 58 59 -17 -5 -42
right_child=2 4 13 9 11 7 14 19 15 30 12 17 33 -15 22 57 36 -19 20 28 39 53 42 55 25 26 -28 -29 34 52 -32 -33 -34 -35 -36 56 -38 -39 -40 -41 61 -43 -44 44 -46 -47 -48 -49 50 -51 -52 -53 -54 -55 -56 -57 -58 -59 -60 -61 -62 -63
leaf_value=0 0 -7.6283539978612701e-05 1.0238406830467276e-05 0 0 0 6.9465255364779136e-07 0 1.3361684978010007e-07 0 0 7.4498821049928672e-07 0 0.00015448842663317921 3.4988217521457129e-07 0 -7.0000533014622645e-09 0 0 7.847556844349339e-08 4.2282743379475422e-07 0 0 1.1234598350711194e-05 0 0 7.9601729521527723e-06 0 -3.607710823421047e-09 0 3.1726900488141668e-07 1.9694700604304655e-05 8.2730362191796129e-06 0 3.76193784177312e-07 0 8.2133652176707903e-06 8.5662165656686089e-06 0 1.9957055337727158e-06 0 2.4204433429986239e-06 6.9553341018035836e-06 3.3550895750522614e-07 0 -5.7998113334092195e-09 0 0 0 2.5077024474740027e-07 -1.8510036170482635e-08 0 0 0 0 2.5434482377022489e-05 8.3016348071361664e-08 0 0 0 0 0
leaf_weight=76742 1140 2493 250 1750 390 7020 460 4430 300 380 800 220 4820 24160 680 370 210 810 360 240 920 5030 260 330 550 390 240 490 370 230 240 320 880 2100 310 210 350 310 34066 380 6366 430 450 200 460 240 200 240 2470 690 220 650 3050 5446 590 1520 470 340 530 350 2240 360
leaf_count=7694 114 351 25 175 39 702 46 443 30 38 80 22 482 2416 68 37 21 81 36 24 92 503 26 33 55 39 24 49 37 23 24 32 88 210 31 21 35 31 3628 38 651 43 45 20 46 24 20 24 247 69 22 65 305 586 59 152 47 34 53 35 224 36
internal_value=-0.0134651 -0.019932 0.0197932 -0.0225803 -0.00954784 -0.0116584 0.00745413 -0.0104651 -0.0236291 -0.0174551 -0.0124306 -0.00149513 -0.00926166 0.0242011 0.0129412 -0.014418 -0.000276243 0.00330189 0.0064346 -0.00534682 0.010241 -0.0180906 0.0147523 0.016555 -0.00261438 0.00104167 -0.00753968 -0.00246479 0.00215517 -0.0148058 -0.00664063 0.012234 0.0099359 -0.00794798 0.00808824 -0.00685764 0.0125 0.00523256 -0.0237862 0.0138462 -0.0161814 0.00204082 0.00528169 -0.00961538 -0.00530303 -0.00625 0.000757576 -0.00529925 -0.0045756 0.000925926 -0.00678439 -0.00787402 -0.0115854 -0.0199395 -0.0184164 0.0209459 0.000735294 -0.0177673 -0.0198 -0.0159722 -0.018609 -0.0147413
internal_weight=203513 170383 33130 135760 34623 27433 8720 24940 112698 23062 18020 7190 7720 24410 5100 1890 3620 3180 2370 6920 1660 21782 4440 3730 3060 1920 630 710 1160 10300 1280 1880 1560 6920 680 5760 560 1290 110808 1300 10716 980 710 1040 660 480 660 4010 3770 1080 2690 5080 3280 11066 5620 1850 680 1590 1250 720 3990 6726
internal_count=20750 17437 3313 13873 3564 2845 872 2494 11511 2362 1802 719 772 2441 510 189 362 318 237 692 166 2234 444 373 306 192 63 71 116 1030 128 188 156 692 68 576 56 129 11322 130 1086 98 71 104 66 48 66 401 377 108 269 508 328 1148 562 185 68 159 125 72 399 687
is_linear=0
shrinkage=0.05


end of trees

feature_importances:
fee_diff_1=14
ratio_lag_1=13
fee_rolling_p75=11
fee_rolling_std=9
ratio_rolling_mean=9
fee_lag_1=8
fee_lag_2=8
ratio_rolling_std=8
fee_lag_3=7
minute=6
fee_zscore=6
fee_rolling_mean=5
fee_diff_2=5
ratio_diff_1=5
fee_rolling_p25=4
fee_rolling_p90=3
hour=2
day_of_week=1

parameters:
[boosting: gbdt]
[objective: quantile]
[metric: quantile]
[tree_learner: serial]
[device_type: cpu]
[data_sample_strategy: bagging]
[data: ]
[valid: ]
[num_iterations: 2]
[learning_rate: 0.05]
[num_leaves: 63]
[num_threads: 8]
[seed: 0]
[deterministic: 0]
[force_col_wise: 0]
[force_row_wise: 0]
[histogram_pool_size: -1]
[max_depth: 8]
[min_data_in_leaf: 20]
[min_sum_hessian_in_leaf: 0.001]
[bagging_fraction: 0.8]
[pos_bagging_fraction: 1]
[neg_bagging_fraction: 1]
[bagging_freq: 5]
[bagging_seed: 3]
[bagging_by_query: 0]
[feature_fraction: 0.8]
[feature_fraction_bynode: 1]
[feature_fraction_seed: 2]
[extra_trees: 0]
[extra_seed: 6]
[early_stopping_round: 0]
[early_stopping_min_delta: 0]
[first_metric_only: 0]
[max_delta_step: 0]
[lambda_l1: 0]
[lambda_l2: 0]
[linear_lambda: 0]
[min_gain_to_split: 0]
[drop_rate: 0.1]
[max_drop: 50]
[skip_drop: 0.5]
[xgboost_dart_mode: 0]
[uniform_drop: 0]
[drop_seed: 4]
[top_rate: 0.2]
[other_rate: 0.1]
[min_data_per_group: 100]
[max_cat_threshold: 32]
[cat_l2: 10]
[cat_smooth: 10]
[max_cat_to_onehot: 4]
[top_k: 20]
[monotone_constraints: ]
[monotone_constraints_method: basic]
[monotone_penalty: 0]
[feature_contri: ]
[forcedsplits_filename: ]
[refit_decay_rate: 0.9]
[cegb_tradeoff: 1]
[cegb_penalty_split: 0]
[cegb_penalty_feature_lazy: ]
[cegb_penalty_feature_coupled: ]
[path_smooth: 0]
[interaction_constraints: ]
[verbosity: -1]
[saved_feature_importance_type: 0]
[use_quantized_grad: 0]
[num_grad_quant_bins: 4]
[quant_train_renew_leaf: 0]
[stochastic_rounding: 1]
[linear_tree: 0]
[max_bin: 255]
[max_bin_by_feature: ]
[min_data_in_bin: 3]
[bin_construct_sample_cnt: 200000]
[data_random_seed: 1]
[is_enable_sparse: 1]
[enable_bundle: 1]
[use_missing: 1]
[zero_as_missing: 0]
[feature_pre_filter: 1]
[pre_partition: 0]
[two_round: 0]
[header: 0]
[label_column: ]
[weight_column: ]
[group_column: ]
[ignore_column: ]
[categorical_feature: ]
[forcedbins_filename: ]
[precise_float_parser: 0]
[parser_config_file: ]
[objective_seed: 5]
[num_class: 1]
[is_unbalance: 0]
[scale_pos_weight: 1]
[sigmoid: 1]
[boost_from_average: 1]
[reg_sqrt: 0]
[alpha: 0.5]
[fair_c: 1]
[poisson_max_delta_step: 0.7]
[tweedie_variance_power: 1.5]
[lambdarank_truncation_level: 30]
[lambdarank_norm: 1]
[label_gain: ]
[lambdarank_position_bias_regularization: 0]
[eval_at: ]
[multi_error_top_k: 1]
[auc_mu_weights: ]
[num_machines: 1]
[local_listen_port: 12400]
[time_out: 120]
[machine_list_filename: ]
[machines: ]
[gpu_platform_id: -1]
[gpu_device_id: -1]
[gpu_use_dp: 0]
[num_gpu: 1]

end of parameters

pandas_categorical:[]
