tree
version=v4
num_class=1
num_tree_per_iteration=1
label_index=0
max_feature_idx=23
objective=quantile
feature_names=hour day_of_week minute fee_lag_1 fee_lag_2 fee_lag_3 fee_lag_6 fee_lag_12 fee_lag_24 fee_rolling_mean fee_rolling_std fee_rolling_p25 fee_rolling_p75 fee_rolling_p90 fee_diff_1 fee_diff_2 fee_above_floor is_at_floor fee_zscore ratio_lag_1 ratio_rolling_mean ratio_rolling_std ratio_diff_1 hour_spike_rate
feature_infos=[0:23] [0:6] [0:55] [0.002:0.10757177] [0.002:0.10757177] [0.002:0.10757177] [0.002:0.10757177] [0.002:0.10757177] [0.002:0.10757177] [0.0020689713888888892:0.024862886388888887] [0:0.021532387530403131] [0.002:0.020816599999999998] [0.0020940925000000003:0.028429252500000002] [0.002219033:0.033301736999999998] [-0.041096589999999995:0.055417869999999994] [-0.041096589999999995:0.055417869999999994] [0:0.10555769699999999] [0:1] [-2.5917331067890088:8.3674293521292888] [0.0001:1] [0.057709722222222225:0.1894888888888889] [0.010796634481108467:0.12506600995728309] [-0.88289999999999991:0.88459999999999994] [0:0.099074074074074078]
tree_sizes=5801 5076

Tree=0
num_leaves=63
num_cat=0
split_feature=3 13 3 3 20 5 20 13 20 3 18 5 11 19 3 19 0 3 20 14 3 19 7 20 15 20 7 20 6 13 23 3 3 5 19 18 14 3 1 15 20 14 0 23 9 3 5 21 21 2 23 5 6 6 18 23 6 0 15 3 13 18
split_gain=17606.6 1896.32 666.16 350.401 173.803 141.779 132.815 106.503 102.429 88.0536 98.6993 64.5634 58.4229 53.4625 52.6538 50.5098 47.4342 37.9311 33.2058 30.7161 32.38 30.2509 30.1466 27.874 27.8709 27.7986 27.8223 26.9777 26.4829 25.3676 23.2899 23.0231 22.3965 22.0907 21.8939 21.4427 20.4119 20.0615 20.9921 19.8309 19.517 18.7695 18.0314 22.5074 17.5976 17.4392 16.7079 16.1206 15.0609 14.9503 14.444 14.4104 13.9229 13.446 18.4352 12.6408 16.8939 12.7291 11.6899 9.56493 14.3861 15.7324
threshold=0.0051111750000000008 0.0050063170000000006 0.0055820400000000008 0.0050001550000000009 0.14505833333333334 0.0050036650000000009 0.13082152777777781 0.0050000090000000006 0.14284513888888892 0.0044099450000000011 -0.42694235119527607 0.0050008150000000005 0.0050034337500000003 0.12795000000000004 0.0071641000000000005 0.14175000000000001 1.0000000180025095e-35 0.005919825000000001 0.13328402777777779 -0.00065065999999999985 0.0053574500000000006 0.11005000000000002 0.0050142050000000007 0.15110138888888894 5.9149999999995673e-06 0.12336597222222224 0.005001025000000001 0.1185388888888889 0.0050003750000000005 0.0062805400000000003 0.046296296296296301 0.0050085050000000008 0.0053780400000000015 0.0068015700000000007 0.13775000000000001 -0.24176919189469803 -0.00023693999999999969 0.0050078050000000006 3.5000000000000004 9.0050000000002992e-06 0.1562854166666667 -1.7920000000000042e-05 15.500000000000002 0.0069444444444444449 0.0058049551388888896 0.0050033750000000009 0.005522565000000001 0.034896869699482032 0.029540048079374191 12.500000000000002 0.046296296296296301 0.0051458350000000005 0.0050561300000000007 0.0058570000000000002 -0.31523391220992475 0.014814814814814817 0.0050270000000000011 15.500000000000002 6.540000000000626e-06 0.0050112050000000003 0.0050423635000000008 -0.23803804640556772
decision_type=2 2 2 2 2 2 2 2 2 2 2 2 2 2 2 2 2 2 2 2 2 2 2 2 2 2 2 2 2 2 2 2 2 2 2 2 2 2 2 2 2 2 2 2 2 2 2 2 2 2 2 2 2 2 2 2 2 2 2 2 2 2
left_child=1 7 4 5 25 9 14 27 16 -3 21 28 18 53 -4 52 -5 33 -7 -15 23 -11 29 -21 35 -2 32 -1 42 31 -23 -13 -27 40 51 -20 -14 -29 -39 -17 50 -38 43 -10 -31 -30 -36 -26 -25 -47 -8 -24 -12 54 -6 -9 57 -57 -44 -18 -61 -62
right_child=2 3 6 8 13 12 17 55 11 10 15 22 36 19 -16 39 59 -19 24 20 -22 30 34 48 47 26 -28 37 45 44 -32 -33 -34 -35 46 -37 41 38 -40 -41 -42 -43 58 -45 -46 49 -48 -49 -50 -51 -52 -53 -54 -55 -56 56 -58 -59 -60 60 61 -63
leaf_value=0.004999999888241291 0.004999999888241291 0.0049087295198114592 0.004999999888241291 0.0049999383976683017 0.0050005926517769691 0.004999999888241291 0.0050157241406850513 0.004999999888241291 0.004999999888241291 0.004999999888241291 0.004999999888241291 0.004999999888241291 0.004999999888241291 0.004999999888241291 0.005148787377402186 0.004999999888241291 0.004999999888241291 0.0051629923749715086 0.004999999888241291 0.004999999888241291 0.0050171629060059789 0.004999999888241291 0.004999999888241291 0.0050043239025399089 0.0050001583993434908 0.004999999888241291 0.004999999888241291 0.004999999888241291 0.004999999888241291 0.004999999888241291 0.0050001078750938179 0.0050005553988739845 0.0049991124076768758 0.0049980676267296076 0.0050017323810607195 0.004999999888241291 0.0050007054116576908 0.004999999888241291 0.004999999888241291 0.004999999888241291 0.0050300934119150041 0.0050001569092273709 0.004999999888241291 0.004999999888241291 0.004999999888241291 0.0050001189112663267 0.004999999888241291 0.004999999888241291 0.0050041944021359088 0.004999999888241291 0.0050236518960446123 0.0050006418954581019 0.004999999888241291 0.004999999888241291 0.004999999888241291 0.004999999888241291 0.004999999888241291 0.004999999888241291 0.004999999888241291 0.004999999888241291 0.004999999888241291 0.004999999888241291
leaf_weight=73170 310 2513 450 240 210 700 370 3950 310 630 12860 480 280 210 200 6500 1070 23600 4910 360 1460 4990 230 390 380 790 340 38226 360 390 560 730 260 230 1110 700 300 340 280 790 1360 520 950 1440 490 390 210 290 1550 890 390 210 1190 210 250 4570 200 1070 230 380 370 350
leaf_count=7317 31 407 45 24 21 70 37 395 31 63 1286 48 28 21 20 650 107 2360 491 36 146 499 23 39 38 79 34 4053 36 39 56 73 26 23 111 70 30 34 28 79 136 52 95 144 49 39 21 29 155 89 39 21 119 21 25 457 20 107 23 38 37 35
internal_value=-0.0084628 -0.0149194 0.0250061 -0.00660687 0.0104416 -0.00886207 0.0284774 -0.0182595 0.00132964 -0.0104438 -0.00962573 0.00393112 -0.00298267 0.0154526 0.00615385 -0.0112371 -0.00775934 0.0290366 -0.00467049 0.0176574 0.0186968 -0.00406149 0.0087013 0.015 -0.00351911 -0.00323529 -0.000215827 -0.0186966 -8.75275e-05 0.00464115 -0.00288288 0.00933884 0.00380952 0.0229787 0.0135227 -0.00467023 0.00772727 -0.0176317 -0.00870968 -0.00786008 0.0245755 0.0117073 -0.00293515 0.000285714 -0.00181818 0.005 0.0167424 0.0061194 0.0173711 0.00773437 0.0181579 0.00386364 -0.0129893 0.00238806 0.00717391 -0.0132584 -0.0117808 -0.0122872 -0.00771186 -0.0100922 -0.00681818 -0.0109722
internal_weight=203689 170749 32940 48943 6340 38113 26600 121806 10830 30033 27520 8420 8080 4640 650 21340 2410 25950 6980 3970 3760 6180 3850 2300 6280 1700 1390 112016 4570 2090 5550 1210 1050 2350 1760 5610 1100 38846 620 7290 2120 820 2930 1750 880 1640 1320 670 1940 1280 760 440 14050 670 460 9790 5840 5640 1180 2170 1100 720
internal_count=20755 17461 3294 5050 634 3967 2660 12411 1083 3159 2752 842 808 464 65 2134 241 2595 698 397 376 618 385 230 628 170 139 11432 457 209 555 121 105 235 176 561 110 4115 62 729 212 82 293 175 88 164 132 67 194 128 76 44 1405 67 46 979 584 564 118 217 110 72
is_linear=0
shrinkage=1


Tree=1
num_leaves=63
num_cat=0
split_feature=16 12 16 16 20 16 16 5 20 20 8 19 3 11 9 0 6 4 2 21 15 3 19 19 19 14 12 7 8 6 20 10 0 0 20 6 7 20 9 6 12 16 20 9 5 7 8 14 22 7 21 9 8 4 19 12 21 20 21 21 14 19
split_gain=17460.7 2106.99 374.09 308.557 185.288 165.643 150.558 108.464 108.397 89.3841 72.5742 61.6199 57.1209 52.5573 46.8563 43.1881 40.9229 36.1484 33.8104 30.1187 32.8653 28.743 28.7355 28.5222 28.4256 28.4119 27.8781 28.7531 27.6789 26.287 25.1538 24.3 23.7822 30.2071 22.0627 21.985 22.1457 22.1658 20.532 21.1975 19.8242 18.1395 31.6259 18.1014 17.9229 16.8012 16.577 16.4062 16.1481 16.0728 15.8496 15.7642 17.0971 15.1392 14.7578 14.4 13.8542 13.8507 19.7508 13.6577 13.2499 12.2104
threshold=0.0032025170000000002 0.0050000212500000011 0.0037702720000000007 0.0029891920000000003 0.1212326388888889 0.0027158220000000005 0.0029940770000000008 0.0050036650000000009 0.13082152777777781 0.1562854166666667 0.0051646700000000005 0.14075000000000001 0.0071641000000000005 0.0050034337500000003 0.0050013663194444459 14.500000000000002 0.0050056050000000006 0.005005980000000001 42.500000000000007 0.037157414831250915 1.7174999999999703e-05 0.005522565000000001 0.13855000000000003 0.13655000000000003 0.13335000000000002 1.5649999999999435e-05 0.0050709175000000009 0.0054799450000000008 0.0050129150000000006 0.0053382900000000007 0.14505833333333334 5.9360167071289347e-05 9.5000000000000018 20.500000000000004 0.13053333333333336 0.0059943550000000007 0.0050085050000000008 0.15557916666666669 0.0052498066666666681 0.0050003750000000005 0.0050893475000000007 0.0043669570000000012 0.15280625 0.0050372275000000024 0.0056067650000000005 0.0050048700000000007 0.007923475000000001 -0.00045434500000000004 0.0010499999999999956 0.0068904350000000012 0.026766693961632216 0.0050151538888888901 0.0050020250000000011 0.0050051850000000005 0.19095000000000004 0.008751658750000002 0.036298631049648845 0.14384236111111112 0.028649546011423402 0.037513213186749182 -0.00035620999999999998 0.11755
decision_type=2 2 2 2 2 2 2 2 2 2 2 2 2 2 2 2 2 2 2 2 2 2 2 2 2 2 2 2 2 2 2 2 2 2 2 2 2 2 2 2 2 2 2 2 2 2 2 2 2 2 2 2 2 2 2 2 2 2 2 2 2 2
left_child=1 4 9 5 -1 -3 14 11 12 32 16 29 -4 19 -6 28 22 48 57 20 -9 23 50 -11 -15 30 27 -13 34 45 -24 -19 59 44 -16 36 38 -38 -12 -40 -21 42 47 -30 51 -7 -26 -10 -8 -28 -5 -34 -53 -49 -50 -37 -39 -18 -59 -2 -25 -52
right_child=2 3 8 10 6 7 17 13 41 21 35 26 -14 24 15 -17 18 31 -20 40 -22 -23 25 60 46 -27 49 -29 43 -31 -32 -33 33 -35 -36 55 37 56 39 -41 -42 -43 -44 -45 -46 -47 -48 53 54 -51 61 52 -54 -55 -56 -57 -58 58 -60 -61 -62 -63
leaf_value=0 0 -7.4953823961550396e-05 0 0 0 0 0 0 -1.4817831106484284e-06 0 -1.3706507161256182e-07 0 0.00014134811470285061 -7.8510493039911376e-09 0 0 0 1.2325833085924562e-06 0 0 1.7134239897131054e-07 2.2735002567060288e-05 0 -2.7512392261996912e-06 4.8258109018209203e-07 2.3701577447346121e-08 0 4.9022492021322253e-08 0 0 0 0 0 0 0 0 0 3.4858018625527579e-06 0 1.0663177818061657e-07 0 0.00017074286704882983 4.1392157436348524e-05 0 0 0 0 8.4599084220826809e-06 0 0 0 1.2007100740447616e-05 4.3597258627414875e-06 3.4527394454926272e-05 0 -2.1283398382365703e-06 1.6366731142625256e-06 3.288907464593649e-07 3.3025862649083139e-07 0 1.2321344111114724e-05 0
leaf_weight=79200 640 2511 330 210 16808 7520 580 3160 200 390 200 4210 200 220 9570 14190 200 200 550 950 430 1130 360 230 680 1230 3690 210 970 700 910 300 210 240 11600 250 350 450 370 360 1390 21000 2790 750 200 2310 210 200 860 390 330 670 280 440 370 200 850 360 1050 210 1420 700
leaf_count=7920 64 351 33 21 1967 752 58 316 20 39 20 421 20 22 957 1419 20 20 55 95 43 113 36 23 68 123 369 21 97 70 91 30 21 24 1160 25 35 45 37 36 139 2100 279 75 20 231 21 20 86 39 33 67 28 44 37 20 85 36 105 21 142 70
internal_value=-0.0135144 -0.0196908 0.0211826 -0.00920463 -0.022596 -0.0117394 -0.0204002 -0.0105581 0.0237878 0.00951957 -0.00109183 -0.0125197 0.00141509 -0.00525568 -0.020936 -0.0199434 -0.00432203 -0.00790043 0.00115741 -0.00712479 -0.00424791 0.0150631 -0.00748663 0.0115196 0.00472973 -0.0044 -0.00935294 -0.0121041 -0.0185998 -0.015076 -0.00964567 0.004 0.00234694 0.0059375 -0.0190954 0.00519802 0.00697674 0.0104545 0.000806452 -0.00308219 -0.0115385 0.0242692 0.0210055 -0.0125 0.00882353 -0.0157426 0.00870787 0.0125 -0.0111878 -0.00637255 -0.0137097 0.0112069 0.0139474 0.0164063 -0.0144309 -0.005 0.0134615 0.00481366 0.00656028 -0.00441176 0.0143939 -0.0162621
internal_weight=203689 172909 30780 37511 135398 28581 56198 26070 25160 5620 8930 19030 530 7040 53888 37080 5900 2310 2160 5930 3590 3170 3740 2040 1110 2500 8500 4420 22890 10530 1270 500 2450 1600 21170 3030 2580 1650 930 730 2340 24630 3630 1720 1360 9830 890 840 1810 4080 1240 1160 950 640 1230 450 1300 1610 1410 850 1650 1030
internal_count=20755 17677 3078 3851 13826 2958 5906 2607 2516 562 893 1903 53 704 5675 3708 590 231 216 593 359 317 374 204 111 250 850 442 2289 1053 127 50 245 160 2117 303 258 165 93 73 234 2463 363 172 136 983 89 84 181 408 124 116 95 64 123 45 130 161 141 85 165 103
is_linear=0
shrinkage=0.05


end of trees

feature_importances:
ratio_rolling_mean=16
fee_lag_1=14
ratio_lag_1=10
fee_lag_6=8
fee_lag_3=7
ratio_rolling_std=7
hour=6
fee_lag_12=6
fee_diff_1=6
fee_above_floor=6
fee_rolling_mean=5
fee_lag_24=4
fee_rolling_p75=4
fee_rolling_p90=4
fee_diff_2=4
fee_zscore=4
hour_spike_rate=4
minute=2
fee_lag_2=2
fee_rolling_p25=2
day_of_week=1
fee_rolling_std=1
ratio_diff_1=1

parameters:
[boosting: gbdt]
[objective: quantile]
[metric: quantile]
[tree_learner: serial]
[device_type: cpu]
[data_sample_strategy: bagging]
[data: ]
[valid: ]
[num_iterations: 2]
[learning_rate: 0.05]
[num_leaves: 63]
[num_threads: 8]
[seed: 0]
[deterministic: 0]
[force_col_wise: 0]
[force_row_wise: 0]
[histogram_pool_size: -1]
[max_depth: 8]
[min_data_in_leaf: 20]
[min_sum_hessian_in_leaf: 0.001]
[bagging_fraction: 0.8]
[pos_bagging_fraction: 1]
[neg_bagging_fraction: 1]
[bagging_freq: 5]
[bagging_seed: 3]
[bagging_by_query: 0]
[feature_fraction: 0.8]
[feature_fraction_bynode: 1]
[feature_fraction_seed: 2]
[extra_trees: 0]
[extra_seed: 6]
[early_stopping_round: 0]
[early_stopping_min_delta: 0]
[first_metric_only: 0]
[max_delta_step: 0]
[lambda_l1: 0]
[lambda_l2: 0]
[linear_lambda: 0]
[min_gain_to_split: 0]
[drop_rate: 0.1]
[max_drop: 50]
[skip_drop: 0.5]
[xgboost_dart_mode: 0]
[uniform_drop: 0]
[drop_seed: 4]
[top_rate: 0.2]
[other_rate: 0.1]
[min_data_per_group: 100]
[max_cat_threshold: 32]
[cat_l2: 10]
[cat_smooth: 10]
[max_cat_to_onehot: 4]
[top_k: 20]
[monotone_constraints: ]
[monotone_constraints_method: basic]
[monotone_penalty: 0]
[feature_contri: ]
[forcedsplits_filename: ]
[refit_decay_rate: 0.9]
[cegb_tradeoff: 1]
[cegb_penalty_split: 0]
[cegb_penalty_feature_lazy: ]
[cegb_penalty_feature_coupled: ]
[path_smooth: 0]
[interaction_constraints: ]
[verbosity: -1]
[saved_feature_importance_type: 0]
[use_quantized_grad: 0]
[num_grad_quant_bins: 4]
[quant_train_renew_leaf: 0]
[stochastic_rounding: 1]
[linear_tree: 0]
[max_bin: 255]
[max_bin_by_feature: ]
[min_data_in_bin: 3]
[bin_construct_sample_cnt: 200000]
[data_random_seed: 1]
[is_enable_sparse: 1]
[enable_bundle: 1]
[use_missing: 1]
[zero_as_missing: 0]
[feature_pre_filter: 1]
[pre_partition: 0]
[two_round: 0]
[header: 0]
[label_column: ]
[weight_column: ]
[group_column: ]
[ignore_column: ]
[categorical_feature: ]
[forcedbins_filename: ]
[precise_float_parser: 0]
[parser_config_file: ]
[objective_seed: 5]
[num_class: 1]
[is_unbalance: 0]
[scale_pos_weight: 1]
[sigmoid: 1]
[boost_from_average: 1]
[reg_sqrt: 0]
[alpha: 0.5]
[fair_c: 1]
[poisson_max_delta_step: 0.7]
[tweedie_variance_power: 1.5]
[lambdarank_truncation_level: 30]
[lambdarank_norm: 1]
[label_gain: ]
[lambdarank_position_bias_regularization: 0]
[eval_at: ]
[multi_error_top_k: 1]
[auc_mu_weights: ]
[num_machines: 1]
[local_listen_port: 12400]
[time_out: 120]
[machine_list_filename: ]
[machines: ]
[gpu_platform_id: -1]
[gpu_device_id: -1]
[gpu_use_dp: 0]
[num_gpu: 1]

end of parameters

pandas_categorical:[]
