tree
version=v4
num_class=1
num_tree_per_iteration=1
label_index=0
max_feature_idx=23
objective=quantile
feature_names=hour day_of_week minute fee_lag_1 fee_lag_2 fee_lag_3 fee_lag_6 fee_lag_12 fee_lag_24 fee_rolling_mean fee_rolling_std fee_rolling_p25 fee_rolling_p75 fee_rolling_p90 fee_diff_1 fee_diff_2 fee_above_floor is_at_floor fee_zscore ratio_lag_1 ratio_rolling_mean ratio_rolling_std ratio_diff_1 hour_spike_rate
feature_infos=[0:23] [0:6] [0:55] [0.002:0.10757177] [0.002:0.10757177] [0.002:0.10757177] [0.002:0.10757177] [0.002:0.10757177] [0.002:0.10757177] [0.0020689713888888892:0.024862886388888887] [0:0.021532387530403131] [0.002:0.020816599999999998] [0.0020940925000000003:0.028429252500000002] [0.002219033:0.033301736999999998] [-0.041096589999999995:0.055417869999999994] [-0.041096589999999995:0.055417869999999994] [0:0.10555769699999999] [0:1] [-2.5917331067890088:8.3674293521292888] [0.0001:1] [0.057709722222222225:0.1894888888888889] [0.010796634481108467:0.12506600995728309] [-0.88289999999999991:0.88459999999999994] [0:0.099074074074074078]
tree_sizes=5799 4860

Tree=0
num_leaves=63
num_cat=0
split_feature=3 13 3 3 20 5 20 13 20 3 18 5 11 19 3 19 0 3 20 14 3 19 7 20 15 20 7 20 6 13 23 3 3 5 19 18 14 3 1 15 20 14 0 23 9 3 5 21 21 2 23 5 6 6 18 23 6 0 15 3 13 18
split_gain=17606.6 1896.32 666.16 350.401 173.803 141.779 132.815 106.503 102.429 88.0536 98.6993 64.5634 58.4229 53.4625 52.6538 50.5098 47.4342 37.9311 33.2058 30.7161 32.38 30.2509 30.1466 27.874 27.8709 27.7986 27.8223 26.9777 26.4829 25.3676 23.2899 23.0231 22.3965 22.0907 21.8939 21.4427 20.4119 20.0615 20.9921 19.8309 19.517 18.7695 18.0314 22.5074 17.5976 17.4392 16.7079 16.1206 15.0609 14.9503 14.444 14.4104 13.9229 13.446 18.4352 12.6408 16.8939 12.7291 11.6899 9.56493 14.3861 15.7324
threshold=0.0051111750000000008 0.0050063170000000006 0.0055820400000000008 0.0050001550000000009 0.14505833333333334 0.0050036650000000009 0.13082152777777781 0.0050000090000000006 0.14284513888888892 0.0044099450000000011 -0.42694235119527607 0.0050008150000000005 0.0050034337500000003 0.12795000000000004 0.0071641000000000005 0.14175000000000001 1.0000000180025095e-35 0.005919825000000001 0.13328402777777779 -0.00065065999999999985 0.0053574500000000006 0.11005000000000002 0.0050142050000000007 0.15110138888888894 5.9149999999995673e-06 0.12336597222222224 0.005001025000000001 0.1185388888888889 0.0050003750000000005 0.0062805400000000003 0.046296296296296301 0.0050085050000000008 0.0053780400000000015 0.0068015700000000007 0.13775000000000001 -0.24176919189469803 -0.00023693999999999969 0.0050078050000000006 3.5000000000000004 9.0050000000002992e-06 0.1562854166666667 -1.7920000000000042e-05 15.500000000000002 0.0069444444444444449 0.0058049551388888896 0.0050033750000000009 0.005522565000000001 0.034896869699482032 0.029540048079374191 12.500000000000002 0.046296296296296301 0.0051458350000000005 0.0050561300000000007 0.0058570000000000002 -0.31523391220992475 0.014814814814814817 0.0050270000000000011 15.500000000000002 6.540000000000626e-06 0.0050112050000000003 0.0050423635000000008 -0.23803804640556772
decision_type=2 2 2 2 2 2 2 2 2 2 2 2 2 2 2 2 2 2 2 2 2 2 2 2 2 2 2 2 2 2 2 2 2 2 2 2 2 2 2 2 2 2 2 2 2 2 2 2 2 2 2 2 2 2 2 2 2 2 2 2 2 2
left_child=1 7 4 5 25 9 14 27 16 -3 21 28 18 53 -4 52 -5 33 -7 -15 23 -11 29 -21 35 -2 32 -1 42 31 -23 -13 -27 40 51 -20 -14 -29 -39 -17 50 -38 43 -10 -31 -30 -36 -26 -25 -47 -8 -24 -12 54 -6 -9 57 -57 -44 -18 -61 -62
right_child=2 3 6 8 13 12 17 55 11 10 15 22 36 19 -16 39 59 -19 24 20 -22 30 34 48 47 26 -28 37 45 44 -32 -33 -34 -35 46 -37 41 38 -40 -41 -42 -43 58 -45 -46 49 -48 -49 -50 -51 -52 -53 -54 -55 -56 56 -58 -59 -60 60 61 -63
leaf_value=0.004999999888241291 0.004999999888241291 0.0048707485473365522 0.004999999888241291 0.004999999888241291 0.004999999888241291 0.004999999888241291 0.004999999888241291 0.004999999888241291 0.004999999888241291 0.004999999888241291 0.004999999888241291 0.004999999888241291 0.0049200860978518158 0.0049947501859560952 0.0050088598859600276 0.004999999888241291 0.004999999888241291 0.0050547003980604107 0.004999999888241291 0.004999999888241291 0.004999999888241291 0.004999999888241291 0.004999999888241291 0.0049999920884192615 0.004999999888241291 0.004999999888241291 0.004999999888241291 0.004999999888241291 0.004999999888241291 0.004999999888241291 0.0049913325026209581 0.004999999888241291 0.004999999888241291 0.0049867518130631795 0.004999999888241291 0.0049777338980055751 0.004999999888241291 0.004999999888241291 0.004999999888241291 0.004999999888241291 0.0050072447816485541 0.004999999888241291 0.004999999888241291 0.004999999888241291 0.004999999888241291 0.004999999888241291 0.0049735500062515446 0.004999999888241291 0.004999999888241291 0.004999999888241291 0.004999999888241291 0.004999999888241291 0.004999999888241291 0.0049870385440997506 0.0049939346384832075 0.004999999888241291 0.004999999888241291 0.004999999888241291 0.004999999888241291 0.004999999888241291 0.004999999888241291 0.004999999888241291
leaf_weight=73170 310 2513 450 240 210 700 370 3950 310 630 12860 480 280 210 200 6500 1070 23600 4910 360 1460 4990 230 390 380 790 340 38226 360 390 560 730 260 230 1110 700 300 340 280 790 1360 520 950 1440 490 390 210 290 1550 890 390 210 1190 210 250 4570 200 1070 230 380 370 350
leaf_count=7317 31 407 45 24 21 70 37 395 31 63 1286 48 28 21 20 650 107 2360 491 36 146 499 23 39 38 79 34 4053 36 39 56 73 26 23 111 70 30 34 28 79 136 52 95 144 49 39 21 29 155 89 39 21 119 21 25 457 20 107 23 38 37 35
internal_value=-0.0284628 -0.0349194 0.00500607 -0.0266069 -0.00955836 -0.0288621 0.00847744 -0.0382595 -0.0186704 -0.0304438 -0.0296257 -0.0160689 -0.0229827 -0.00454741 -0.0138462 -0.0312371 -0.0277593 0.00903661 -0.0246705 -0.00234257 -0.00130319 -0.0240615 -0.0112987 -0.005 -0.0235191 -0.0232353 -0.0202158 -0.0386966 -0.0200875 -0.0153589 -0.0228829 -0.0106612 -0.0161905 0.00297872 -0.00647727 -0.0246702 -0.0122727 -0.0376317 -0.0287097 -0.0278601 0.00457547 -0.00829268 -0.0229352 -0.0197143 -0.0218182 -0.015 -0.00325758 -0.0138806 -0.00262887 -0.0122656 -0.00184211 -0.0161364 -0.0329893 -0.0176119 -0.0128261 -0.0332584 -0.0317808 -0.0322872 -0.0277119 -0.0300922 -0.0268182 -0.0309722
internal_weight=203689 170749 32940 48943 6340 38113 26600 121806 10830 30033 27520 8420 8080 4640 650 21340 2410 25950 6980 3970 3760 6180 3850 2300 6280 1700 1390 112016 4570 2090 5550 1210 1050 2350 1760 5610 1100 38846 620 7290 2120 820 2930 1750 880 1640 1320 670 1940 1280 760 440 14050 670 460 9790 5840 5640 1180 2170 1100 720
internal_count=20755 17461 3294 5050 634 3967 2660 12411 1083 3159 2752 842 808 464 65 2134 241 2595 698 397 376 618 385 230 628 170 139 11432 457 209 555 121 105 235 176 561 110 4115 62 729 212 82 293 175 88 164 132 67 194 128 76 44 1405 67 46 979 584 564 118 217 110 72
is_linear=0
shrinkage=1


Tree=1
num_leaves=63
num_cat=0
split_feature=3 12 20 5 16 20 3 16 16 12 19 5 19 20 4 11 6 20 16 19 9 10 12 0 7 0 3 0 2 22 20 4 5 10 22 4 14 7 4 3 22 21 3 10 6 2 20 2 21 20 2 20 21 20 6 6 3 20 9 2 10 3
split_gain=17981.1 2116.98 490.724 309.516 232.416 197.476 143.769 136.29 133.811 100.814 93.4066 70.5393 60.2487 59.0056 55.8792 55.3129 49.2641 45.9898 43.312 39.8955 39.3531 34.1226 35.9402 32.7538 32.7403 32.3086 31.6132 29.1084 28.6064 26.025 24.3417 22.6256 21.7775 20.921 23.5525 19.8483 22.586 19.8152 21.8488 24.0525 19.8023 20.3839 19.7699 19.4831 18.566 18.6685 16.6221 15.8636 12.6453 13.4027 13.14 12.5956 12.2156 11.8576 11.7418 12.1006 11.0053 10.808 12.25 10.5111 11.4734 10.2592
threshold=0.0051111750000000008 0.0050000012500000012 0.1385527777777778 0.0050008150000000005 0.0037702720000000007 0.1212326388888889 0.004773480000000001 0.004493327000000001 0.0029940770000000008 0.0050646475000000009 0.14215000000000003 0.0050001550000000009 0.10785000000000002 0.14505833333333334 0.0050125150000000012 0.0050055025000000008 0.0050609050000000001 0.13374375000000002 0.0029973170000000006 0.15085000000000001 0.0050016619444444464 0.00022131142230554323 0.011335233750000001 14.500000000000002 0.0054127650000000008 3.5000000000000004 0.0053780400000000015 9.5000000000000018 52.500000000000007 -0.011999999999999992 0.1242576388888889 0.0050132600000000012 0.0050036650000000009 0.00063362223413822034 0.036600000000000008 0.005015045000000001 -5.2250000000001939e-06 0.0050090050000000013 0.0050186150000000006 0.0050008150000000005 -0.043499999999999983 0.049317352877927691 0.0052960600000000009 0.00011950859100261536 0.0050003750000000005 22.500000000000004 0.15236666666666668 27.500000000000004 0.030729035931127646 0.15189027777777783 7.5000000000000009 0.14610486111111112 0.049317352877927691 0.14243055555555559 0.0076659800000000002 0.005001025000000001 0.0053948700000000004 0.14215972222222226 0.0050054838888888903 37.500000000000007 9.2256805364724121e-05 0.0050039650000000008
decision_type=2 2 2 2 2 2 2 2 2 2 2 2 2 2 2 2 2 2 2 2 2 2 2 2 2 2 2 2 2 2 2 2 2 2 2 2 2 2 2 2 2 2 2 2 2 2 2 2 2 2 2 2 2 2 2 2 2 2 2 2 2 2
left_child=1 5 7 6 13 -1 -3 30 11 19 16 20 -11 27 57 18 32 -13 35 44 -7 -14 -23 43 29 -20 28 -4 48 -21 56 59 -5 34 -19 36 -12 -17 39 -39 46 -42 -29 -22 53 -46 -34 -27 49 -15 -50 -37 61 -8 55 -28 -2 -10 -59 60 -32 -18
right_child=2 3 4 10 -6 8 9 -9 14 12 15 17 21 26 -16 37 52 33 25 24 23 22 -24 -25 -26 47 54 42 -30 -31 31 -33 40 -35 -36 51 -38 38 -40 -41 41 -43 -44 -45 45 -47 -48 -49 50 -51 -52 -53 -54 -55 -56 -57 -58 58 -60 -61 -62 -63
leaf_value=0 0 -0.00012020167702771895 0 0 4.5940460488793883e-05 -9.9525426709117198e-05 0 0 0 0 -7.2299389658286967e-05 0 0 0 0 -3.6065209861187513e-06 0 0 0 0 0 0 0 0 0 0 0 0 -5.3163081483361896e-06 0 0 0 0 -3.9746875337876993e-05 0 0 0 -2.7192323874136121e-05 0 0 0 0 0 0 0 0 0 0 -3.6400735235059267e-08 -3.8609135318088544e-08 0 0 0 0 -1.1130894498962959e-05 2.4253602526442868e-07 0 0 0 -3.5555330282041248e-06 0 0
leaf_weight=79040 260 2341 210 580 24190 17328 2410 590 1230 810 230 2180 220 210 290 230 840 1640 220 400 11620 8260 220 12440 240 430 750 200 310 3110 210 380 410 300 210 280 2410 400 580 280 2400 280 270 7860 940 1240 300 440 280 550 1600 900 300 4170 250 1830 280 200 200 270 300 340
leaf_count=7904 26 334 21 58 2419 2019 241 59 123 81 23 218 22 21 29 23 84 164 22 40 1162 826 22 1244 24 43 75 20 31 311 21 38 41 30 21 28 241 40 58 28 240 28 27 786 94 124 30 44 28 55 160 90 30 417 25 183 28 20 20 27 30 34
internal_value=-0.0331339 -0.0396588 0.000689132 -0.0289275 0.00235726 -0.0425472 -0.0321516 -0.0216376 -0.0402611 -0.0308992 -0.0222996 -0.0407259 -0.0270189 -0.00606811 -0.0272917 -0.0182031 -0.0271101 -0.0346074 -0.0207637 -0.0338489 -0.0412638 -0.0258046 -0.026309 -0.0402224 -0.0295333 -0.0119725 -0.00442907 -0.02 -0.00805085 -0.030755 -0.0288235 -0.0247414 -0.0300126 -0.0294186 -0.0274324 -0.0232723 -0.0256818 -0.0097651 -0.00730159 -0.0133824 -0.0284808 -0.0304478 -0.0130851 -0.0389425 -0.0356963 -0.0316972 -0.0210563 -0.00764368 -0.00636364 -0.000921053 -0.00856383 -0.0178814 -0.0193243 -0.0370213 -0.00065371 0.000348837 -0.0375926 -0.0308896 -0.02375 -0.0296154 -0.0253922 -0.0170339
internal_weight=203689 170749 32940 36211 30650 134538 24361 2290 55498 22020 11850 53578 9510 6460 1920 6400 5450 4330 4910 12510 49248 8700 8480 31920 3750 1090 5780 680 2950 3510 1700 1160 3970 2150 1850 3820 2640 1490 1260 680 3390 2680 470 19480 8760 2180 710 870 2640 760 1880 1180 1480 6580 2830 2580 540 1630 400 780 510 1180
internal_count=20755 17461 3294 3721 3065 13740 2536 229 5836 2202 1185 5644 951 646 192 640 545 433 491 1251 5211 870 848 3192 375 109 578 68 295 351 170 116 397 215 185 382 264 149 126 68 339 268 47 1948 876 218 71 87 264 76 188 118 148 658 283 258 54 163 40 78 51 118
is_linear=0
shrinkage=0.05


end of trees

feature_importances:
fee_lag_1=19
ratio_rolling_mean=18
fee_lag_3=8
fee_lag_6=8
ratio_lag_1=7
hour=6
minute=6
ratio_rolling_std=5
fee_lag_2=4
fee_lag_12=4
fee_rolling_std=4
fee_rolling_p90=4
fee_diff_1=4
fee_above_floor=4
fee_zscore=4
hour_spike_rate=4
fee_rolling_mean=3
fee_rolling_p75=3
fee_diff_2=3
ratio_diff_1=3
fee_rolling_p25=2
day_of_week=1

parameters:
[boosting: gbdt]
[objective: quantile]
[metric: quantile]
[tree_learner: serial]
[device_type: cpu]
[data_sample_strategy: bagging]
[data: ]
[valid: ]
[num_iterations: 2]
[learning_rate: 0.05]
[num_leaves: 63]
[num_threads: 8]
[seed: 0]
[deterministic: 0]
[force_col_wise: 0]
[force_row_wise: 0]
[histogram_pool_size: -1]
[max_depth: 8]
[min_data_in_leaf: 20]
[min_sum_hessian_in_leaf: 0.001]
[bagging_fraction: 0.8]
[pos_bagging_fraction: 1]
[neg_bagging_fraction: 1]
[bagging_freq: 5]
[bagging_seed: 3]
[bagging_by_query: 0]
[feature_fraction: 0.8]
[feature_fraction_bynode: 1]
[feature_fraction_seed: 2]
[extra_trees: 0]
[extra_seed: 6]
[early_stopping_round: 0]
[early_stopping_min_delta: 0]
[first_metric_only: 0]
[max_delta_step: 0]
[lambda_l1: 0]
[lambda_l2: 0]
[linear_lambda: 0]
[min_gain_to_split: 0]
[drop_rate: 0.1]
[max_drop: 50]
[skip_drop: 0.5]
[xgboost_dart_mode: 0]
[uniform_drop: 0]
[drop_seed: 4]
[top_rate: 0.2]
[other_rate: 0.1]
[min_data_per_group: 100]
[max_cat_threshold: 32]
[cat_l2: 10]
[cat_smooth: 10]
[max_cat_to_onehot: 4]
[top_k: 20]
[monotone_constraints: ]
[monotone_constraints_method: basic]
[monotone_penalty: 0]
[feature_contri: ]
[forcedsplits_filename: ]
[refit_decay_rate: 0.9]
[cegb_tradeoff: 1]
[cegb_penalty_split: 0]
[cegb_penalty_feature_lazy: ]
[cegb_penalty_feature_coupled: ]
[path_smooth: 0]
[interaction_constraints: ]
[verbosity: -1]
[saved_feature_importance_type: 0]
[use_quantized_grad: 0]
[num_grad_quant_bins: 4]
[quant_train_renew_leaf: 0]
[stochastic_rounding: 1]
[linear_tree: 0]
[max_bin: 255]
[max_bin_by_feature: ]
[min_data_in_bin: 3]
[bin_construct_sample_cnt: 200000]
[data_random_seed: 1]
[is_enable_sparse: 1]
[enable_bundle: 1]
[use_missing: 1]
[zero_as_missing: 0]
[feature_pre_filter: 1]
[pre_partition: 0]
[two_round: 0]
[header: 0]
[label_column: ]
[weight_column: ]
[group_column: ]
[ignore_column: ]
[categorical_feature: ]
[forcedbins_filename: ]
[precise_float_parser: 0]
[parser_config_file: ]
[objective_seed: 5]
[num_class: 1]
[is_unbalance: 0]
[scale_pos_weight: 1]
[sigmoid: 1]
[boost_from_average: 1]
[reg_sqrt: 0]
[alpha: 0.1]
[fair_c: 1]
[poisson_max_delta_step: 0.7]
[tweedie_variance_power: 1.5]
[lambdarank_truncation_level: 30]
[lambdarank_norm: 1]
[label_gain: ]
[lambdarank_position_bias_regularization: 0]
[eval_at: ]
[multi_error_top_k: 1]
[auc_mu_weights: ]
[num_machines: 1]
[local_listen_port: 12400]
[time_out: 120]
[machine_list_filename: ]
[machines: ]
[gpu_platform_id: -1]
[gpu_device_id: -1]
[gpu_use_dp: 0]
[num_gpu: 1]

end of parameters

pandas_categorical:[]
